{"layers": [70, 60, 50, 40, 30, 1], "weights": [[[0.020050457880049017, -0.01845084155457529, 0.0035862506555020103, 0.010368590531458282, 0.03882451130450763, 0.04382975308811039, -0.0007313855574038437, -0.005910547926015314, -0.011745994447934416, -0.04420522300205694, -0.010295744233065942, 0.004334625124517533, -0.008688983147229457, 0.07001240454243948, 0.02460970496581165, 0.01922261550304405, 0.03025297183256562, 0.02443686299037529, 0.011667304078102157, -0.05682055581318057, -0.038296431615713424, 0.009749912316737039, -0.00538184045733265, -0.06573300264824897, -0.011981493777826197, -0.043289245855749316, 0.030647245242972306, 0.004329970333186595, -0.007399879078967504, 0.016765723517505365, 0.0020223650594213467, -0.0448870149307979, -0.03606442852468125, 0.03614365051479806, -0.06022131970060127, 0.02455017582874241, 0.0012832584822245377, 0.016140957080740863, -0.05399889370780434, 0.06952208272317904, -0.008189672301892737, -0.011228683505789637, -0.03650205438942783, 0.005102111770251018, -0.02709262683040849, -0.055237909788422426, -0.012990370430944916, -0.06734051976615604, -0.001054335078558259, -0.03952274794397429, 0.03296916419924251, -0.00429174752874957, 0.06744133199612368, 0.03925055941136861, -0.033547746662504964, -0.019293485743729393, -0.08439118064066206, -0.0676973605282835, -0.11279143028899577, 0.023769212330819186, -0.00025160910338998144, -0.04133854837655766, 0.01580997888319924, -0.005044252672311124, -0.019822795748460485, 0.04855399816351997, -0.026157733995256935, 0.002061199980552475, -0.008626258714065103, 0.018669120828618914, -0.006600462613361011, -0.044910244482812695, -0.03584557477719041, 0.016135142446626765, 0.0036854889267136145, -0.03816512179829989, 0.05314477396483441, 0.032660530746653475, 0.08700169823740775, 0.001743312206184864, -0.0003605887190117781, -0.0016980912798918127, 0.02470964732739869, 0.007764916253514901, -0.019924105397810393, 0.031153773143019852, 0.04414448316220757, 0.017060731339794574, -0.058287118127564194, -0.01657222380232952, 0.036589763784057365, 0.08394161466704411, 0.01903471052627338, -0.07232781407905263, 0.01136717149937857, 0.02206738292180803, 0.04010414695996588, -0.02887864818093274, 0.07082113502343489, -0.0595019765024292, 0.040763493325153416, 0.0026505335019051564, -0.030613717352000726, -0.0036754984254638028, 0.004087295294331892, -0.0033590981865987625, -0.026526731029084247, 0.03029325191068441, -0.017201160274674426, -0.02191020212308568, 0.018505974205893172, -0.0045032128598152775, -0.05316718977553591, 0.03667774418220784, -0.06786399055920962, 0.08167520243824715, 0.03034938267992817, 0.05027391022928142, -0.009157910129368308, -0.0022767827221739445, 0.030005594240589954, 0.0042881617722537145, -0.012708513098771084, -0.048645295125309934, -0.02793455108849277, -0.007505320524606939, -0.00588758006317099, -0.03200602421862093, -0.0058332621115157485, 0.0069817747162007355, 0.00208526651747855, -0.022140563541209003, -0.06260360162468519, -0.04859194644198436, -0.01970122920513236, 0.015808798409770876, -0.06875235739879501, -0.01914861514034371, 0.04570981397689732, 0.03806215215555688, 0.04474711110049697, 0.03602250821009372, 0.04681804879719333, 0.02879862668359499, -0.025698904497035904, -0.039537707293513386, -0.018834802918729247, -0.004124042875002404, -0.046626871344620194, -0.037942388244766354, -0.007473640793406271, 0.001927904821659074, 0.012528666911384883, -0.018972251321720698, 0.02812611813337506, -0.0011667806668942886, 0.05865435758734274, 0.04098040251935009, 0.03719242231993847, 0.010511876104632967, 0.020701588590780085, -0.018017477814253738, -0.05549790625079869, -0.06250020126253593, -0.0406876494833958, -0.035181371858561496, -0.009295803018053843, -0.044749667314855975, -0.04044990212330744, 0.03780922163912276, 0.01868607234939303, -0.0355596769566618, 0.020288277530007788, 0.0730430969036799, -0.04620984470674401, -0.005555915300369138, 0.0204249263383213, 0.07136587480501547, -0.007911789629253856, 0.05069336959254775, 0.02820198652715911, 0.023412524899831047, 0.03244908299591907, -0.016951032181655806, -0.023179387351188716, -0.04790194509887519, -0.017958403483955592, -0.006874732365002863, -0.05900265476389881, 0.015241628322845183, -0.0049078693279360755, -0.03250955994002495, -0.01551286386113274, -0.09237751338002737, 0.04308905138930365, 0.021201506322410597, 0.008587353012150295, -0.006814167334451478, 0.04233166494133154, -0.09426639818684407, 0.03378113757474674, -0.0470090287856119, 0.03904605100097723, 0.01001327064441957, 0.015425871414398886, -0.002311353052432159, -0.013076609061408777, 0.019082738187711463, 0.09089122438861984, 0.024221035513611298, -0.006358366061029257, -0.03415912212585175, 0.03452267576200681, -0.031343784380367196, -0.03783826740439081, -0.04165063038527178, 0.005170476729283864, 0.024387096381839803, 0.010319209601084194, -0.02949105777468164, -0.03982723586438401, 0.06996367841518046, -0.04333868284893431, -0.02557911812518016, 0.014182716177587523, 0.012313441871095801, 0.05252533270539017, 0.021911444736748487, -0.026502513567846324, 0.01139378128883321, 0.0030334607778653507, -0.017351226498688956, 0.04757927487030098, 0.006362580613879359, 0.053734022750284854, 0.016869847617256684, 0.029035254723440762, 0.010564244151186473, 0.010272800038565275, 0.04546204346619017, -0.05701431600391344, -0.05114242389672359, 0.012172341099409196, 0.07118590476742827, 0.04274981071912663, -0.05337825274438099, 0.04643945364183231, 0.06483418733182839, -0.013502464455919804, 0.016298516483488127, 0.021120310760268404, 0.033747050027928494, -0.044026197082150983, -0.03749594607770881, -0.007837616121596034, -0.008675800545604566, -0.041708180607906195, -0.010419945553584596, -0.004265085869558545, 0.017062510238238734, 0.07149658448546245, 0.025082552185795495, -0.015337676564317703, -0.02077195947909132, 0.0038382835406621917, -0.06298585832220234, -0.03322430865680955, -0.002664967432408168, -0.06648826700016676, 0.059107843548282836, -0.02024889319783992, -0.04357517979438347, 0.046218050871633706, 0.0580265067243186, -0.02827788747712276, -0.021730626017769258, 0.020604985333111607, -0.03205106843356579, -0.014826279659509736, -0.08117467891310233, 0.009637345076114487, 0.04240969103734078, 0.003705004476480085, 0.0006327775759379491, -0.042313908523192084, 0.003057119444446193, 0.015635913801757276, 0.02746945780748998, -0.08925683283025489, 0.03820198597367037, 0.017282000168312262, -0.01726863825955837, -0.014670261026171189, 0.0011599607991172314, -0.015172529859078599, -0.035206511154461176, -0.03581013545169876, 0.05117730284178167, 0.018656929246344562, 0.07600708368467693, 0.015391596842005887, 0.0021492814010361534, -0.008547014450384286, 0.02557158444790071, -0.007932836500500924, -0.03414521826066094, 0.03509476226288179, -0.04606867563863961, -0.021447725283950378, 0.04170629712579013, 0.022051485480417167, -0.02820562506966897, 0.0555664403546324, -0.021313062485431345, 0.011559398049604878, 0.0004170891187164151, 0.07029952554209946, 0.02883525446571891, -0.10356791616408681, 0.04366616987933997, 0.025240727122982868, 0.017633662616248724, -0.021214153262481578, -0.011116799619383774, 0.02325811738281391, 0.09423848030027968, 0.039801827246213554, -0.02389085111469657, 0.01631992446251803, 0.006621990746648569, 0.01700339498697198, -0.012063192239816455, -0.037380981095029166, 0.030981111117711027, 0.014326777698517722, -0.000928061088560924, 0.03570331695741106, 0.03243496521515462, 0.06291880005671391, -0.0176056858161625, -0.003051193913773775, -0.0008940811798199475, -0.020258170752043083, 0.032536515406001276, -0.048267901764974454, -0.02780297077069575, -0.028264754239228747, 0.014440784536546536, -0.011266618457530481, 0.011929552895786942, 0.0211917896303532, 0.009404284951256496, -0.0014267683131131235, -0.031034671271235412, -0.07946038671779489, -0.013845792739090609, 0.03230971431016378, -0.0756258706200913, 0.00660622021614627, 0.02313206028121015, -0.009034928172395651, 0.05039684896825078, -0.036622554493973135, -0.051030641986642464, 0.05989419450082423, 0.010617333574862435, 0.016059217176112136, -0.05391562630636194, 0.0013992175055095694, -0.008544874796208904, -0.07717245046803504, 0.027906433692177716, 0.0006566296429083171, 0.0018770610535863608, 0.03699499690591395, -0.02114135410954972, 0.01209284470639749, -0.0019518525925875459, -3.962239660620018e-05, 0.03117995177400099, 0.01776656069407912, 0.014119250033896712, -0.021090564273591936, -0.0248562064570533, 0.01780977818444502, 1.751570105323388e-05, -0.010484537121596988, -0.047682845668979346, -0.019454777995228045, -0.029065243943989478, -0.010870731645198759, 0.00875948408005542, -0.019247145028589787, 0.010162320427260872, 0.019397288721120887, 0.005458851696043335, -0.006447583009720206, -0.006238526554392529, 0.0063406241472003695, 0.015827334312362246, 0.019892199952198403, -0.0025730786028216853, 0.003143858387800472, 0.07188930738234801, -0.02265544741150864, 0.046084002864577936, 0.060236093851754095, -0.045098510262875126, 0.017859200822665136, -0.08175200035791393, -0.07304424119452935, 0.024207827798224692, 0.0005694689273798882, 0.01191853602559859, 0.01442214375995407, -0.002779231695461858, -0.00194897802530895, 0.0042384984061955185, 0.004933279009725944, 0.00893059054456307, 0.018777557899904956, -0.010410431672674613, 0.008988349593500181, 0.009058767658330398, 0.00186175077507779, 0.02273431919291137, -0.024304255801519393, 0.006209843494234798, -0.052499069834533375, 0.049719438189392104, 0.008970375459019046, -0.003552819489048734, 0.0594956548371033, -0.0045294195598929825, -0.006800323619675314, -0.06853880422840847, 0.01174778980032768, -0.035073793405262524, -0.03137935478289891, -0.026458522707330137, 0.010268672504855702, -0.05791958136386209, 0.05767872451778087, -0.0007876803830939153, 0.04803804614616012, 0.043050329760883625, -0.09077267826098975, -0.019387351733227337, -0.07740907279524532, -0.02411425679716911, 0.01730886564263117, -0.005082704284382612, 0.016369228685903583, -0.022439885663511815, 0.03572045566060785, 0.08784879535911458, 0.007896576515953699, -0.020571328127626718, -0.010753408822445512, 0.006177013895599082, -0.03309211160275645, -0.022400517130872627, -0.02400912241858693, -0.024086772710197053, 0.03552682098071702, 0.07674294536341153, 0.001229025189944837, 0.020062949552837318, -0.014932923835858277, -0.0014629400178183688, 0.045167959886253176, 0.004972898507953864, 0.009310267155905917, 0.02305668456971654, -0.0497037075697653, 0.015769161791723565, -0.008973484363418785, -0.05972535465560178, 0.016238016340814735, 0.02170044216873907, -0.04087379806371893, -0.005378297894926509, 0.01277589376684232, -0.02400097413340241, 0.06202843080903981, -0.0238449904048618, -0.018937648142098713, -0.10669292740335196, 0.007477055952082699, -0.02364027199083937, -0.00830295230903244, -0.051373116650748465, 0.00395019688141191, 0.0014986650984448071, 0.07233373861781345, 0.048052804751915576, -0.020913290256286517, 0.0045335797345209174, 0.01360884584596163, -0.006838259529589395, -0.060944414688411275, 0.02683025823273455, -0.03399781622286954, -0.0017673905524098921, 0.04817179451628422, -0.01033993347098646, -0.04695898712306395, -0.0018333599213779018, 0.04486480764042905, -0.03590795471969797, 0.005518506314078216, -0.029875348405989523, -0.0008120624604316919, -0.05368168632988122, -0.033187636200021096, -0.010713948860571861, 5.3532568734167375e-05, 0.028175434435105635, -0.0221159009000898, 0.010104358758648358, 0.04357363056171061, 0.054797400446374774, 0.0202519397348404, -0.025788826220131796, -0.012373820860031479, -0.0007837912307227204, -0.026718446787419452, -0.032984866634905796, 0.020677269422637, -0.018447453909356266, 0.014340377928956082, -0.000250602921620698, 0.0012622591331665587, -0.006283994084565186, -0.01241238257920547, -0.01232608093321809, -0.031495792948977856, -0.018280556476133785, 0.05372163193222052, 0.025260639069061442, -0.03501763624659481, -0.04157338961113124, -0.0003395397350595493, -0.02872176619065616, 0.04969497574861331, 0.026738714764099558, -0.014861720318067215, -0.01297092779196988, -0.014083494545326201, -0.0019901724948576146, 0.014940221330282678, 0.02161102025461256, -0.03723149504115268, 0.0271149643620332, 0.0074442919062741005, 0.03711102667967246, -0.03965530659296904, -0.004679519648090128, 0.014919195463100167, 0.014714373050762354, -0.00101766801360059, -0.008416677057060892, -0.027499344265430974, 0.05554486165606962, -0.0008050644449780164, -0.06268310266586449, -0.06507834514343828, -0.0009352292409207823, -0.022685112030307014, 0.016168329500848257, -0.045335700686192415, 0.05766150153261999, -0.0009323849817547529, 0.04644196101194542, 0.011494949252544765, -0.006354421451855885, -0.010042159797578698, -0.03318995885338088, -0.06258183818705518, 0.000494381116387642, 0.005799135319139771, -0.00912656478684749, -0.030728326224569835, 0.030111581545808536, 0.008835146060578758, 0.020827838869716106, -0.0378027293653751, 0.08914646792593137, -0.047511701285885506, 0.04434556188625118, 0.004520163471292448, -0.06398157282380933, -0.048983171507606144, -0.04075970552619121, -0.008133246798791852, -0.0484159266293637, 0.05691474041402862, -0.006482362235773734, 0.0098633604957737, -0.056786589674831744, -0.04914604128664743, -0.0010641974111760093, 0.0029386003049742086, -0.029676264937804366, 0.043174856214343756, -0.01474971476508325, 0.020546449433786227, 0.012307826037997923, -0.03145133642396819, 0.04266674964194009, -0.04052925688899563, 0.013747202203733428, 0.011183472639687206, -0.04047044906369849, -0.0064880161155304724, -0.04231576010355553, -0.04475651933817761, -0.03901239210581595, -0.03416854626022365, 0.004239691475466938, 0.024353145032202178, 0.005294860844072077, -0.005139282444747592, 0.016084887668057327, -0.01262745218943498, -0.0074535444600699365, 0.0098919804424003, 0.004014241776951731, 0.04325395758691739, 0.021728080012904008, 0.03029686235351433, 0.0202368102765118, 0.019081558619591307, -0.01225564104534554, 0.032931149155570216, -0.07263619044876178, -0.052723799422758996, -0.0016935855994144233, 0.06628263395168707, 0.02648978985605482, -0.01628030139696697, 0.01191683701735174, 0.044257193243239304, -0.08100666671502228, -0.03486247969403545, 0.03970994099926201, 0.03712249093765167, 0.0023459125003959837, -0.0482582953615233, -0.025663623413182457, -0.023488986770553607, -0.01790993801869689, 0.006195956126122531, 0.002076244191884172, -0.003039557750203846, -0.001976176795783844, -0.11175933567988512, 0.02890152500338673, 0.01869427234977964, 0.06866808312441419, -0.0038278388918225516, -0.03211118409518705, -0.038782280145013476, 0.0008466276008354386, 0.03398225830740046, -0.0008455942022844726, -0.02439322406602141, -0.07449898467894195, 0.011588398982598282, -0.006326654928355073, 0.02379843693934069, 0.041258958564171666, 0.013177017033518045, 0.011656161589234841, 0.0035133197728965558, -0.0038725807975479236, 0.06996967372772141, 0.013793355607388461, -0.0543694029332463, -0.0011007682851254857, -0.0131495407607747, -0.06597261941414218, -0.00834112914992458, 0.02793285918276384, 0.015426166102177676, 0.00045374572566721114, 0.03224735539405295, -0.05797121181246506, 0.02475024164919479, 0.010598781538068862, -0.02363174881281839, -0.005414934708084231, 0.010658865659015446, 0.012311099938825178, 0.004904182623476505, -0.01596177016782451, 0.0996588818977606, -0.016863300799008277, -0.04122559536591385, -0.0074190491173466095, 0.03226960576692753, -0.037241904404617235, 0.08185170894272999, -0.004248955247490628, -0.005224691132829185, -0.019936886414864345, 0.02462966959910574, 0.001685991649427453, -0.04931676343592267, -0.05328894267758185, -0.025372643488117103, -0.03195386954161479, 0.014141495397798774, 0.02994904940214588, 0.01200109856824686, 0.03387969722390977, 0.011466582505401437, -0.013805413491558435, -0.019098970317388376, -0.05762464214219, 0.05309222092380864, 0.003696723480668186, 0.015760712362952723, 0.01908898258600531, -0.03165138346804689, 0.02807862032402629, -0.010921180598772954, -0.0045840964184464365, 0.04584857761961529, -0.025411728189318878, -0.00012816285432232314, -0.04950329634212494, -0.023870616859431305, -0.055285706384813164, -0.03648585759808863, 0.039081221574403496, -0.033563561103003785, 0.006895378039622512, -0.04642010848409913, 0.00031557571260388943, -0.001705051186553378, 0.029547344353668046, 0.01695130345126484, 0.013276909371929643, 0.002885955890760421, 0.01470250462034874, -0.000641626402297154, -0.009141590807392625, -0.06166183911232322, 0.0010681639396433944, 0.01391402902382925, 0.043464538086018176, 0.02717236215449038, -0.010659930426808552, 0.027547438747196177, -0.017995068422046956, 0.005095067819510792, 0.01251572120251922, 0.032452899042495896, 0.07057929526485004, -0.08864737259310472, -0.038266359915883945, -0.014051045451556308, 0.016545746047651227, -0.02098218227721765, 0.03275014815367841, 0.016533979853736808, 0.029017749441440553, 0.053390227449296404, -0.011901794716336705, -0.015468257683118504, -0.024082243941791846, -0.04804763988290842, -0.050248256695314505, 0.06231958578822545, 0.07093653821688661, -0.03681231448133352, 0.0013278521116426795, -0.06824317571151457, 0.0012961920479654216, 0.002426089408302336, 0.03121909797090788, 0.05004320251248582, -0.04259571885753759, 0.0034983608747355403, 0.009293285400190513, -0.030914112831982334, 0.032772523951289746, 0.04184571839249916, 0.036946807698189255, -0.038192654917882804, 0.005901409877389585, 0.025727431559396257, 0.03013929499117451, -0.03387761505878937, -0.02045371185568039, -0.02639814695737682, 0.02919461946207585, -0.06661082984366377, -0.006099073875316012, 0.06658097087131805, -0.0008157739947672642, -0.00361640270584179, -0.0019050598251204487, -0.09173415546376879, -0.02356573069573189, 0.020436955127402394, 0.03162797459565596, 0.009292678438179307, -0.06128725553161846, -0.0038029668436661483, -0.055436475184077794, -0.005551962406965308, 0.003765886501154533, 0.008513062006674588, 0.02020983821827479, 0.014263536761772146, -0.016921574214249502, -0.022492881255901275, -0.05072572568634069, 0.0072916328881437965, -0.009642701529425368, -0.03677126809530399, 0.0018333103849742856, -0.010528010206123508, 0.024162856655590963, 0.031423689039986866, -0.05881662742285529, -0.0008771341661484994, 0.012650792791163218, -0.011821396036096856, 0.014184744934752967, -0.09404367035566517, 0.003117722856066362, -0.027752251319892448, -0.002176978751445608, -0.01632221433211031, -0.007404811664014596, 0.0088672728255919], [-0.005500872934685355, -0.03326848576342475, -0.03566080427940116, -0.05269281794615024, 0.020153901045190877, -0.036587521677956265, -0.02814249323302862, -0.04057388867132064, -0.00020230031759426473, 0.004654979119836818, 0.0685080728048658, 0.015561890067040432, -0.07001773480770175, -0.014111494504070279, 0.016379498783626576, 0.0003932891367540908, 0.01558691807076349, 0.024547826422203833, -0.0566337094851789, 0.04067576800724306, 0.0381626250086803, -0.028996873640039677, -0.04721571361489361, -0.04861209377085232, 0.01610330921849396, -0.056994446263891475, 0.02753556457346736, -0.037348955609828254, -0.03884293837794121, 0.01786040020026676, 0.040855374541531174, 0.03927903390626941, 0.013398063443526727, 0.0019234410667056064, 0.0111364074332134, -0.042628335703077044, 0.05001233879034458, -0.020733064122329215, 0.005573900712467394, -0.03433274667962115, -0.02279403346428201, -0.015542157098041862, 0.04577697340995415, 0.07824148653711253, 0.025773619544711947, 0.10609982019028498, 0.011551362079368709, 0.09960636866963186, 0.004572643398873683, -0.015198015736178691, -0.01159217297711488, -0.03822180472411352, -0.006947938491199559, 0.008168733182258534, -0.030309524215930514, 0.04339394902508394, 0.011296531155901955, -0.0034420915819722317, -0.0168552543835672, 0.05642898258425299, 0.08252813348075362, 0.02527407831882544, 0.015277034506117351, -0.009232015187805382, 0.04271892439757597, 0.024246268373244274, 0.014731922987086168, -0.021528204076534482, -0.006175242371973823, 0.0013780624723100658, 0.0201651943987886, 0.01941596345837025, 0.028902057373836207, 0.043053361305681825, 0.011740673896771563, 0.03512360887623624, -0.060602210357436744, -0.0255577516232632, 0.005292756731261568, -0.026060998776928506, 0.009749523466974068, -0.0027482189184101797, 0.03460705049272033, -0.01686858070279696, 0.03246926517167958, -0.017108644457799187, -0.038606899800067374, -0.043146819845968444, -0.03275440680024434, -0.005997622965287028, -0.006645507491101197, 0.023988309135418787, 0.04457639738969443, 0.04618667046545139, -0.006326313615745784, 0.038990619412687805, -0.04563051527585346, -0.011932190870414966, -0.030465223472648024, 0.020599849947951134, -0.005235540405836262, -0.033412439363122486, 0.02764621673713846, -0.011643045127995843, 0.02427361902526004, -0.010635697948666999, -0.03513953830075997, 0.03406546368729486, 0.03633494708770196, 0.013787088926017274, 0.02129467011176748, 0.00768664962073579, 0.021881864281504983, 0.017614766120362075, -0.024513722662605045, 0.08017528676081466, -0.01008707301871561, 0.011059272822386458, -0.02653031768501029, -0.0007519658209660648, -0.03996128340250657, 0.03375459920030259, -0.012828311249594536, 0.051951141929, -0.006071786578723207, -0.02698941468534885, 0.006978676919547568, 0.01624643876503726, 0.07148362368674133, 0.01672069389233471, 0.008239582553894925, -0.002730690885316169, -0.012246696023710691, -0.022250331956825846, 0.05148283048915252, 0.0076840884620673015, -0.016139200284994423, 0.05232417585578715, 0.020688041157480352, -0.016576977749423138, 0.009113896309514086, 0.009168973829912452, 0.04374985210716905, -0.006327939461442181, -0.014946892372824778, -0.010094554454045479, -0.021219200785571615, -0.0032360446992402113, 0.044393263570669125, 0.011708549387698686, 0.043548780316938894, 0.00873428795976756, -0.019107223929866746, -0.0051318780328238715, -0.003912420646448111, 0.033440097902531225, -0.04421436604197223, -0.019789367518161363, -0.03921520749477492, -0.034614360313633394, 0.01128084325473685, -0.014038636822958504, 0.13067254288614238, -0.013675136978112987, 0.00018251172137238416, 0.07039749221438216, 0.029184796883184715, -0.004206013256914406, 0.03510065712991172, 0.006436751993635093, -0.024898926634749803, 0.013343263651137745, 0.0003590261688223596, 0.026844929871733002, 0.02902199702104446, 0.030632029790322472, 0.03019860031558558, 0.010037753286536952, 0.016765448163436922, 0.024726098368082084, 0.005879263484687894, -0.0028076241106850374, 0.04336114973333125, 0.003030691567448896, -0.006518882200877813, 0.05969825360835, 0.07916799910903859, 0.031648817861844765, 0.016512075581509408, -0.029575169926856337, 0.01620664109233936, -0.005383798863036949, 0.017455639968316835, -0.00944942010537477, -0.015944961461546125, 0.021405178276409736, 0.008165570036286124, -0.04584403538976331, -0.03309048905761904, 0.04728368969422046, -0.007803219576512038, 0.06535811103972049, -0.03771183701298767, -0.00475538711899114, -0.030720741130223758, 0.012532277698366486, -0.052459401494487204, 0.03626029725957059, -0.03756333900690019, -0.029208876379028532, 0.02919021458586215, -0.004566468292499145, 0.06493430993268585, -0.029021274378655995, 0.04257658593656662, -0.004134602761356331, -0.051105133051203254, 0.019576183832776636, -0.00554963004008426, 0.010909648947636675, 0.04117097700109944, -0.0561809360185099, 0.04228655345450966, -0.022230967880424026, 0.044090173219039366, 0.0215567334053737, 0.03136320018578504, 0.04477113732448142, -0.03355812085214463, -0.022350603253859232, 0.0016158813860989525, -0.01640728002918244, 0.007677191721779686, 0.02185262531788158, -0.0222775128994891, 0.00021619614800753303, 0.008546997944818974, 0.008602130084141638, -0.039760769603732246, -0.04483349528415798, 0.005934079925708074, 0.0875879251231887, -0.005884938422911414, 0.004919127371721833, -0.026361703156617396, 0.007956745358828019, -0.039877466431208264, 0.01928626507126742, 0.02646474798204794, 0.03023609301827257, -0.023132699352363645, -0.04534862742342791, 0.012925678311588057, 0.08344805879265292, -0.011680426225727722, 0.02237404343929259, 0.0315395159733119, 0.047200098395712584, 0.013887095654782996, -0.0014890763783985783, -0.02649321964997656, -0.03816994730918148, 0.015073870573318304, 0.012205987169152947, 0.006417550165569864, -0.03149346783835543, 0.049456352349728, 0.029784928555769044, 0.0103559041165543, 0.024560992900898124, -0.018052517214133073, -0.04073238885237451, -0.05952001446367935, 0.04790934141057998, 0.06185452716462936, 0.02332030329140817, 0.03156172477495788, -0.045143480400006, 0.009015975237319873, 0.03201558033804274, 0.03732102823083198, -0.02114161324966281, -0.014148277012417141, 0.029466850665432986, 0.012612408577004533, -0.00025916965862562313, 0.0047338069001240475, 0.01775528444630397, 0.07971694219094178, 0.018051855902583198, 0.055062873010055524, 0.014162165773867108, 0.008523479815811637, -0.016716988483998503, 0.008792669578561854, 0.006427368610029289, -0.03123327800893369, 0.007903267469219908, 0.00017363403990435568, -0.005892830349647123, -0.015927271753536424, 0.04238696723447649, -0.027504155208296698, 0.008470343954283659, 0.03444578256251093, 0.015013726824656785, -0.003932803083404929, 0.007359107203723272, 0.02038127920393222, 0.025927291902520543, 0.024303350224117035, 0.06513920315840777, -0.006138734394517866, 0.07006474845593111, -0.024881216349374055, 0.02749089363701771, 0.013562206556627487, -0.030267081093742213, 0.028463169517520752, -0.04116568608669992, -0.03435366680958772, -0.01007448499161405, 0.019394569734490094, 0.029153958136366016, 0.0064701739485420575, 0.0060895950569711125, -0.019505366617608717, -0.003775319052818409, -0.03321015951384183, -0.03214517036174966, -0.05794000950875616, -0.006712193448250904, -0.03527681869582563, -0.08601737409904708, 0.002055968230103869, 0.03217871996719508, 0.002409354786586583, 0.017177014784805548, 0.015419335296028172, 0.008352694253255133, 0.04031006939874836, -0.0012263929677280665, -0.0010601619354277498, -0.0481456278042331, 0.07063451237722786, 0.05446315870541762, 0.036092579646446, -0.042151205182679556, -0.029193658806135492, 0.005181148454352313, -0.00027058906648563173, -0.025559020018604526, 0.032489295424036155, 0.011940214614088243, 0.06424694740472421, -0.007033105052206944, 0.013346474465096693, 0.04933860111294883, -0.04212537601620807, 0.04115307040987694, 0.08231728718111293, 0.04468993907609723, 0.008819298889121288, 0.051794368921303895, 0.0026007964858232855, -0.05197181268453459, 0.003692161116774865, 0.00016280466719828572, 0.020971328280982766, -0.034711977171647236, 0.01395062366975817, 0.00613864802333722, 0.02487407170700752, 0.014874017355959524, 0.00675751517962599, 0.013897152401547992, 0.024268889761273244, -0.021265226554252184, -0.020784938572939345, -0.03996921084527083, 0.028459752918266905, 0.053129148824192673, 0.07031034702931531, -0.0023999639685085973, 0.029651471335474383, -0.009379784783010978, -0.03908609963223965, -0.04323741542277495, 0.039496555642862176, -0.013196285647462886, 0.013345128006998287, 0.018808479480542227, -0.04075863909360443, 0.07273669406568323, -0.012570442294974818, 0.060386460429664585, 0.029564328703401935, -0.026684275869705988, 0.04554740458632725, -0.023107304015513565, 0.00635354293453648, 0.009571499116209085, 0.04085859543221154, -0.0006936849956075237, 0.05686647445463711, -0.01827179307387844, 0.02556368380003952, 0.012858310248512394, 0.020033899586318543, -0.00124036754315092, 0.006960151441439935, -0.015510658542627467, 0.006554127709067229, -0.0423926036365077, -0.017489691891940884, -0.010881899192595785, -0.0205580870467448, -0.002715983729527982, -0.010950457230775583, 0.008216825638489524, 0.028082708775275873, -0.044580872453540685, 0.061275890459785556, 0.04962369990823001, -0.0005713248145821327, 0.017918243172453188, -0.039465454626427116, 0.001652705837704187, 0.042235743014624585, -0.0190790955351395, 0.010336693582354553, -0.026767164520851462, 0.0023873670074877522, 0.009701458339167713, -0.020984208007958412, 0.008672924271161075, -0.06855672633984067, -0.030646055124560714, 0.02820303164611204, 0.07151615111168111, -0.0027207734796182007, 0.026709865513377964, 0.04127379626750503, -0.004971260724785282, -0.05856689409172272, -0.032898385974345634, -0.0015328288983516754, 0.025126564472418723, 0.0775910035889525, 0.05954044711124819, 0.0322182133791155, 0.05315823480315845, -0.08130768356720165, -0.022469964218151738, 0.018898718254785826, 0.0451336095596527, -0.02798213594307567, -0.017182162488121218, -0.04966413967178468, 0.017734896962600652, 0.015000254969211368, 0.03032398286456763, -0.006368763901701494, -0.026654927173439147, 0.00650171022858777, -0.022398236479982975, -0.004959553545998829, -0.005549764793957055, -0.012416229382333898, 0.05918773860955084, -0.030321557717269583, -0.07313019984752747, -0.04940232993670836, 0.005882818394533795, 0.08156239034552488, 0.05583479706298228, 0.012760417495331829, 0.03351809789999488, 0.0055954982993031985, -0.04496469884163983, 0.01207192214007007, -0.027404286456183796, 0.07841199954433957, 0.04472919800316371, 0.012207097314028964, 0.020996246617963975, 0.015820827188112216, 0.030432354517166135, 0.024131173666428092, -0.024618914147334036, 0.007121155873690871, 0.0676805485998045, -0.012885641136686261, -0.015346010720676099, -0.04752536940217901, -0.025838483121050627, -0.023292010223258195, -0.020715673276868195, -0.014012381970058926, 0.012299140986098486, 0.005372863596355158, -0.02496926369614178, 0.00546257192046614, -0.003182139330851242, -0.028806179215367666, 0.03463937388044958, 0.02665987520584885, 0.09358127983920755, 0.06031758697883859, -0.001326147527605095, 0.01950166783940958, 0.007291972296524524, 0.03502349906607301, 0.025153989801578708, -0.00879548985771633, 0.03374423765698475, -0.04641459775069403, -0.014804286717969179, 0.0006454798556330848, -0.024497503666540132, -0.029053798212908894, -0.04583195491886635, -0.011565107969164773, -0.030540091264588443, -0.052021142972558825, -0.053060520732341576, -0.018629340237895028, -0.030878922745272295, 0.013640197764643869, 0.0029339606807683373, 0.061145493397826475, 0.03658224533020961, 0.0003730595760575777, -0.03948220297104406, 0.028482219659788456, -0.02802432847623668, 0.0287180507817096, 0.032623454556536514, 0.011702767178025646, 0.034063722485658796, 0.005658074503028195, 0.03681097553988843, 0.03707227819743411, 0.09311553249779367, -0.019099402989519974, 0.02370480894318388, 0.00918701811126059, 0.02953296784932191, 0.06080956452437693, -0.07174506443933439, 0.02785799864947428, -0.04039085082361448, 0.03993054509068612, -0.044084030157232244, 0.029648886913216373, 0.0021130876948132816, -0.0547394601470734, 0.011577505072790829, -0.022775917727367728, 0.07008069800700767, 0.011127033157624894, 0.004498555361887492, -0.017619045313198793, -0.05921138983299022, 0.028999451551634022, 0.07454494188072787, 0.01837996771660359, -0.008327426485654595, -0.004582729968469054, -0.04206473366818472, -0.025450117148955984, 0.03112678277526015, 0.012213960187238174, 0.02406197831663211, 0.08125111122734975, 0.0004894044245815654, -0.010076709935715548, 0.03407775170508722, 0.04016235573324114, -0.04879876254575309, 0.0036864599962627524, -0.010836717639582773, -0.03222591413413538, 0.021068402458224177, 0.008112078159906633, 0.046252252647704606, 0.0029811745609325947, 0.012355644112358614, -0.00891029884981476, -0.00524917092947726, 0.043722349111415384, 0.07817040226301301, 0.04208241559654144, -0.025975604398068293, 0.037906336356717835, -0.013586974416124982, -0.019701769384612784, -0.11920488487385468, -0.0010999697988919325, -0.056151591335960385, -0.036886387624112386, -0.03594551652749442, -0.0006131529035469663, 0.023133129460907197, 0.07047378366671382, 0.049224364601599194, -0.0063381810894049305, 0.02103025725939542, 0.01922670160063635, -0.020161171680852193, -0.046997654404044846, -0.026721355944181156, 0.05433584979572181, 0.026027113901513334, -0.015185328811766005, 0.05953372213816501, -0.016286571374468675, 0.034375523583945106, 0.007411966433957265, -0.06219059806378585, 0.003861747335024907, -0.004780595545208845, -0.009811119640388615, -0.011858771138243391, 0.04817095089508779, 0.05689096354605639, 0.008755817424084779, 0.01993478818115158, 0.0226166603782884, 0.02353567796056339, 0.05333451621442085, -0.006765105837097746, 0.028387350340100675, -0.0499527983826174, -0.02253696697632409, -0.031309250314535075, -0.03632717323457422, -0.046122906923286466, -0.013584567392036348, -0.06382754978807574, -0.0001223534795335918, 0.020742196288606893, 0.05217542907690979, 0.0093728030527084, 0.010648106748820114, -0.03010276934863317, -0.03995608122620323, 0.07625168704950962, -0.07416011685033883, -0.04620356146380306, -0.006390087350735618, 0.04256199406560773, -0.051704656938938914, 0.02078027120161715, 0.0038107528512767263, -0.05643880952068684, -0.0027993680910222505, 0.08643061517574857, -0.046245219732985225, -0.041587791767552486, -0.05256256330479839, 0.009020457289119706, -0.017071696407093627, 0.024080369340314437, 0.0229280625416231, 0.019135994218177053, -0.030677745811250358, -0.0298058707449052, 0.004288819453526533, 0.03421546163916328, -0.037880751707478864, 0.021489246475689176, 0.0063827250488640895, 0.030220629539638756, -0.02309350314380277, 0.04888731094064194, -0.019341804225118175, -0.005828709040673107, 0.021934272501198535, -0.018159629457819928, -0.04346019502174, -0.026912111407874435, 0.03423877087557141, -0.01514029805967142, 0.0013231495248963916, 0.020242920720166497, 0.0007523853969550755, -0.005226748413242421, -0.0351373480646081, -0.0015977489032101288, 0.02671109043382034, -0.011607113904522494, 0.004049699659380293, -0.028595306583941167, -0.042911346728017545, 0.04615174186562401, 0.032852310156924705, -0.010379051745473279, 0.03933336172526706, -0.01728431942591876, -0.001509221120421688, -0.0004960358204198735, -0.014932584342889485, 0.023034720025474843, 0.004660072139301678, 0.01736381982795952, 0.03366506996143975, 0.03934839065043379, 0.008482139754732393, 0.022607382270689983, 0.08409562105529715, 0.016398245770472122, -0.0022034647433275007, -0.046644856923795996, -0.015147672859621066, 0.020078204991085563, -0.05332898631508884, -0.0018264614434801976, -0.058632724041856876, 0.05186120037511776, -0.008851552247542043, -0.004008189214715908, 0.04936699302796832, -0.039203947569992466, -0.021715570784902202, -0.017765107741392262, -0.0005359719374856925, 0.06169355926364619, -0.010009753013186158, -0.051640713013847504, 0.025514614896782434, -0.02865866841450454, -0.0063758277325864435, 0.029571528629213733, 0.031733852483759345, 0.015299032301026385, 0.015317149427129454, 0.03872555106944932, 0.05044012601297933, -0.026047895469261992, 0.019364710582123582, 0.031420775877204134, 0.04311365592567348, 0.06094986179683728, -0.041537200883114335, -0.035042654444867385, 0.050241002544933085, 0.1030459884240911, 0.04109732672031254, 0.008158688979249368, -0.007352254025029943, 0.0023930970862315695, 0.009396708314271102, 0.014442681883471151, -0.020952841225803587, 0.0014239358110401327, 0.009318531938248309, 0.04921603813273428, -0.02063664130629513, -0.04709741709859798, 0.04953130876603033, 0.05272400997367747, 0.03339751684728957, -0.01000856207914673, 0.010233926970782509, -0.008444578585336905, 0.007501418378249818, -0.03776022552834075, -0.009673176015845287, -0.028100801763398266, -0.0049256070773808025, 0.03531287855959906, 0.02890489402720035, 0.06904446211547052, 0.019789109611496308, -0.011709887738172555, 0.0505060013985101, 0.026962079094300807, -0.0020785206426024113, -0.025446885218474175, -0.0005065904298194474, -0.029116313857236845, -0.007149439426226445, -0.03903005329401235, 0.0027996400537039783, -0.0064850840521397685, 0.05534552014552919, -0.01917683593744276, -0.02892642556320964, 0.019326750581655765, 0.007859179589656536, -0.041108411419649084, -0.03464038664704537, 0.02634012080088203, -0.057462209033238815, -0.004161216363065216, 0.03026543333780841, -0.015412936706092565, 0.011514364744735172, 0.01870878267684495, 0.010864304416166483, -0.05781470097563589, -0.036810627699483046, -0.010641163841703565, -0.00937646870487152, 0.017967172440992434, -0.026496633610619748, 0.016842686583541232, -0.06594137496086078, -0.006432493586188471, -0.0334098215422861, 0.01921087398993742, 0.06168806863191501, -0.02256194181668059, -0.04364020785081584, -0.03088079580761251, -0.022587693363271558, 0.004173697021520051, -0.0027850478536697357, 0.04627705192143068, -0.0216456271658994, 0.06870528798498264, -0.009954646371717703, -0.004939461670779825, 0.0009132911255810752, -0.052981159736962866, -0.012124078008659231, 0.021466472753683807, -0.02922536658700223, -0.013676832509809136, -0.020410634499063437, -0.033627369571086245, -0.004048451969205188, 0.007979441303372576, 0.07518924045616968, -0.00460029381693474, 0.07427341476863833, -0.005714425611374086, 0.0202466659009692], [0.04122604155293091, -0.021080382813532434, -0.009216288561274514, 0.03741880269667857, 0.017888656643211095, -0.012391975098455176, 0.07483701302002925, -0.04236869447006983, 0.054943753530341574, 0.03424377017094168, 0.031320629186622616, -0.02369413529412745, 0.01784198327295564, -0.04206203009897709, 0.01090909367226763, -0.019087793570712372, 0.012081765671339497, 0.053425037223773564, -0.0007135628286352757, 0.033862776992807764, 0.03892508846100987, -0.010872387369422245, -0.03251159281809354, 0.009986671370948712, 0.03912328725357182, -0.01912353285628098, -0.022190099460795903, -0.005350958896075942, -0.05175120046601716, -0.0011406978361692618, 0.027715268572010378, 0.05196171753583033, -0.021083609646314765, 0.0453969904720305, -0.005783741879934593, -0.010884497690958117, 0.020081335321399905, -0.008602056221922196, -0.005812985188318914, 0.00038892236618550996, 0.0035228113664812414, 0.01180535651231165, -0.015933460902776034, 0.03296511427204761, -0.0028516617330860247, 0.06433087263829271, -0.014597393455216622, 0.042325204958324106, -0.023703047334539217, -0.045774323451303243, -0.021671163200091235, 0.030040447204456693, -0.0212773577995447, -0.05022379368321428, 0.030337692418376565, -0.039764572370363696, -0.028181167110054042, 0.025629863505567924, 0.04366652866826097, -0.025229614499431476, -0.013866254126713228, -0.0391685912693471, 0.047642948239782205, -0.05939133157400296, 0.012599041849135023, -0.0038026101481650047, 0.054332542765759446, 0.013180375943742823, 0.00729881792670013, 0.022815911064100476, 0.040389308545552845, 0.051283193922660446, -0.01690141037003894, 0.013175135196635476, 0.061288700792201195, 0.02282798758079629, 0.008822479736885911, 0.010785798471337149, 0.0010237262155919115, 0.04067083553106006, 0.03482104179071093, -0.03351756954439378, 0.05782722325942313, 0.0066796664711734925, 0.0019950119867904854, -0.021971314677714713, 0.038826957872706354, -0.01780976273156864, 0.021205257616930175, 0.007747689897893756, 0.007844970996672154, 0.002496876240526535, 0.05593378919369537, 0.04193634408643824, -0.0251181741336293, 0.08652960676651815, -0.004968893807307696, 0.058200552126754665, 0.020008901857302006, -0.02067171005074364, -0.03434807824407503, 0.07563356045311086, -0.043925936798523545, -0.0020907965833947065, 0.003186074589528759, 0.044752772223182746, -0.02570469933101332, 0.03850929239340047, -0.06935394244854838, 0.033560944926095244, 0.08644394368319809, 0.016872853015971006, 0.05763040520015282, 0.014506609336774102, 0.0063958360488984905, 0.027174961252287837, 0.011337637871821097, 0.04355724417609288, -0.010825231317632916, 0.0006181264364337462, 0.051554263614588904, -0.025852765311003337, 0.040510239212401454, 0.01630318276799652, 0.056555387456844956, -0.05994551933326212, -0.05202753898906279, -0.04296701211757367, -0.004850219822848232, -0.02060351774409829, -0.023355706970898397, 0.04136620346256004, -0.020945236399358788, -0.000754074662647095, 0.020856377452143544, 0.04229187865395541, -0.022531210946824164, 0.06944433093709111, 6.708420858343818e-05, 0.020072185173066606, 0.058608720248146104, 0.0044928271488021265, -0.058642981771323655, -0.008754793169808227, 0.02735034419505609, -0.021895479209421177, 0.04407674065914466, -0.02900304784056722, 0.022256500974380294, 0.08666493959219712, -0.010256585989934328, 0.07729585108621323, 0.007133822357779946, 0.042084111073671535, 0.030800645762788733, -0.002204676836133798, -0.046607124830363875, -0.009443008901906394, -0.01188194081976372, 0.009950771190050407, -0.031174123491869515, -0.02200025810537428, 0.06870171448148212, 0.07461127696932861, 0.01259359623454903, 0.008615051974011774, -0.022008809270193788, -0.02139120348292401, -0.0063725102973522215, -0.005255528584753845, -0.03623492893006814, -0.04125805999981312, -0.02245442858179652, -0.005478759050979048, 0.04128152682753581, 0.047179309017295876, 0.004772581069114336, -0.012230476658960317, -0.012463988209242941, 0.012215041247750618, 0.0021088491039305394, -0.01999191662502463, -0.006301427099071056, -0.03480989403356495, -0.0192791060774825, -0.015591676698129015, -0.042148258767206244, 0.01624105122460874, 0.10621180696496801, 0.022616402168655417, -0.022202149136503466, 0.024554018699993938, -0.032654576976139486, 0.0332700645826794, -0.043181512516216734, -0.027510324519818205, -0.041305149815926256, 0.008117693215512412, -0.051273254185462844, 0.08111809940068869, 0.046609328529028556, 0.0509607151979253, -0.031743066254670986, 0.031062432768873546, 0.019370065756923443, 0.019776284674853508, -0.02451818961094421, 0.03850695116717247, -0.014599430370857475, -0.01677938705921989, -0.0014005200208353171, 0.059192278220966, 0.07093266464980608, -0.006899455010982081, 0.05671648185647552, 0.007968353100548586, -0.0050252719322953394, 0.1154113300025763, -0.003496109638774093, -0.010216431679869702, 0.0126163570534873, -0.014858955643891983, 0.006184251011302929, 0.030376501173537743, -0.06428231547494369, 0.04869547181676879, -0.00295450496307719, 0.03438769382724149, 0.005763128787194149, -0.005819763876603691, -0.0048774381527497785, -0.08823629793645574, 0.014705091033884888, 0.06505197222210085, 0.0009414220485172241, -0.028772333315519455, -0.02748742247589923, -0.007485321561168464, 0.020306382207410167, -0.007828785489649541, 0.035392007066585976, -0.015310537294025177, 0.07596699255415283, 0.03757894274470218, 0.015329433026039197, 0.015629462942808134, 0.012797363322608666, -0.02359965561676196, 0.04709952583615899, -0.009638218922352627, 0.012410039063027489, -0.09279541271056721, -0.014951485692840027, 0.07398936088690353, -0.0025709620453756906, 0.011699479179761383, -0.05337817778032578, 0.008627418952691136, -0.02225956903282227, 0.010545464801144972, 0.06710561838952214, -0.0343583887518641, -0.04277721101415781, 0.03164556809551052, -0.011301983526959667, 0.026011030573147166, 0.10257708673759511, -0.04050617721761807, -0.016473607495117237, 0.03811058194633683, 0.056739779206022675, 0.009255579337976688, -0.004141709814758785, -0.03446466028295934, 0.08109082661185543, 0.03531844273019877, -0.07153133314975989, 0.0036938078041301105, -0.004932456197750881, 0.14178196735858686, -0.004365448581087152, -0.08312624362696679, -0.003946162058668116, -0.00487686098507166, -0.010390741864345058, -0.05649809054696561, 0.0358573163450903, 0.04333279947393009, -0.02140095274220866, -0.010086588247613703, -0.027181529949228244, 0.015422300235956666, 0.051017195702332284, 0.03857444422451518, -0.037228280225446275, 0.06675192178354053, -0.03023928069781787, -0.0063900620886824305, -0.06527544116516185, -0.0193288538339618, -0.04128564420045997, 0.02368564161387958, 0.06292740730149372, 0.016945977521959418, 0.04835871114062968, 0.03674654866236439, 0.03640402035434533, 0.034420323004141454, -0.0016232902833871903, -0.049577736240520275, -0.029500933632780474, -0.0016999138893049207, -0.00706347653935131, -0.018322577150127407, 0.032357533105680535, 0.05264290154292433, 0.023971286783035207, -0.011721404262912011, 0.03051129354754827, 0.06445768187286252, -0.0007922834574758744, -0.011746231816840778, -0.04779591245664202, 0.0794826393918945, 0.0026074264395973246, -0.025932964573735992, -0.022640748569314067, 0.05757321623435659, -0.008832731916735817, 0.02514934867181367, -0.02375783486566063, 0.06286364701556739, 0.06422424171256261, 0.019046812553099816, -0.02693352385483293, -0.04902910864550699, 0.03268968142015238, -0.03159340766850423, 0.014362654625744575, 0.016598665247746298, 0.028050060689190144, 0.02553154379382146, 0.018109721313864846, -0.001851713694313935, 0.12561470245006456, 0.055957917896878456, 0.01661738743410404, -0.021399043784550275, 0.02852522637434218, -0.029753616552347355, -0.01650380432671407, -0.0017441254522108508, 0.04460137023621574, 0.006969374023286623, -0.033942828159576485, 0.038945257305353746, 0.04129817984206802, 0.04233264412759804, 0.06353322187277854, 0.014582198828420994, 0.039786676256287075, -0.0029579153178566123, -0.011593277267935308, 0.05158433076454971, 0.04425338331977756, 0.042776419890591236, 0.0356637121820235, 0.03833566590358791, 0.036884612718671946, 0.00715632443219943, 0.06560094821523844, 0.020312126200743137, -0.024495984751612895, 0.029975946421658472, -0.02833542341004268, 0.031335277096302905, -0.017257368375573373, -0.05966506162406854, 0.013813044890197811, -0.02214617228686978, -0.0070826576263312135, -0.036009661927458754, 0.025842156173079164, 0.016037677159828612, -0.015930892450744045, -0.02870809152519629, 0.020822630707412165, -0.004135993797160329, 0.008718196400362567, -0.00800162525072847, 0.023336057202385716, 0.003798962164714016, -0.04487448506418128, 0.02309912285218603, 0.013993173691013817, 0.05783115211031742, 0.05847939367357732, -0.02437222904292096, -0.0176981557751225, -0.05308631048949379, -0.044325196505567106, -0.06043913398344922, 0.046754949238216194, -0.016135984475005315, 0.07803003002311473, -0.008563104179305931, 0.024893536025078475, 0.033059307345801765, 0.002356994777852721, -0.008781201231560946, -0.025879950432562703, -0.05619376569170811, 0.020503522710660676, 0.024208363093436346, -0.06888181374831598, -0.019398111795919302, -0.0026578334557947293, 0.011674341306503914, 0.03351877267978395, 0.027151783015145488, 0.026936504194046872, 0.023767302268728675, -0.003180660185883604, 0.049848253270853585, -0.033597831976267784, 0.03299260744648388, 0.030572846814082455, 0.04140888139165524, 0.05082978550798128, -0.04882392546996343, 0.020124217007386244, 0.061147106117298344, 0.020960178210594746, 0.021202131517655695, 0.022102096705196264, 0.07664127807477532, 0.007665786358453186, 0.022503104190963245, -0.05138423400918615, -0.01521522036231031, -0.013084696650875569, 0.010391447396938503, 0.0017887638625940128, 0.005518620924471605, -0.04717043712171011, -0.020865899434585267, -0.03814930415903637, -0.01678658398696742, 0.022777192903564288, 0.0004929660869260172, -0.023356639946979278, 0.008059228447846279, 0.04065849552507076, -0.0009525099202987215, -0.01303307200018661, 0.09206045347325964, -0.009466432932624154, -0.008775479282222538, 0.025605021658273455, -0.010171866154893277, -0.047618205866714475, -0.014124802391609828, 0.04399180990369028, -0.05034335561029362, 0.0009918372325648313, 0.018902144646630273, 0.022645522237461534, 0.01585451499383867, 0.023495825464569874, 0.028191463156594, 0.0016987392403742618, 0.0033686225355370482, 0.045477195614257185, 0.04515890819008486, 0.13017233249873117, 0.00544116641446671, -0.0015344887907323122, 0.02257797386071946, -0.009613615383013521, 0.038985977096778514, 0.040319494412725296, -0.036015577545385015, -0.030522085825891113, -0.0024222824894319763, 0.0006893069222896206, -0.0062134056660506755, 0.03161071780339892, 0.033343855399284535, 0.01183882508665862, -0.05784779456061264, -0.03259496728726111, 0.032639268789048166, -0.004859036079423376, 0.013558258692901679, -0.04817155029443081, -0.03582668680244882, 0.014290389635278128, 0.010579856060532505, -0.039274910520169785, 0.00012585276058523002, 0.0700331956213715, 0.04767946912714621, -0.022874972007706926, 0.015235387951127857, -0.009510871229947211, 0.09972003975926087, 0.02714105569392276, -0.007921150313282919, 0.005178411848080575, -0.022847732709944182, -0.0436006272845379, 0.009029986482075755, -0.0002970745100029574, 0.020306409966461356, 0.08886426349682827, -0.026235862130976385, -0.011886087616244689, 0.024666191906448098, -0.08986891142298697, 0.01839463496489088, -0.026157132288062112, -0.010708552100696886, 0.023535725864418877, -0.01054748201190511, 0.02630480382509342, -0.03780382872711721, 0.03678454016209756, 0.03669069320658017, 0.024824735607278443, -0.012815279403375332, -0.04288382528341138, -0.03692203506566405, -0.012763481292962894, -0.030706745065486984, -0.04293496765004876, -0.04704317578314334, -0.005672369718591645, -0.005962823723376932, 0.018264912614033863, 0.1262956654882026, 0.014092771130523537, 0.005416462808356329, -0.015335765201739978, 0.0016592961248766886, 0.004074298835219922, 0.02086180855289326, -0.012955513811209558, 0.028631116012296186, -0.008732686354212591, -0.014126458553188965, 0.011563598942354264, -0.006798097780977522, 0.03294708718788658, -0.012146351526421573, -0.03405537577685911, 0.013566940729993373, -0.02423593062565367, 0.007591916537305847, 0.017873735364164124, -0.03876687301034821, -0.012111624951013124, 0.02587980252725369, 0.009130377544254236, 0.0212615603889783, -0.011708210943535134, 0.0007150210781779834, 0.05468200600549708, -0.04504354678354732, 0.07076939273583005, 0.023587791139847596, -0.03465440908319894, 0.01088985972354276, 0.04706516140070372, 0.016423307714895377, -0.0184283179199441, 0.013951556470009579, 0.027906312821479637, 0.04842467518913523, 0.07462428741222683, 0.0027250867166369623, -0.03935426485984107, -0.040984558857880805, -0.05413065657137689, -0.030463815206185425, -0.03924690341955736, 0.017034640580768767, -0.003133032963851665, 0.017928327611899827, 0.008651423901765777, -0.017135986651733288, 0.030024228305837786, 0.054606229216273845, 0.016298370204745092, 0.021051989755358696, -0.042814553358817176, -0.013898287423596223, 0.001588647566206614, 0.07602577523923655, -0.013845478606667013, 0.007063277802659325, 0.008946921950745304, 0.04426576827609713, 0.021793747307717815, 0.08581478207508149, 0.06258525722312855, 0.03397320137127978, -0.012149204115960618, 0.03877518701274687, -0.02153654545118024, 0.010372334301888353, 0.006573692731245701, 0.02880016809856187, -0.0049390681031034325, -0.016749774334981572, -0.01396209315997115, 0.0624965656606887, 0.015384306151645552, 0.07110480483496454, 0.04894369652191208, 0.016487538346576673, -0.034418285540151854, 0.014343821765280526, 0.017112671956738188, -0.016060903961856263, -0.005564247637470355, 0.014475689682834896, -0.002829567000167529, 0.01972073404782255, -0.03249093755231239, 0.020165648171258477, 0.037923856175623244, 0.0009291418349891841, -0.010084092688447557, 0.05055776934719627, 0.027193560790325175, -0.04947138450654447, 0.0009970478116461472, -0.020553634622067142, 0.030770358405248253, 0.023647149809190394, -0.0016321166834627732, 0.005377418249980353, -0.03916836605158439, 0.020047086795249507, 0.02122220125127731, -0.057665838215227354, -0.0017268974490441307, -0.014626151925998447, -0.04875792445594335, 0.0038208401264208463, -0.059929801939805426, -0.02173634535412268, -0.07036542240620185, -0.026973345165911013, -0.016635103074175074, 0.022713348236254743, 0.04538551964072123, 0.01411541247130081, 0.02209263488688079, 0.045722425137834574, -0.004675302665739794, -0.03840770649213604, 0.028380818665169696, -0.015007351154460752, -0.032110497577306246, 0.007980441238801133, 0.05909651670860297, 0.04473186381176108, 0.043733184006163724, 0.025171215250342622, 0.06876420859549384, -0.0010127153290625881, 0.002178905814842708, -0.027639300601807724, 0.057571944666277325, -0.03334152774549179, 0.010017105155626212, -0.0336060874451111, -0.0018593102535885294, -0.007979537081773793, 0.015333842018640043, 0.037186146357470966, 0.06963342509319854, 0.012247830543412467, -0.07047903400729973, -0.03473312199472586, -0.05476370132240693, 0.005015496622005204, 0.01592839325805932, 0.011307883006676851, 0.0025446401140868254, 0.006991456317183723, -0.0036131083632914116, -0.03668007301818918, 0.017565651220336976, 0.06518788183466546, 0.002773752736236253, -0.015867173840945582, -0.0018891198599267028, -0.011416376139112708, -0.02750799925634605, 0.030002670813190524, 0.01804193855506723, -0.009769117390544762, 0.015093882280939384, -0.01498090669349749, 0.011045547020840828, -0.005201886829340598, 0.07643607882257632, -0.03842112581403147, -0.0006714542313108079, 0.023452959459789233, 0.01845031694304331, -0.024501304786483387, 0.07402488466066585, 0.01719053739824811, -0.05909405377629602, 0.0074416344610244494, -0.009955129662988891, 0.02902156968019704, -0.010445628354975334, 0.03851488659286159, 0.006337727942345997, 0.06721038045208529, -0.04732500354999947, 0.015068110825977752, -0.023320927038356597, -0.008331860428812721, 0.03620176429475664, -0.0017598877369165073, 0.026263183801646692, 0.003096870014222115, -0.02124690879753992, -0.03442704187578915, 0.05091560367946041, 0.013093106850390456, 0.01888006551639227, 0.0024075930432109188, 0.03799484209303724, -0.03246396172636595, -0.030612061123964158, 0.045924262935453763, -0.023540074842928953, -0.014143298692254844, 0.0314933781225747, 0.02151985646942973, 0.005962284076081449, 0.050482891148320816, 0.03174333989921124, 0.010759750632102263, 0.026439330998577672, 0.04539783299200013, -0.01386130520344205, -0.023106466271242583, -0.015079397046475587, -0.0007804706653101874, 0.004450977123459572, -0.03348504579330401, -0.002224099947095848, 0.009176830600832235, 0.04355634977331237, 0.031653320577291096, 0.05972648631265192, 0.0057103450903600965, 0.05188614077851253, 0.018772345818707785, -0.009273249417705158, -0.0865672815562572, 0.033379986423673715, -0.03639923451480617, 0.037883115008031, 0.013479739077064243, 0.01493661886642542, 0.08271702572553442, 0.004960212651364451, -0.021763572202094947, -0.0312762413907862, -0.02369153342109932, 0.01987579763108836, -0.0409424219645856, 0.006417347092999758, -0.0377731971907955, -0.0003278150378577664, -0.03298746689478715, -0.020388345862171073, -0.011815704487821576, 0.026365321779659525, 0.021494921830502223, -0.014078222697056816, -0.0240628953438242, -0.028574468388997132, 0.04017555529595212, -0.0018978231975210061, -0.0273325499618049, 0.002209146223700793, -0.012252611743246933, -0.013419855083406294, -0.014300833981643156, 0.007571978346320353, 0.050534745418350915, 0.007389956180543961, 0.061741852567666, 0.04451605918391601, 0.025365605793997117, 0.014098209154880824, -0.05154299957909941, -0.03129353383495078, -0.05765464676551593, -0.05098872079552362, -0.018704268899433364, -0.06380314728287574, 0.017012272728150982, 0.03513973944264948, 0.009428707771774599, 0.0429237125827954, -0.0028792215617217706, 0.028203489491183398, -0.03640215091211592, 0.028174181622272757, -0.03432180166653427, -0.020610404114892074, -0.027608592541087693, 0.0009212938577855938, -0.0190855348055332, -0.0036067607665112157, 0.05944900358352681, 0.0004546274400089901, 0.0339293317133391, 0.002545194451071709, -0.002272059069461556, 0.01390731492109532, 0.022697664470849633, 0.11826057475242532, 0.030326384550330248, -0.04359361215117465, 0.07221623448441783, 0.07353096537977888, 0.04448438114670711, 0.041726320142808554], [-0.03189494369692654, 0.01096373537278577, -0.003908389096575514, 0.009309501135189798, 0.0034549075198762286, 0.005053358420686204, -0.028941644365173828, 0.061872808533016944, 0.02556410593750324, 0.03771011573530357, -0.03466786882648044, -0.06121610162349758, -0.03799978594170359, -0.02770234738837418, 0.00410231236472918, -0.006139944784828353, -0.0064979660088539054, 0.03793860936781858, 0.0020411168375571677, -0.08666610599001079, -0.03132962460586226, -0.009149160578012742, -0.010512396671092399, -0.0031232938757265005, -0.06171639345481345, -0.007568358124081506, -0.03250524181320829, -0.018074674731291672, 0.011742514505604552, -0.037458730877333396, 0.02703493306332977, 0.054667386127966504, -0.07925989147801685, 0.011149793616409357, 0.002013496052950734, 0.05701210487608414, 0.03061158903701336, -0.04025134838587022, 0.02282978170495655, 0.006620504475984095, 0.022317978043627434, 0.004034040054388831, 0.024598484138533404, -0.04634582067131631, -0.007156963635099061, -0.054571859973260826, 0.009108443823847494, -0.019894311526580298, -0.004092616018386185, -0.009336097201942783, -0.039569169963082594, 0.0013963748081304767, -0.04243389073702547, 0.03387304554041802, -0.04014591444180271, -0.013859401178072122, -0.0171487100341407, -0.06300970233685736, -0.08069334054844778, -0.014267135985254812, 0.03533441777253853, -0.03683655707094413, 0.028262995040562428, 0.02588417603111765, 0.030972865291012362, -0.021228737141789234, -0.04188095336736702, -0.055703835253419424, 0.024846229794115743, 0.038625434921332476, -0.050523745890715246, -0.09876586690892594, -0.059344553678700875, -0.01586557905319559, 0.05207127268407475, -0.028370669885125942, -0.051626962134698216, -0.007430012911147121, -0.06961654877100626, 0.04533380625634346, -0.03485747293689612, -0.005201009075905529, 0.02028962791703743, -0.009968438720378907, -0.03222449553931038, -0.029028910230771972, -0.003539262111765938, 0.027329329253236594, -0.060215738263594464, 0.03477285779823219, 0.009831908775532645, -0.049619973624294836, 0.029865639798339425, -0.044265624052881924, 0.03341202940090963, -0.03370413514373008, -0.00024208610859511462, -0.033521993269263875, -0.042195711121326744, 0.009118919915345056, -0.039622287801317733, -0.07088730331413647, 0.044132914465720485, 0.05053162390149886, -0.0464634444473092, 0.025472369899176492, 0.019978063157647545, 0.020585308648457184, -0.007984614813192513, -0.015346238923237675, -0.0646626267602838, 0.031340418549340755, -0.055613313546016264, -0.0025767293012986504, -0.04268246463020662, -0.011284881439275713, -0.007151698931613298, 0.021746462882793284, -0.04312910822116397, 0.012238224899903286, -0.006050999285849332, -0.02137435281591742, 0.0497999390108314, -0.05941110790223449, -0.026933063088212535, 0.07101927931224854, -0.035511847929328266, -0.004631133598350286, 0.020348110999018752, 0.04324168731816709, -0.025861921796625057, -0.0129799398552132, -0.05995140278360315, -0.005097393621108016, 0.01936253167271005, 0.012809639614599907, -0.08592203844318878, -0.05817602696730711, 0.04490091361054579, -0.0191648432362062, -0.00867999523272191, -0.050705142658892574, -0.0004058860730225272, -0.01703031687303389, -0.04800012232140115, -0.02610587627642371, 0.038011178690756445, 0.053907197514689094, 0.013447924550607828, -0.1008240210962629, -0.020627098056284137, 0.009783041438266402, 0.0720183932353095, -0.02823671878186946, 0.038482250061955915, 0.004737031416055175, 0.023292038859685473, 0.000786679584715263, 0.09031649261095857, 0.02714975398726534, -0.03556201220419017, -0.04258942719275842, -0.06927023632078128, 0.052500618072699304, -0.011542917543830428, 0.03895426569212259, -0.008644817516684446, -0.012350031479527266, -0.01546624280658714, 0.00948982427965323, 0.007885920574497355, 0.027316111241503443, -0.029180572153912877, 0.025564758989670377, -0.04929471851422658, -0.08030942814680725, -0.02109856182948905, -0.02016519537260291, -0.035537853862616174, 0.04380008883090587, -0.025611855820991784, 0.0030811760273422146, 0.02679690674203936, -0.004460678854950156, -0.017965082484740044, 0.009691952776096349, -0.04419536449682739, 0.016133883450875627, -0.09175076972228054, 0.015080782035493071, -0.0030382470977610774, -0.04925832173647101, -0.02415055845877626, 0.007078783728493602, -0.021351110495297396, -0.05189384407703952, -0.012418558310947694, 0.04184206956453686, -0.02845382966332383, 0.001034621988704833, -0.04010701982397246, -0.054127781092778715, 0.004771357724170059, -0.04285260710741039, 0.0048402030534573735, 0.015845179061031604, 0.027657287358820972, -0.02340402741806869, -0.005728404962689357, 0.0057268194030561615, -0.018601982145514295, -0.04935504208335757, -0.08689687375737289, 0.011393119666455155, -0.03265627806813588, -0.018269230288340797, -0.006372555799188961, -0.051303833695691976, 0.0064478715316309, -0.013511160391160404, -0.0330883357030216, 0.012033023422755343, 0.014840344201414427, -0.012678872867293498, 0.04766176251600876, -0.0013659569776483021, -0.00906710791766546, -0.03602584777315834, -0.03801516836414533, -0.06505402552117745, 0.03573648771352097, 0.013900961659970163, -0.017534142210432653, 0.05997455615030157, -0.04357117575009379, -0.03064709243622447, -0.006275435116028944, 0.0500769262254944, 0.02728849082476937, -0.014876060687752308, -0.0720136898701175, -0.030216649048357497, -0.02341125464115853, -0.03161994838390149, 0.016499397360986823, 0.0011379038843992281, -0.004218920590195125, -0.014801463917545166, -0.034697402539315705, -0.03108822964489543, -0.012882729964960444, -0.003951673797294063, -0.012900951845797207, -0.12228476666199063, -0.0670761666504323, -0.03851227973593262, -0.05055635179139937, -0.016461716963441387, 0.04861323919501825, -0.0011029111258111079, -0.10097464842520328, 0.022867174626040432, 0.030540953846533523, 0.02096890241385882, -0.015846985579021488, 0.047504797019874694, -0.04988864455851333, -0.0788627114219491, -0.004200579712850437, 0.03198530986801702, 0.02017978701872231, -0.005045351811499613, 0.05027867544229446, -0.0003858282447124184, 0.0006515031559535895, -0.005038264252556068, -0.03699172194870218, -0.039208789824099206, 0.015057690262653979, -0.08049590900462973, -0.009805053674596555, -0.014080757457396407, 0.010056282548016103, -0.009234584250630187, 0.035605511971843265, -0.03224672558816956, -0.019390207666802606, 0.006595794913288703, 0.05186894860032305, -0.007172444512987257, 0.07045991679865209, -0.01995977472616344, -0.09189759409788041, -0.04422580925889606, 0.07756612772928041, -0.017527151955479766, 0.004393638018844382, -0.005328288570549903, -0.001286644899401186, -0.0703326720979713, -0.023962233479831202, 0.035139292503337624, -0.10842296753723654, 0.004061369735988831, -0.03169797739152808, -0.07043267678214517, -0.024658588753630705, 0.011357940175805475, -0.013365502297889154, -0.016722663539131166, 0.012803150698621323, -0.018376894793630416, 0.0077636165944363145, 0.007966994437357112, -0.04365204188780068, -0.03737618673285824, -0.032974100382426486, -0.012424704397609157, -0.078747742125589, 0.046338752741302454, 0.02088351094055916, -0.048311057948898846, -0.07419335258578963, -0.03190587458041021, 0.018310317277463368, 0.027701942492602334, 0.015069380151265016, -0.03315923952856704, 0.052790911883448095, 0.025645101158290867, -0.009260657323911152, -0.033743068559577705, -0.05286400748933296, 0.056704103578048955, -0.0026728438994259368, -0.03660523673326717, -0.004171363510672681, -0.06242966227522577, -0.04223631815250345, 0.04753243482953296, -0.001110078203745866, -0.00541591751851428, -0.018958200521009338, 0.024699963859754665, -0.10979883015093361, -0.06288160078531062, 0.01980381154305837, -0.009149215312498868, -0.0334307526012911, 0.02602200038986871, 0.04117380300874702, -0.006223992548879724, 0.010033120601675697, 0.05126678873257411, 0.05339121837024711, 0.0026578146190720394, 0.006562101903309993, -0.06394478523880241, -0.015084901884242753, -0.038511403302887486, 0.0029721266394274635, 0.022292300090029193, -0.05003498587399525, -0.021826374677113673, -0.030429073828272528, -0.024962883326490624, 0.033305078921651486, 0.06528277625477914, 0.03253206586017823, -0.0074138820005356645, -0.1459370458653411, 0.06764295239521706, -0.05839623429807683, 0.0691821335520902, 0.002626290729310751, 0.009691525452001732, -0.017625170273200017, -0.05895104902213732, -0.05096955170453858, -0.025577048720207326, 0.01102704622259199, 0.050304178107305086, -0.0245811592944707, -0.08207421472963036, -0.002074764396944231, 0.045055977412956555, -0.030472529028992525, -0.0353612406245907, 0.013382144190675582, -0.02776247629168401, -0.05906195691256377, -0.047120364272598664, 0.018796510371586073, -0.02198590041174559, -0.004222160549492324, -0.024717885319772433, -0.07028346927551812, -0.06290296356477598, -0.04215155723593577, 0.015732930678478217, -0.006114171853474723, -0.022280615324583808, 0.024832169247488548, -0.030081033376044047, -0.07838065226114946, -0.004422976113235796, -0.04003154036024638, -0.008753894500492455, 0.00798566475778304, -0.021523358031409274, 0.014814452014276877, -0.020893310566132854, -0.004383130152652521, 0.017106196528866555, -0.04704127955240241, -0.043892276327331586, -0.016006026770789068, -0.01305192689555335, -0.005337865625788058, 0.011288005772121239, 0.00576878145981623, 0.07444126909849824, -0.1431292479974698, 0.01888297540359939, 0.040939859862769566, 0.007697180570052333, -0.036963660067543334, 0.0413597829558275, -0.09701144256465516, -0.031838486109457116, -0.012058832384841086, -0.01761829282625479, 0.0277111809214831, -0.03582950922052767, 0.03370905803550794, -0.12120780932887268, -0.041502227495621394, -0.03158132994946973, -0.035979709239940795, -0.021244524179913325, -0.040590966567748445, 0.07607495280749839, -0.02782077554813114, -0.028136769832238014, -0.07684892419367492, -0.003159595930965899, 0.05047547517904004, 0.015018204059083922, -0.08184127502983683, 0.023871115941444192, -0.001829810182054004, 0.011863950147206623, 0.013714489938368211, 0.026228685261397846, -0.05647329721353634, -0.015551840469528627, 0.014501456362490141, 0.00419718512910762, 0.01739660931584484, 0.028018806953462753, -0.008792120069813248, -0.10737131005479152, -0.005775601145548133, -0.06066583342738017, -0.01398237346322968, -0.08473472481515262, -0.00893579600590185, -0.003506528579281749, -0.058600683568470896, -0.017230269394180115, 0.06643730703607234, -0.027367958236360727, -0.013390166226655219, -0.07317365778950194, -0.09845163674045261, -0.03282027237909496, 0.032330713346230125, 0.012965708018132035, 0.056240343815428084, 0.03402801238579393, -0.010451964701889185, -0.037224640630607084, 0.01820804315787203, 0.014562398502695601, -0.015445532938574832, -0.04592188144292391, -0.05416563961646102, -0.07848960271850612, 0.007422228820362666, -0.035793439117419196, -0.019796999912824728, -0.004020151760685786, -0.028108092892692255, -0.0032991670973929682, -0.1126540756909891, -0.042518285360303346, -0.008633256313248874, 0.02001076311112687, 0.0649686771006716, 0.04477960385798548, -0.05966331711757289, -0.027259501277124475, -0.011878638203455466, -0.02894238710382321, -0.0191319638780525, 0.012324370021625916, 0.012322591453390484, -0.13140236499572897, 0.03060649594275137, -0.07104195988229893, 0.024466161803765495, -0.05593315757522574, 0.027430941166149494, -0.05138316711172135, -0.03523563570280704, -0.029731510439515545, -0.03450802967517693, -0.032688710951228175, 0.010879301111614371, 0.04609435815018308, 0.018420335125562966, -0.0020861386092412343, -0.056115759416492564, -5.996147961302485e-05, 0.022624018355684006, 0.037764183997123175, -0.10128239603599734, 0.03312643958587085, -0.03751462314938701, -0.0698959966962206, -0.05943665158831293, -0.01375499381731893, 0.06443051577602281, -0.07162880708420633, 0.033689927412408845, -0.016369103728899687, 0.0014588281202583195, -0.010226168514306598, 0.01225844484430696, -0.04932886129553096, -0.007386652852588782, -0.018178592098471558, 0.024436332117220454, 0.02177629059419701, -0.03071812963781138, 0.06222435050429845, -0.032504886260416366, -0.005463055816716469, -0.01473538980991267, 0.02712433241780377, 0.038051644895766144, 0.0263701467330387, -0.1190157129153334, -0.023514717285438292, -0.01589052718506394, 0.008340622221979326, 0.022132589161334194, 0.03293563734750703, -0.016944152158234832, 0.006177980584997193, -0.06135543591245985, 0.019379803133334907, 0.012545748683547919, 0.01339255033134724, -0.006338942058452621, -0.08824215089344074, -0.018318412343734422, -0.032203336957752515, 0.04906489304693074, 0.013435325352638826, -0.003931813016963088, -0.0006998601132906388, -0.1089203551789785, 0.030292483696138798, 0.03248925106515214, 0.0343550657807506, -0.026854971827332916, -0.05284322822736777, -0.07776340542909016, -0.023730586025577878, -0.0034155302749554425, -0.006233071688101538, 0.0352134576295124, 0.04487950772721953, -0.017067146405150883, 0.008125823472305282, -0.017194770955874978, 0.0035857402909913734, 0.006427812548784213, 0.012584709645119815, -0.040217114954555676, -0.09452505013351177, -0.03318341038612043, -0.007199956987458879, 0.014984203485633223, -0.02818097574412761, 0.016947544560122176, -0.054528005824547275, -0.021709323620114938, -0.06765657268790269, 0.005863882700630477, -0.0005310231820989965, 0.07834296942354602, -0.018573889019555787, -0.021199479394360024, -0.01294299797071986, 0.0027387081632012826, 0.016454557504489695, 0.017876391819399963, -0.03613919222047355, -0.04710932797855224, -0.07511872661342349, -0.04019621163529475, -0.0058943084286777825, -0.09587380271127972, -0.029637238976057103, -0.026485518756888156, -0.040003525454007594, 0.06527939984824821, -0.038443561087025145, -0.02782337053224652, 0.017023695584789295, 0.00024200741976922988, -0.08498706999154197, -0.015137708883342984, -0.029711400573923435, 0.005454758303635467, 0.004947953335250078, -0.0007386778816167733, -0.017324555091405132, -0.12086814183761344, -0.05374774569656945, -0.027374248641178763, 0.002520854863997723, -0.017115493647722396, -0.03952948888003308, -0.04151476731470192, -0.04033863520756096, -0.02932902029361664, -0.015623341829928776, -0.009745089523671943, -0.049364775380340974, -0.0025676271955009738, -0.0479097887672893, 0.007751863298041168, 0.018850827467518292, 0.01729597072782599, -0.0009309044425205088, 0.0067968018615321025, 0.027418810574732333, -0.004575488507861185, -0.08088694223048605, 0.028419666803764725, -0.03331629411404922, 0.012076634035585954, 0.012774447046942224, -0.08970082826439663, -0.06589124799920362, -0.013554998754114825, 0.00939653833589163, -0.03627784634304163, 0.07138497367354901, -0.02098403848086238, -0.02992487995775943, -0.013129833077098122, -0.005977481847728477, -0.04214148194533462, -0.06522906218265716, 0.03069987841553645, -0.13148307917975083, -0.011815641628725415, 0.004123617653857496, 0.028728723818345406, -0.061343199235231224, -0.031372268956726644, -0.01716768739922067, -0.016098736263898895, -0.04023343693661878, 0.016313961991058896, -0.021030292187227035, 0.03052151051539478, -0.03974911490515717, -0.06511446978565465, 0.04404497448664139, 0.012052867468898934, 0.020364839580838644, 0.01556352707706098, -0.0075753872222632, -0.05187360267398453, -0.019881785916265028, 0.014196718246308682, 0.019578380486574176, -0.005326827063553251, 0.030260524458889246, 0.003070564266861217, -0.1364065146036949, -0.04553825301755479, 0.015902427889680174, 0.03344443358437131, 0.02409537829335633, -0.025375947612954086, -0.0010499269135574507, -0.006463856785985732, -0.03075420600162996, -0.07480573356478114, -0.02354338526078758, 0.04870528798928176, -0.05553795986988186, -0.09103966124388901, 0.027440458949787583, -0.04653494450514229, -0.017534799035987834, -0.04336731393263314, -0.05000535371135361, 0.009024591715034147, -0.005672158802308128, 0.008502729359081833, 0.034695988778570705, -0.014523212523054095, -0.07286806751261482, 0.054826086802932536, -0.05321958973609531, 0.028400876070461083, -0.03300125080798587, 0.001667169436576947, -0.01913272940096852, -0.02626693467972042, -0.028648357247695523, -0.003656014962121088, -0.011534997963401914, -0.007540902503494263, -0.00045617741892484397, -0.03343298809585647, -0.04126222934218353, -0.06912574165398186, -0.013656657398483011, -0.0045657337956727904, -0.046668349955586504, -0.15989578550633404, -0.007260959998657572, -0.05775447657166443, -0.030247524908420434, 0.028454371264400605, -0.05081624299559319, 0.016014384397349698, -0.055382427231318636, 0.060115885406336445, -0.06668981155403693, -0.02507344846837978, -0.039508665941536354, 0.011990152682431945, 0.008139828133822954, -0.018733220847026576, 0.02154567989598855, -0.006027987258316042, 0.004791663192585148, 0.02954962372981029, 0.050874781511482677, 0.005810336333383788, -0.0066631811186826295, -0.08481804167592046, 0.06820244493256486, -0.00970408182041464, -0.011856684028994653, 0.014170893450870635, -0.03150158625574988, 0.01706031380634949, -0.021841179779267826, -0.056230141111651984, 0.015084361454399602, -0.005335508772790569, -0.026490813128796576, 0.043267895136529684, -0.06238271044686341, -0.03438354153700955, -0.0038860857564661454, -0.016281091150836598, 0.05169249676293177, 0.008268320455048418, -0.0642316548040379, 0.0036686046771204073, 0.017244532820771392, -0.03738584862741783, -0.03797162722159372, -0.0063491354726478546, -0.021531276053898235, -0.1028576326695538, -0.019903585235337678, -0.023628655144713132, -0.019758311692492425, 0.008182296326314923, 0.009495587270167858, 0.06456069091269981, -0.0741514438946848, 0.0364314481365641, -0.03190074717080561, 0.01373557614554828, -0.0059400312616662825, -0.007129789367092835, -0.07963748954290814, -0.0615906693991728, -0.014129020834878858, -0.04702094119360675, -0.01674485560478129, 0.046590359098214, -0.009792416367356295, -0.029021651552452385, 0.030966327850323123, -0.02070596791387423, 0.013830115609310401, -0.0034869034927911416, -0.0292226575311938, -0.03738974455523215, -0.04585311124549191, 0.028846769836977707, -0.03707000838717383, -0.012388817962988062, -0.015411956051636947, -0.03398539212395714, 0.015755837181509146, 0.0017009998756333331, -0.04323078122225046, 0.04604724228771951, -0.018263502180075004, -0.018835791619671912, -0.0558957919848082, -0.009132773204634811, -0.00738203965540577, 0.00939890523154743, -0.0006786783375897506, -0.03215569619954669, -0.07535668528222692, 0.20381644720328077, 0.02643389293897366, -0.0447202357731637, -0.020596994198542704, -0.06755608459654118, -0.014074645964798937, -0.07031091792274546], [-0.03748645690504214, -0.006781811043343503, -0.01677622216442311, -0.02617744437909867, -0.03553778951431617, 0.05015608814552044, -0.004716044767091394, -0.03688382608146976, 0.0185890179660766, -0.02945562263430148, -0.01642413134211867, 0.01750401011326769, -0.03896297609986213, 0.08881644321075134, -0.0018370658650812878, 0.004055778664445809, -0.015375857629979782, 0.029013617721894588, -0.0450220549520536, 0.04047299798078268, 0.025621105322824102, 0.003592387249944241, 0.0044010493047231475, 0.03198593404030902, -0.054658269985892106, 0.0326647506553721, -0.016170207733259976, 0.021195037980404226, -0.021157700446863506, 0.0788111394515962, 0.019057049701018607, -0.02343946215669647, 0.00587890119717959, 0.01265734586059274, 0.013969607138609353, 0.01871084838636589, -0.05460474543859648, 0.020942529520771233, -0.011478218452720311, 0.03762872337585879, -0.022622235757432083, 0.002040251810961825, -0.01729620649729832, -0.003048889923322871, -0.010180986895097725, 0.04211307780791103, 0.02396817015348465, 0.018185329705514515, 0.05269873964850782, 0.013577459447584166, 0.018254603719992206, 0.03195945839229628, 0.023347134667269454, 0.0400375594686325, -0.007697913683754836, -0.012847659347922553, -0.04506168467856264, 0.05688492887297796, 0.009791581043188401, 0.02306671164041519, -0.030922374956744495, 0.0349542907477195, 0.005483917403237946, -0.017215554299199073, 0.022522576379388783, 0.01232377184938095, -0.02463584983170119, -0.05864062079734476, -0.03003365747518176, -0.022390242608081885, 0.11215680586794988, 0.008166939918980362, 0.014850305682130603, 0.035000067784297706, -0.01696635045345172, 0.009927290389680871, -0.0006577335318998754, 0.004931837992102787, 0.05295062102897779, 0.006145938804525779, 0.010461766963876969, -0.001690063434101171, -0.043790703754989, 0.02440182093352351, -0.002758294806470555, 0.017381835277007148, 0.009647317916803537, -0.012347798108139693, -0.015842687000671322, 0.05104697142738863, -0.009360620027926177, -0.030731249790350225, -0.053766666918612066, 0.0345246875277784, 0.01296696057752051, -0.07220425751548724, 0.04454701676044622, -0.01984657677863251, 0.024487557944477288, -0.039593680821795006, 0.046016302734692455, 0.02794074640007407, -0.020993330433811512, -0.04364937719240997, -0.04803859204238029, -0.033893386708261954, -0.034064499511647174, 0.03284814994448455, 0.019680480304561133, 0.028599869841577138, -0.0319844457995708, -0.01868909105055666, -0.018716099144962018, 0.033773486335385856, 0.005395897734427803, 0.0508434031513565, 0.019939687766077994, 0.012732467249611664, -0.012565453544760418, -0.05408786089623372, -0.002368148763817825, 0.002271318454663017, 0.011285267602208339, 0.07890635170915994, -0.020164041191696836, 0.00217462969790884, 0.013412418797567518, 0.02363449874576072, 0.041895143090191676, -0.0009040614045915932, 0.024974324185969256, 0.033915070160475305, 0.04867495979186985, 0.024511271712195908, 0.03009316564785311, 0.0011366306967422386, 0.006241081936316147, -0.05096820307195402, -0.06155475744042703, -0.024766340853400674, 0.029271733242019565, 0.02105273204550848, -0.0036320900368224745, -0.011239594593208403, -0.005134927548822812, 0.034872075714555445, 0.05170238302578243, 0.04702198939946657, 0.032173033214880964, 0.10241264538216073, -0.007959205599864653, -0.02053035820989034, -0.051753898515464115, 0.0789554585848578, -0.03468979089275192, -0.020312369321774527, -0.014070710000632203, -0.04244274463676246, -0.037670900643447185, 0.023641513100517066, -0.024668592112699825, -0.02671163731215096, 0.05112526206603068, -0.04657142186542818, 0.009482084395933588, 0.04153393865274927, 0.06918175116746743, 0.018160081445246196, -0.01867282645395681, 0.054744935791681056, 0.004103406759758755, -0.01132030698072526, -0.0009944694160917652, 0.019641858677939113, -0.0002375081022738474, 0.02119690303537264, 0.01134449157401607, -0.03074543123623557, 0.011916063671263565, 0.05498612933623533, 0.03556294070278868, -0.02269823207876133, -0.014103586059727485, 0.010722809077108863, -0.03332689961440959, 0.06169448526601451, 0.02179873723959314, 0.043201005743167105, 0.03264802346533973, -0.01543719866564552, -0.039935675867035246, -0.03505136827704224, -0.038123863576062775, 0.02193318925631436, 0.027527936342624085, -0.021957612911322068, 0.01509373776035912, -0.045534842962386815, -0.004983780708864489, 0.019363062499479174, 0.015462423316480216, -0.02696099814013818, 0.04083287149993817, -0.0004669401725877875, -0.02089670621944178, -0.03175365295987677, -0.009660258363371133, 0.013658471443843885, 0.059582353090344826, 0.009085524782773875, -0.012496727004941751, 0.007484499053906559, -0.026528379378642688, -0.006742710442341497, 0.02378976060993173, -0.0469305397802184, 0.013635362477444448, -0.0498673981537673, -0.04947951135845001, 0.021354372237099316, -0.07016608322202686, -0.024892052724182132, -0.013678765834290103, 0.06382118856137739, 0.06987771666218369, 0.024794463372951797, -0.018259231281970576, 0.014322088979347447, 0.02346073548521463, 0.05936712867365731, -0.03814303119628677, -0.007417891779345884, -0.023772671577050163, -0.009633784025515062, 0.016255624132123975, -0.011602796242942076, 0.027355861356665904, -0.0014791959982153593, -0.01531880148304619, 0.001437418900721815, 0.02231477430489021, -0.030579472723113083, -0.008967993701828136, 0.03871395231932575, 0.02044583279308243, -0.011747635829053171, -0.00016235497794265605, -0.03026222625518156, 0.009393382902374375, -0.017801626121500002, -0.04481974957548464, 0.001926352745738285, 0.010605498325259486, -0.06325454237312182, 0.01013526201152062, -0.003727834340412041, 0.007586359248241761, -0.03742023391965679, 0.028868505120477988, -0.03784086985796849, 0.062321284655750465, 0.027151411252376873, 0.01817899736185613, -0.01838857189248813, -0.020233286347621754, 0.07180837706496451, 0.08199731539042708, -0.009093724096693059, 0.007868894394594326, -0.033481133693902466, -0.010510395057817796, 0.04282378014741856, 0.0449559170981162, -0.02824253885996166, -0.042323122138894075, -0.03388987224951069, -0.013987037071203886, 0.0726996901657934, 0.006009303831828356, -0.0020639688906601383, -0.004977700145015996, -0.03374446986266202, -0.014203083998473946, -0.02566217462844587, -0.02015287665799788, 0.04241891923643203, -0.018192579470183982, -0.012513703529700658, -0.009082172314370538, -0.0028454268123863117, 0.006945725533436056, -0.00972652766763402, 0.02117311262065259, -0.019820265198900906, -0.008384514856541693, 0.007553570547760311, -0.01983451220788039, -0.06027520303499121, -0.004139977067947803, -3.7456094224049836e-05, 0.0125117589561703, -0.0028378805197339877, -0.03991340679561169, 0.03269367595394807, 0.03024615810229856, 0.05410285481333034, 0.013368345805868978, 0.012975374010075745, -0.013147590238304403, -0.007421389239433799, -0.02885384770478802, 0.0385959493834862, 0.015434763870927098, 0.0039049003723441267, 0.021429493988285767, 0.01791400440268005, -0.021156472147700084, -0.04268768216567923, -0.012680870795112154, -0.027917260230714242, -0.024592315345627915, 0.0020928446856430354, -0.027343800089646847, 0.03803848950929808, 0.02993264969985106, 0.006712778915235839, -0.03745582146856791, -0.0010798531075209947, 0.003064121353770133, 0.021986841367467227, -0.0244738824027423, 0.04711699412546089, 0.014249881621076203, 0.005892666522652266, 0.0052782104340174845, -0.0007918582615605277, -0.006853568367639534, 0.004939883390963794, -0.012931430070973358, -0.018317334536321624, -0.007184422607378006, 0.05399379018485651, -0.05428436908149001, 0.053685517168189076, -0.022431979952736582, -0.009076171554233296, 0.0015545196415562847, 0.02569402000557098, -0.0054524601944553755, -0.03625518247727142, 0.03901271550246311, 0.03349581553061559, 0.032368580885831055, -0.035543336081469985, -0.03221765043407851, -0.03294596232433515, 0.03460528914394794, -0.01055801114346161, 0.05583174529664008, -0.03282887215710997, 0.045101900817835466, -0.054040878192418235, 0.005453383807624217, -0.05150342694444566, -0.0030610892704257026, -0.01496164476031062, -0.02135785754852501, 0.042918862113121875, -0.01051899516492321, -0.03487822306127429, 0.0010226934233320164, -0.04402443538051868, 0.04113743572489852, -0.007043051256963329, 0.030491145639647037, -0.026447888729926525, -0.018151887636418597, 0.07190161237021638, 0.03815907614682839, 0.018568935869770355, 0.023697692329763483, -0.010112223648979722, 0.0637525431397834, 0.03210303211151003, -0.010189916752583374, 0.005776493968192966, -0.007073374362780411, 0.017534482391118253, -0.01651731504626027, -0.052300484535935866, 0.039928944007244914, -0.006104252916405012, -0.04167524273459672, -0.0040413697111886405, -0.020980877631433505, 0.011638823471418484, -0.009076831864690247, -0.011034013952178864, -0.04033414652241887, 0.01769421458022044, 0.024270239998660896, 0.01081501161797306, -0.055952203924137356, 0.0009956541524234496, 0.01757030460225996, 0.0005451482126519825, 0.04553810182129694, -0.011505312257649504, 0.057857774137859655, 0.03921895230726281, 0.011373727915972845, 0.009285687765763403, 0.00578260656478817, 0.003665342208002142, -0.035897243732073626, -0.023568293783910364, -0.013152144608212065, 0.039273719961553016, 0.01737946450384757, -0.03733358286199401, -0.039385655405082216, -0.03358396981762928, 0.020695716921140653, 0.04574810994515798, -0.026152555844054324, 0.06877816353594592, -0.005818408801702667, 0.015554926139804963, 0.01784751666058092, -0.03431653462240083, -0.04147538257293116, 0.053124464879800895, -0.01921739980804935, -0.0026155098452187338, 0.008473212804100499, 0.05610923794199377, -0.02177052806968036, -0.00639692842906825, 0.019099276089227686, 0.045051542684755586, -0.031999218971497684, 0.02632389152245922, -0.006883848807920479, -0.0371709361171852, -0.044196179698920375, 0.018206189854696225, 0.022157596439401163, 0.12472366734487099, -0.01728003078148658, 0.03232114974881169, 0.045138535524997594, -0.027164895596246193, 0.02228835316551516, 0.00936398846064272, -0.012303568700189992, -0.003247892227969514, -0.000956554898117889, -0.0454649959111264, 0.005328627512051895, 0.018069316613932313, -0.05406556682886219, -0.04719291372554238, -0.005080316034321877, 0.052071250746779624, -0.01883760103908032, -0.0064556383743543996, 0.03512911705789149, -0.06870059787551136, -0.024104249156938186, 0.013102338302496595, -0.056991177965470215, -0.04725150065766401, 0.02494889390263205, -0.031805975985173394, 0.008426779271024526, 0.02308189545834214, 0.012035103915738653, 0.02605508952954009, 0.04956491474869402, 0.015037135672608979, -0.004318445495088273, 0.01377380899498871, -0.020403760597783475, -0.0070381962111168974, -0.034924082236248655, 0.061555752918107824, -0.03159307041050154, 0.04815192423514025, 0.037501278147326275, 0.031580126151248986, 0.03287766421317631, 0.06152045040968624, -0.005505632847877745, -0.055778840715952877, -0.03129006802391844, -0.004614106717583454, 0.05674642543645317, 0.0026563550195502672, 0.004000591429467714, -0.01069486498201443, 0.04453174147636281, 0.018160430378347747, -0.035757945410873716, -0.0331664437701973, 0.03667020885153385, 0.06553088879013126, 0.05215774465978265, -0.006359663319464768, -0.002757337186315, -0.04509754529332884, 0.003835219520575459, 0.015859726966339367, 0.03068398037886469, 0.04686501142812542, -0.016697820314653333, 0.034548574278885656, -0.044556455288447906, -0.004158282343019507, -0.03605921784360841, -0.0017486960964947266, 0.07273325108266915, -0.01048195544131572, 0.05120567208674142, -0.030566052661433803, 0.03343921980355699, -0.05657323756211767, -0.04539020087462008, 0.06468726199084114, 0.008942814468557514, -0.011984155311066357, -0.010878956156136252, -0.0438601220030391, 0.00967399524622804, 0.017742079459647862, 0.00803396325016587, -0.012152498771265938, -0.04841232991125689, 0.029278113073856273, 0.04509832880869741, 0.015173847126504287, 0.04642928375767289, 0.025041513532679627, 0.0002941311253794165, -0.01253264834641784, -0.0016751540255594574, 0.013439798444607772, -0.000673467319302659, 0.02695028464051822, -0.03219051294344367, -0.019356602683686417, -0.026879135005204384, 0.04182823187465703, -0.030622559175202655, 0.03583320489879117, 0.0011234423726814826, 0.024399302278414407, 0.029075355150143842, -0.04353049442510846, 0.003411603942090807, 0.026876128145655574, -0.02567178152455678, -0.0231161631688938, -0.0038604004716005203, 0.039251433537534755, -0.021487233528328844, -0.02349263958404562, 0.00664346309148046, -0.00033041137044159907, -0.020304140201757647, -0.05686079616887418, 0.043624447701485214, 0.022282771437606336, 0.05363913520730027, -0.03043735295925655, 0.025353304437178637, -0.023372679406996538, -0.021773277795835502, 0.015926798319119577, 0.009379050083969673, -0.030905109674373436, -0.07240542577678422, -0.010514367284771753, 0.05301495299423055, -0.0009276079012181917, -0.010869594064236772, -0.0008477226603287822, 0.04587504018407078, -0.05039108877544785, -0.015696069987075352, 0.038631679015043566, -0.04577061120584579, 0.020463036221588994, -0.03642906891182429, 0.009954020514597347, -0.007113534699391389, -0.012912481785932342, 0.04452478479799767, 0.001110578292723313, 0.0965908555441849, 0.0071199046264139925, -0.008197726854022175, 0.029726424389919237, -0.018837747513474293, -0.009536387887995778, -0.0016538601912705112, -0.03237671266929874, -0.03693146567099544, 0.012605448564004832, -0.03692122480123929, 4.1515049776436206e-05, -0.006243282473863881, 0.010402864197183849, 0.006601608853982257, 0.07453132657301911, 0.028778041668553463, 0.012623166421210958, 0.0005181615002908959, -0.004412167243426763, -0.009313664941981901, -0.02481091777525063, 0.011987084780048573, -0.03802326447295543, 0.04202008822189497, 0.02415511220758189, 0.03916447981176349, 0.013022034937575085, 0.037538829253113776, 0.0022708411287730725, -0.035188752819449554, 0.03870421870399701, 0.026522927596752652, 0.002880694892451409, 0.012484196649327012, -0.009700999036941951, -0.0026503777070718427, -0.006648127399510852, 0.010206258048407359, 0.048856478242810406, 0.05633878194846972, -0.008570205902496556, -0.020850576664702525, -0.002122427103131265, -0.044147855948771755, 0.067964986801829, 0.043777551669452866, -0.030095818011364104, -0.020271356477172053, 0.019826401164940114, 0.02246996888462121, 0.03924227619228319, 0.025895467526893316, -0.031552393301907164, -0.003231814346376269, -0.03214848213937874, -0.03457247275525771, -0.017022963259191167, 0.026492260626963332, 0.016009955264073, 0.03564054264355296, -0.022040733186470454, 0.019269251820976198, -0.05608354084281649, 0.0511007090967953, 0.052258317965542304, -0.00949775651069411, -0.04426851022805283, 0.026940760835213115, 0.025749493667336754, 0.012615985916843512, 0.019488878425646484, -0.010766707035562775, 0.0006887634012426529, -0.012145873763103207, 0.0058849623278767246, 0.046063721620068894, -0.05048910089711484, -0.034114511860205705, 0.030764701669122436, 0.006370376012813779, 0.020615114131050948, 0.0033155000604705317, -0.01831747950751171, -0.03296004064063091, -0.052620427816387844, -0.0060890750895365425, -0.01985239145606254, 0.003139810446376663, -0.010062531067638393, -0.02842401824055807, 0.010315482275052782, -0.004445256430821623, -0.04190070051363244, -0.017403001711282468, -0.02122070037222086, 0.03814271871132411, -0.01710059959402409, 0.007037587628879545, 0.014684673223539814, -0.004886824245828943, 0.041706416089685325, 0.02067935155348807, -0.005547238235029324, -0.027303481803375263, 0.02303983690075891, -0.006890364574689354, 0.017725200557060717, 0.04437000566005799, 0.025897052518678177, 0.04901281050920913, 0.03189448574802485, -0.012165070640727775, -0.018754270572961085, -0.06958801406996523, -0.02965329550681077, 0.03935238827878644, 0.011607641261842274, -0.006220715493449645, 0.035620555157307235, -0.005909082619949221, 0.012874496074892924, 0.04229547444573448, 0.017576578010094955, -0.023901328946913453, -0.011874378266192762, 0.041219801463384664, 0.0212706905388623, 0.016706752253436277, 0.04066390513394565, 0.026992543727148315, -0.06134901834242935, -0.008500581755812016, -0.04238638016512584, -0.04426692610943634, -0.010674832639462083, 0.007054904411095606, -0.014578602913548972, 0.020081792069142002, -0.012174559425687851, 0.015804337935508898, -0.003301103008902934, 0.00583879537082255, -0.032141596310553334, 0.048335509965253314, -0.014342961023534318, 0.004077322247754681, 0.004796155370514191, 0.020715014380451518, 0.027642416153547997, -0.025599660528756805, -0.027253315675274864, -0.022041579369931983, 0.011661230186365348, 0.03226543399180371, 0.0033033109707296285, 0.016991435075986046, 0.03874183881935611, 0.09879261497514073, -0.0007910151340158545, -0.011849626560370715, 0.06009074812880195, 0.019891179042953854, 0.02000324674596866, -0.024113836474173173, -0.038001254123949155, 0.03988541158732334, -0.039982826062100005, 0.05875129321259498, 0.015192520474427327, -0.04611578055405368, -0.03187138823450245, 0.0013942914678159025, -0.0007083212292374592, -0.043680159714985047, -0.026245202599988172, 0.03697590011723225, 0.02472743006848336, 1.5612671662798363e-05, 0.05324679917759865, -0.022874458702928233, -0.04093493297736863, 0.018444957708198935, 0.014608121287793242, -0.0034465452172979852, -0.021927275043692067, -0.0001076269627262303, 0.018007134219553637, -0.007680634452928427, 0.012328689077249507, -0.04442855574186183, 0.0019339122719306944, 0.011722248964968686, 0.018428291271670963, -0.008453472737526835, 0.03988991450490241, 0.04430057390467663, -0.058770837492829936, 0.026065100106804805, -0.08876275182885764, 0.041670771160602305, -0.04424053676258167, -0.023551129108239574, 0.014360050427901318, 0.003295343337192003, 0.0108886840448529, -0.012641695541778863, -0.08393556996276931, -0.04883187048781113, 0.011177950526047923, 0.0030124206610440307, 0.03739781755998388, 0.01986913354744214, 0.0503166040583557, -0.041828938269821266, 0.006629025088429724, -0.052200259830182796, 0.0478669290082345, 0.04527799288124093, 0.0021428782487082337, 0.04465808104631132, -0.0629358618218375, 0.009594925242318083, 0.010503344829572308, -0.00587901435084362, 0.007312350855287102, -0.01779741136988352, -0.07441546289601786, -0.008597608573917673, -0.009527647050000903, -0.006304795191498817, 0.01083078915953083, -0.02148893141814946, -0.03374748229133748, 0.07433332104024698, -0.04773061478550824, 0.04121112135191799, -0.02480032851590043, -0.04601598643751175, -0.0362956946048852, 0.07877508270630305], [0.02087198819941625, 0.02578057881997685, 0.0635339163268578, -0.00844291355990971, -0.0036048878070499245, -0.03356496926233613, -0.03775132610501537, 0.03077970255526394, 0.005872612039807598, 0.005672579096247254, 0.004975603689591644, 0.03683759666506089, 0.007322169335541356, 0.01774999363461607, -0.0038828560997217366, 0.042333176647276115, -0.05031503481276349, -0.028694143681798293, -0.004761296528768445, -0.004589176765943995, -0.015451801076264766, 0.02923127734331499, -0.0264489457142237, 0.05533003529726284, -0.05392684388288944, -0.025620296255620803, 0.01653733016687116, -0.013590738142063248, -0.04575238868762995, -0.03551561657896696, -0.013143337820336505, 0.025139860153344663, -0.030227014196028724, 0.04707210606934871, -0.009703776268383688, -0.0021130192496028126, -0.00755475236680802, -0.0219323032002829, 5.0038347197983354e-05, 0.029950415724274232, 0.0378864014864836, 0.001912340075563576, 0.008188987385690518, 0.008585624084484012, 0.008005121142690063, 0.06161697687952307, -0.05640957671195944, 0.013070991545893725, 0.006759070426173854, -0.06390540426899666, 0.0024673045638523277, 0.0024264201086990817, 0.003889171173822358, -0.011393907370538843, 0.0166320241841375, 0.04311256236299708, -0.022382621971218465, -0.0041139315881137326, -0.06511564992870081, 0.06853559011508344, -0.02437071903712649, -0.06053154184424058, 0.06427263523929637, -0.00435699877480016, -0.047777806094677536, 0.020481239268243346, -0.04201589878355512, 0.01800371457099813, 0.012329971996938279, 0.005091481830657364, 0.010943544662606068, 0.008950046809969926, 0.060733455999010755, -0.05408499256667573, 0.015277153032726117, -0.05233432860874226, 0.010035624472491043, 0.044551202222601935, 0.049212243692203624, 0.02943345368811337, 0.038798920616352525, 0.009949301492744422, -0.012050968232941467, 0.006843008024040751, -0.045530377539358076, -0.027167900195118777, 0.012040316448025255, -0.011775816433833975, 0.003210506171343001, 0.03942821537349174, 0.0024148717615131055, 0.01924317028075302, -0.03553151674650162, -0.048671035714781014, -0.005394438262253036, -0.04373183673210215, -0.03317789897770123, 0.015086611317420255, 0.060161325907717986, 0.03714532783958809, 0.005552301267127216, 0.019454387295173417, -0.006600352310715648, 0.03411087589468341, 0.021122927267417536, -0.05274689529001576, -0.03477145562494761, -0.016917327239160895, -0.017713477790526958, 0.011554156827052157, -0.017581440589743952, -0.03119284487958154, -0.056341503451327754, 0.002401778200538965, 0.011155380306484415, -0.05011946268313319, -0.04254674611060038, 0.03155887807277114, 0.005371285195047963, -0.03566918893879236, -0.040466309243353225, -0.0011161822337508228, -0.008323033004960956, -0.07705445306058037, -0.03919412190727108, 0.07466329809402196, 0.002656601153481975, 0.015153836129458255, 0.0013242155440329052, -0.008885858449241623, 0.03065835344557651, 0.040507187584319704, -0.06549823354008705, 0.016477521028534888, -0.029136565906685914, 0.004436200932536846, -0.010535937037586025, 0.00022636698579362884, -0.002919127829974849, 0.04480872597643633, 0.013698441903653819, 0.044850179317996765, 0.02185257327150669, 0.004350786265760106, 0.029768457711970023, 0.026630340248585693, 0.0335348881465044, 0.05527167853936457, -0.05858186793733846, -0.06093130831427392, 0.02347373696475085, -0.039758068444166204, 0.025795403454061904, -0.004791221424912098, 0.009784715511968954, -0.00957455685089167, 0.017430045791333854, -0.010971955856304732, -0.033208444295968684, -0.002979314074973347, 0.021830657769013686, -0.016650389500030435, 0.007974257503785264, -0.039997728553026336, -0.008442582065293726, 0.014932287461933726, 0.007868303762485252, 0.017196524637082353, 0.00292573082554916, 0.06056837970940568, -0.011606687279334286, -0.024114633825433465, -0.05445133496061955, -0.020320513791237782, -0.04661554809924958, 0.024971031100508693, -0.023096400786574708, -0.005508334441324465, -0.020833795531360957, 0.039682939327826176, 0.015038533581934048, 0.11142870269452117, 0.006844421443646103, -0.013805094339922329, 0.010152174776384684, 0.001567217981375232, 0.005910744272332001, -0.012218343327006866, 0.015687390921393533, 0.014234050218968395, 0.031164441243978446, 0.03161193319658736, 0.008064333866610129, 0.003112677176193078, 0.0066338968936231245, 0.04055962016568429, -0.05404061145823783, -0.04466963362270323, 0.010889918693944917, -0.035018215339859764, 0.04309933029176478, -0.008700534878328711, -0.04468736761220144, 0.06224727949436385, 0.025823381444059473, 0.006305844105916969, 0.016183754011199376, 0.07136717807611542, 0.05512821830528859, -0.015249400447644229, -0.009588376932455853, -0.020827544075857844, -0.003349805908995011, -0.019296832206456546, 0.005414460122385912, -0.023573134154308315, -0.005474648738300231, -0.06115643564705909, 0.003089688011821364, -0.019546969768765382, 0.009629350133063496, -0.00919871922281646, 0.044825246163508435, -0.030854344484596716, 0.017908637027493308, 0.041838976458471955, 0.052066372916827405, -0.05429489859147294, -0.032881384873179986, 0.006500006852625032, -0.0010717283450247014, 0.03886322847077325, -0.008236628882230965, 0.044313813466453765, -0.04064991934117257, -0.006701463373602238, -0.029563933734079142, 0.006963549980756169, -0.010935300179503865, 0.00416123481365863, -0.04245003268741626, 0.009292588146060047, -0.03493247542772348, 0.015648370237438744, -0.009424364322984918, -0.00927933618946725, 0.011180108792191619, 0.02558137935663639, 0.011464327459489684, 0.016122830190566845, -0.01746302676862791, 0.0558007364912652, -0.038356036956555394, -0.0003350739871494681, -0.01685434738065263, -0.02655811817037861, -0.015922651357283733, -0.017396059954564592, 0.0370742377346408, 0.02365855464202912, -0.014392440212225317, 0.005346764171500282, 0.017674465193196078, 0.00020791981934881851, -0.03239419699585301, -0.003593460165475346, -0.04747226132653444, 0.030554699492247928, -0.0360898584809441, 0.03994757131110356, 0.03935708948434383, -0.06144998313992764, 0.0064717959452455145, -0.014882411752427433, -0.0116657346977699, 0.004204576473435427, -0.06326803230682117, -0.0049414160540474285, -0.1209581033469742, -0.0706707479706687, -0.020670053516128464, -0.03251800436185769, 0.04652961456967161, 0.0068625535259338915, -0.011673745159956813, -0.0006048031006766154, 0.05344849249891567, 0.04225100232869901, 0.019045709099612153, -0.03770781281024614, 0.0889264145072493, -0.039219824326703984, -0.016797394700848404, 0.03207806862953126, -0.05499032411331943, 0.030460153746323583, -0.016764227735035712, 0.0366910846023072, -0.021333784229908455, -0.004027812778974789, 0.01876016017476755, -0.004381828904116599, -0.023867673800985725, 0.022683435895034392, -0.005559955175245409, -0.01899843709754703, -0.008447448794990209, -0.027650295774758922, -0.011793819643430766, -0.022275562202246548, 0.023783806593406825, 0.009180887749416285, 0.027528108518525465, -0.025498801371504554, 0.01960530975972281, 0.0024916667032791303, -0.017882820998824635, -0.03549840888865241, -0.05089291910842579, -0.0019553182626201003, -0.06646645206281157, -0.029424151769607828, -0.032651001818665315, 