{"beta": [[[0.18584757150025136], [0.055799748194741296], [0.08835381866523993], [0.0678554114476451], [0.19062806672951024], [0.17453922807578415], [0.06683161124856503], [0.15747116005785544], [0.19076627556393708], [0.08030642163929913], [0.1185346591159548], [0.13913608348587497], [0.168103531007571], [0.21457466319820467], [0.07979778734979233], [0.0951068935007402], [0.0753328871621172], [0.06887594421437888], [0.14339954234377145], [0.13564846303814157], [0.2125067116714691], [0.14648319256372155], [0.10384363671597163], [0.19061499207897234], [0.2598242143440796], [0.09308349433953937], [0.060975455836023], [0.1902768994297916], [0.10433298994056012], [0.1110069731996525], [0.04037063115296558], [0.08158729636609897], [0.18173094626913863], [0.16466859543948345], [0.04878670527361755], [0.2055658169329388], [0.16933849022399086], [0.1860180265874797], [0.18216475296533657], [0.13465135791412794], [0.19272356664700463], [0.17585446978641403], [0.1436370706475114], [0.11037030309163952], [0.14794599304567366], [0.13342055394663185], [0.2029077284899052], [0.10018834282823075], [0.0807159969331321], [0.2691100773415955], [0.06791851076634599], [0.20593755005585296], [0.07410242057808647], [0.11339979395922345], [0.22619904360568258], [0.06613741481558906], [0.22697100724817182], [0.28817292518922], [0.10955820507662237], [0.18699425247412635], [0.20362148392771723], [0.1495719081953955], [0.15075540294594172], [0.13194333564994196], [0.13979407656184248], [0.23951264386599538], [0.12132024609805322], [0.16625702591193559], [0.05563923154198489], [0.14661237346358186], [0.17242415565384975], [0.09318933415681488], [0.1645744974977382], [0.11712985721946792], [0.17534686820318837], [0.07147880774967691], [0.0602724838678931], [0.08747062741702373], [0.14043141335596443], [0.03355874472645516]], [[0.10875379779883482], [0.18161832074647458], [0.25480454008937986], [0.02215196563557026], [0.1848723585719147], [0.1290506349350503], [0.3182453430052516], [0.34921481032546553], [0.17912248359623356], [0.1379129644408539], [0.037857136190893544], [0.08811099466520396], [0.1749970710762735], [0.10094199702075884], [0.1543044872593539], [0.07267467707915753], [0.12679686992652967], [0.06258047317179301], [0.12954515938770939], [0.15571272937918013], [0.07609689393208056], [0.09311659859530079], [0.07118913283920102], [0.07962655279523267], [0.1338799035114073], [0.0703302721454507], [0.1000337656447898], [0.0639821379466675], [0.08855909185289182], [0.08103511026568004], [0.15209253143595164], [0.11551207800857978], [0.1138714770636602], [0.14698411568733089], [0.14579367066584623], [0.1293534152921886], [0.12513190936869978], [0.10356100815953295], [0.0889531639253544], [0.06487567176362082], [0.16288394772480905], [0.11477086154394596], [0.1490024353996164], [0.17928393196552989], [0.15318425563484495], [0.13130209078618812], [0.05336739143302279], [0.2685186499275971], [0.09309430136921908], [0.042080829815305816], [0.1493458883090831], [0.14841133007791243], [0.21249626234928118], [0.11038802487999216], [0.1489547470465268], [0.1921156296503388], [0.16835210303054574], [0.09698222696784846], [0.3658489881178726], [0.040128104019980536]], [[0.20279384186496385], [0.0010500298000344949], [0.05715582740606312], [0.13258187655911152], [0.1481759942979971], [0.12059360606510369], [0.14883329781641905], [0.12453392854112129], [0.057087166816751474], [0.0831938218589132], [0.12027995964820876], [0.09237368415988871], [0.17600690146978035], [0.07865720180939487], [0.17007916740092346], [0.18563362365556776], [0.11954617879282645], [0.126540693873698], [0.24558789631197903], [0.26148498012113847], [0.10190424193894512], [0.037383203403519326], [0.2870617337378606], [0.1399571270336218], [0.050617583031734754], [0.0321827407578381], [0.06662762486174457], [0.1461193430152795], [0.05870801843658342], [0.18394967531240217], [0.1397637753805823], [0.1332414877828947], [0.013833080195780877], [0.1886188756259947], [0.001822671246717009], [0.2389778201008091], [0.19483229970660954], [0.20847812569856414], [0.1657717251800897], [0.11639160793773035]], [[-0.0541229904588808]]], "layers": [80, 60, 40, 1], "popVar": [[[0.6485194875436279], [0.7094679264705733], [0.1478499000591488], [0.5550250186738764], [0.5563539749001061], [0.14579505303017481], [0.11697777074989213], [0.5017986511474274], [0.8763215267853294], [0.05347749143112975], [0.09306198266811408], [0.23065812535193753], [0.4867958905094793], [1.0383621533911802], [0.46465009502869303], [0.0188708794231641], [0.3346830358098791], [0.38057118401806284], [0.37894859345451826], [0.043697730857117305], [0.9383470361525956], [0.408596907195831], [0.13343198653141694], [0.5257083967091769], [1.224608343342998], [0.2741720875504076], [0.4035746492823342], [0.6234692901348501], [0.09365921444246258], [0.5579666916203566], [0.34369139353045675], [0.5304434541937583], [1.1059060433125167], [0.5227232664660924], [0.7744128895761864], [0.7567486525419631], [0.3321572544850914], [1.009937372141055], [0.8061391271597487], [0.2037578711908576], [0.9425018764863782], [0.6912387860496358], [0.4407257636466692], [0.02680763421829504], [0.36487931502089854], [0.14940147591189312], [0.7577662657175436], [0.21264915886090036], [0.34001574565997117], [0.9073229109968608], [0.4784535215966217], [0.5541090774338207], [0.4315100933154224], [0.3545223815337605], [1.2569349025656902], [0.24187650742173192], [1.1035863721987738], [1.269403333542567], [0.4139717592526256], [0.10181659495489338], [1.0165643670223665], [0.44766008057370194], [0.3213648034059692], [0.2583948920894927], [0.47278996634298215], [0.1397683838809346], [0.1756448745097194], [0.6867311015314665], [0.5028494117728459], [0.5369457136297058], [0.48204048716892234], [0.30801016411486565], [0.7362339733274279], [0.20189546083634444], [0.5214227894937881], [0.1648782925143224], [0.17089534901575387], [0.1941850890575403], [0.36759032646932566], [0.23635784372706695]], [[0.034963760560620165], [0.4054427281468545], [0.5913003522575894], [0.24399714149521037], [0.21119868889949517], [0.027740202763315736], [0.6261308562797824], [0.5163870510638798], [0.3408811349466651], [0.12908501825154314], [0.46300912701924263], [0.16124661925501288], [0.2936903322984345], [0.11315702569174262], [0.16728052210740085], [0.13444954788277988], [0.21028483584106678], [0.4936789540367586], [0.13658186843745193], [0.1656811514761369], [0.30282668302162025], [0.5405450825652905], [0.29924909188118726], [0.41640545978730803], [0.08273794337163237], [0.1689366785049977], [0.02355483426864866], [0.05778060228755274], [0.10308815529804673], [0.1567621641052016], [0.13575356042704212], [0.6138161236969327], [0.13425552957553397], [0.16473800471537275], [0.13971733328881317], [0.10439177893142002], [0.06823533878112054], [0.08480874167716111], [0.2487565131631083], [0.22167461558026885], [0.20556645502386278], [0.11889019278182293], [0.037027069697710205], [0.21164022769479915], [0.1721129503839197], [0.2053118695447177], [0.11184071293166944], [0.45799094230116466], [0.048792022370696235], [0.1502050006467376], [0.2908252809312406], [0.16273831119026935], [0.48212436861712976], [0.07338708151043208], [0.13970585027836008], [0.4190693617842337], [0.27979234049322926], [0.16996917373024265], [0.753833660329172], [0.583336961179854]], [[0.2152124600084478], [0.2996006122145876], [0.11925187290116554], [0.07679579713177558], [0.12072885262560894], [0.11268183189493389], [0.057309541416208386], [0.03816164695055401], [0.2951552458916013], [0.026737837088958515], [0.03543802111550183], [0.0574352399698441], [0.06992207531632647], [0.1332492095963628], [0.15902377002480464], [0.0374711769947097], [0.09136214527128592], [0.11571242594946614], [0.272328274865336], [0.222005379661252], [0.1717925668007815], [0.3245643848468201], [0.3007972204247105], [0.07858556722682082], [0.08330686422484947], [0.2709112378110783], [0.21325551127638254], [0.03634075195578085], [0.18172133179979935], [0.24808770445164036], [0.09122238685582293], [0.17686875030002233], [0.28991589577967497], [0.13529082173242174], [0.7817191278794519], [0.333312359918118], [0.1648991614893328], [0.12426720904679739], [0.17973083406509544], [0.05583812654990236]], [[2.2564776594669667]]], "popMean": [[[1.6666755370703221], [-1.5014619289047584], [0.7759552147081851], [-1.15694992768059], [1.469348550031603], [0.7861416143546742], [-0.557186087236626], [1.373303103873907], [2.1058751620291627], [1.3330534457790173], [0.6109749994622753], [0.8625531440812377], [1.466548730976572], [2.063103038672604], [-1.1005790055880962], [-0.2739626266581568], [-1.1877779449326862], [-1.0102222233381157], [1.4167380383109014], [0.8083536646657394], [2.0067916937604013], [1.2861653775132564], [0.7559006056659561], [1.6301232438421842], [2.328164787640676], [-0.440855913696946], [-1.044795309376786], [1.6904537075699095], [-0.8176143252108965], [-0.44898403085430527], [-1.3654969418113525], [-0.9694717039825792], [2.1267179004587304], [1.5460296434827094], [-1.871362489242797], [1.8186672550989496], [1.3276067370117057], [1.8951658950095132], [1.989284669455877], [1.0310670139630664], [2.0639126353187507], [1.8629804546129545], [1.4654791475070728], [0.13060153333504593], [1.5607426936179944], [0.7372202251881912], [2.891132079875547], [-0.9050155674680123], [-0.5983638199440726], [1.9814198080522702], [-1.2871951688007213], [1.6378588641248646], [-1.13182522529676], [-0.05816162153862022], [2.7330654772952223], [-1.1707792622790563], [2.137514031849486], [2.4828002125613136], [-0.1505474627870409], [0.9054349694482563], [2.2141210322579736], [1.3572758078053158], [1.0849238323418857], [1.0725625779218377], [1.3479130067165397], [1.0208300623171018], [0.7013203915467766], [1.729409685326033], [-1.5229884131416662], [1.5734129449615402], [1.3286758488629473], [-1.075068771255285], [1.8536505676208221], [1.1072716343209592], [1.3364105301494922], [-0.8970415030233174], [-0.8250232066197968], [-0.6002173829988228], [1.3069610594918477], [-1.0481950346568054]], [[0.15265357949687533], [0.45863677946505904], [0.6061709937207954], [-0.41505051114535335], [0.4342370708822822], [-0.027306452203614242], [0.9096212740791265], [0.8047031083358959], [0.48758137351117936], [-0.12201466728975591], [-0.11759172619063799], [-0.011017562439882105], [0.510285900705251], [-0.5079779933744438], [0.38391069955714924], [-0.179957584753151], [0.3255281779975112], [0.08835623565367713], [0.5476565892025218], [0.2626776095923615], [0.05000815980909786], [0.02087004063696827], [-0.3124664943738226], [0.020658372276042614], [-0.1299169797125461], [0.029260252101615758], [0.07155520663443213], [-0.03238872235056375], [-0.3510446307455137], [0.03465616905070078], [0.29330462098347176], [0.36896723877420795], [0.3194365066246677], [0.3412560879457254], [0.13269795674997273], [0.25562133465166775], [0.05266155417406141], [-0.544493802149482], [-0.3761927520401441], [-0.058880140310168846], [0.2952204959905224], [0.14866596145994637], [0.2701802771785154], [0.15719427844163997], [0.4130550897946893], [0.2529442876160875], [-0.06374775072006672], [0.7750204631235035], [-0.07922311261441922], [-0.24784228077011702], [0.4346842667909658], [-0.3031695973522098], [0.003360973709242632], [-0.1532720980412817], [-0.1551589344825221], [0.6345259441145472], [0.5006325660241724], [0.256580153679284], [0.7756588016975494], [-0.27317017776873903]], [[0.08624225223356421], [-0.8170061591353469], [-0.358240174230855], [-0.21149533551996128], [-0.335835646491597], [-0.14378710948612203], [-0.00361636649085762], [-0.013360390507057219], [-0.677898541656791], [-0.02414174429463289], [0.0746273586931374], [-0.11599760645630898], [-0.23902398528779506], [-0.30399164293638753], [0.288194819153966], [-0.31268711299806384], [-0.03119952645492785], [-0.06740324544357315], [0.4631111684256068], [0.22004663096025792], [-0.015511464694109588], [-0.13264036429173537], [0.3354438544165592], [-0.19666473591132436], [-0.27716092588285157], [-0.6476930524963608], [-0.45783539082036], [0.24401139622424403], [-0.3861249522362019], [-0.21408861668546514], [-0.41304087647440396], [-0.07414046597807958], [-0.4849973225353171], [0.2474646979791016], [-0.6600425167264876], [0.007479627611648214], [0.2564646541010642], [-0.2784254474387484], [-0.1057141622283209], [-0.4461521227490449]], [[-1.4578142589205292]]], "gamma": [[[1.0229335815567475], [1.0247737675375026], [1.002037991161642], [1.0279450318975416], [1.0189808282850206], [1.0245279738891855], [0.976766604342796], [1.0170987834333514], [1.0325991409168622], [1.0600654464675823], [1.022090700960311], [1.0059461003567811], [1.0188730726477426], [1.0263917322050886], [1.007609771564541], [1.0454864198159888], [1.0163495788431076], [1.0152006827204652], [1.014140673128985], [1.0928544135434461], [1.0240768300263965], [1.0096427376147683], [0.9946563137834633], [1.0172644768859898], [1.037102231819758], [1.013853031695663], [1.014004341553877], [1.0109356111398684], [1.0028503720544328], [1.0340107468080368], [1.004943508342997], [1.0405730414758574], [1.0200752911530433], [1.0216586901127291], [1.0543406850230375], [1.017920652326928], [1.0189935259032397], [1.0052286350203226], [1.014844092561571], [1.0159773835674293], [1.0160961988976305], [1.010628699929741], [1.0051463121352249], [1.0042925095156088], [1.0049938033290426], [1.0032412253392866], [1.0755902445463794], [1.0024767180734389], [1.010260444034633], [1.0276236962824974], [1.0209698165749717], [1.0154971397185306], [1.0161248107309482], [1.0100192237733083], [1.068456568186805], [1.0091938055613165], [1.029850657856838], [1.0356532147372683], [1.032982706208299], [1.381582599393027], [1.0297029121237697], [1.002959506787486], [1.0074997100754386], [1.004248946370016], [1.006568524756828], [1.5067862316396805], [1.0043005756002905], [1.0082758253798796], [1.0032613567836386], [1.0071251824535241], [1.0174289381592834], [1.0013253616808153], [1.0085311866610416], [0.997026331537257], [1.0244999022873866], [1.013873658928176], [1.0373639396723626], [1.0105418598540143], [1.0058931535660425], [1.007336579492345]], [[0.9998732634387785], [1.0215953218803806], [1.0328116296953054], [1.0209611299377186], [1.0264792630740605], [0.9958359752362469], [1.053836088336993], [1.0705114133993676], [1.007983203988842], [1.0466431753820604], [1.0280764876718578], [1.105899895225965], [1.0266755436102302], [1.0394314695227365], [1.0126978719600312], [1.1114692792091063], [0.9964916507964149], [1.0414395126027023], [1.0076886588747176], [1.0013792338470007], [1.0183658936180686], [1.0491682442779082], [1.0114098168373662], [1.0190252233404131], [1.0264139954469218], [1.0900222652757958], [0.9894396757953619], [1.0384452162202094], [0.9975419776947535], [1.0742565455824804], [1.0299609730777075], [1.0465401444616587], [1.0101860992834153], [1.0304863355708909], [1.0227615975324171], [1.0038969111646732], [1.0324082186456558], [1.030170109574503], [1.0595723192944972], [0.9933210137951315], [1.0060679720927566], [1.0180738431190561], [1.0227008226062297], [1.016708673956118], [1.0111182743194542], [0.9963128252023932], [1.06071666221661], [1.0217087482306797], [1.006998028042336], [0.9895099968813365], [1.0048251873361695], [1.0591104643955962], [1.0893532667699302], [1.0162256342974312], [1.0519325775795996], [1.0408040689052533], [1.0095079713963395], [1.067328208124252], [1.0936929308942362], [1.0569921919369767]], [[1.0237946796342752], [1.0303990528165923], [0.9870482977861486], [1.0395843500159296], [1.0411551737744782], [1.003512802560989], [1.0404231033226667], [1.0113351899161613], [1.0354797838867629], [1.0084272948924498], [1.0138847680175398], [1.0065165833633556], [1.0761628191230306], [1.0123205159379793], [0.993560303487033], [1.0452774710774337], [1.0085780573527803], [1.0163097058682282], [1.011429373891777], [1.0202146079520755], [1.0023517086128648], [1.0698401735987784], [1.0013662533871548], [1.0185921634576764], [0.9682018085758772], [1.0233604847287134], [1.0211809202180904], [1.000098418120725], [1.012383218913179], [1.0720440786239112], [1.0455167866540938], [1.0152424028710878], [1.0065265200009856], [1.0093445509265437], [1.0759935452766771], [1.0684920663313033], [0.9916094295334651], [1.0744356578264502], [1.0667010547174625], [1.0178911496638157]], [[1.3862272567727392]]], "weights": [[[-0.008624500586115172, -0.0035583326766541593, 0.007164944805591128, 0.0020496667196684307, 0.0006809503412910838, -0.0029437094498134023, 0.03787679138517398, -0.009543180892138826, -0.01873858538996731, 0.0024040508277011615, 0.021356115958258464, 0.010418011014364594, -0.002856662185932401, -0.004674713924716235, 0.008265920029860596, 0.005880054529335424, -0.002957494351845201, 0.009101033946690726, 0.0031417162163613808, 0.018373092274727592, 0.025845603580695254, -0.0022142529579359236, 0.004675702279241151, 0.00203069580529266, 0.024261801473669874, 0.0028753895682889475, -0.011453584967480265, -0.012097557072436106, -0.008873724956662818, -0.0013984408359458262, 0.0028964804918552027, -0.002708515161965245, 0.01996613520130901, 0.02506605962267443, 0.005481465111157357, 0.004711775749564466, 0.006390044013801763, -0.011515908129822363, -0.015112402150602723, -0.0027987461740437204, 0.012591119393223913, 0.009993908105281515, 0.004251133574022439, -0.02149053212518722, 0.006156465293233658, 0.023975592698759346, 0.0011393771879714967, -0.0057673760558243, -0.0066470679647858645, 0.006390240227666734, -0.00837370227969245, 0.013349253790277696, -0.0017301690238008388, 0.016120959096298144, 0.013724582297420448, -0.01194640206456345, 0.005581661298773169, -0.0034440755923209627, 0.04066737883471925, 0.03471930250090307, -0.0008878456974281498, 0.005713363172048589, 0.0022834782781414524, -0.010767192174428215, -0.005358984765273119, -0.006153778952731395, 0.008903793971730967, -0.01691462567280447, -0.0009025636358691281, 0.00011152167937383574, -0.0016737132940134144, 0.032356905791126385, 0.0035444001704317057, -0.01173583888253798, -0.0011858112940624724, 0.0014546572884678295, 0.0015556689384518042, -0.027099942581838114, -0.0003096438543629616, -0.0021862244053617364, 0.006411350634464375, 0.0020984622613854434, 0.0048288632872937765, 0.019515282970883823, 0.03534669667882672, 0.008118027206041422, -0.012651689201081407, -0.008226432741627463, -0.008037696672790737, 0.0002660061942126581, -0.0063799738296867374, 0.003192174686667835, -0.005578567767569986, 0.023710568737825323, -0.006905584420011757, -0.003346410712349327, 0.014993807141715068, 0.03863551692859493, 0.020086296589259693, -0.001552308748047425, -0.0027382216185469835, -0.002221913546984038, 0.010931537295790232, -0.0008844381379358097, 0.0032057786531690135, 0.0016669757371005156, -0.0013430102260321576, -0.015371679857918373, 0.005994047990707332, 0.0038687258692106973, 0.04157160179326606, -0.0016180776198106259, 0.023670143989493783, 0.001712097214176213, 0.014313772523549614, -0.008349027833675221, -0.006835494669463022, 0.0015167819703152017, 0.003439623147406401, 0.011750687349474402, -0.01187770687173794, -0.01011338360709327, -0.008772120449232201, 0.02707610141508175, 0.02828122450437923, -0.0035086293789475345, 0.01514936434877549, -0.0032404477236915065, 0.006508810569386592, -0.004820252018827583, -0.001740255569765571, 0.007200300879965826, 0.007874290462957895, 0.008337931239523113, 0.00043831546409294034, 0.000809072441309831, 0.025210188154999907, 0.007940422852440735, 0.020558977433804006, 0.010212466954012895, -0.00092315931331814, 0.005012509720449527, 0.0022412149221638722, 0.01542544077803643, 0.006726615542256818, 0.022339858584297035, -0.001703931463554422, -0.0024217963805061972, 0.0046684597844773145, 0.04605660637630421, -0.0006881019106192366, -0.007176560665267817, -0.0062629863225832656, -0.0047636148409279655, 0.0009327790144958904, 0.015118462236426084, 0.003330468171040736, -0.015387032901764356, -0.0043533167954352, 0.014652439937790076, -0.011525511119146153, 0.0060552234560360685, 0.07255514836305992, 0.007215331742851706, -0.0011550609308728665, -0.014727942966249314, -0.0031868765619869925, -0.007906621169329612, -5.4231420621897795e-05, -0.004733017849404237, 0.0007922385102070523, 0.0016315488734234642, 0.019515518920551412, 0.006176699293076269, 0.014014350308775238, 0.020486389490232137, -0.0010415533989341752, 0.0011319080793994042, -0.001012992274638712, 0.0016043365140868606, -0.0036314070410852837, -0.017420352736779124, -0.00556851803308844, 0.0071248103249284146, -0.002054018899579065, -0.002173067498771741, 0.01056429603790471, 0.035682062716728705, 0.0342109274641498, -0.0020783330410464743, 0.01077626066392983, -0.007614087922381649, -0.023515817317118562, -0.0012687491978777715, -0.009275384427302859, 0.005659396871430159, 0.013721262696543383, 0.007584675526723566, -0.00542800799375674, 0.018805871636506336, -0.0035773792625455043, 0.024974663070685663, 0.004474780881129443, 0.004917802037055398, -0.0001826262794648974, 0.003960349391904899, -0.006951465868805863, -0.0026800528203376884, -0.01078717865363968, -0.0003681135677781093, -0.0004556546859636147, -0.025669975063355943, -0.008980409760187635, 0.009272192535993538, 0.03058613578605315, -0.0037024787521348686, -0.0006729813430951451, 0.01778242635180444, 0.0016628915771102375, 0.0021023571315368634, 0.018925408526626705, 0.00541486183864166, -0.004632682255595369, 0.001959720381530016, 0.009037661623385774, 0.005477234409392414, 0.006328878391263146, 0.05161001664236285, 0.012386645940950373, -0.00028858277816483873, -0.0011547210371180645, 0.009776892915519343, 0.010934021228360107, -0.004834068058974338, 0.0011321818101485937, -0.007861118547619506, 0.00858855041898579, 0.010242796332502526, -0.005218105297407978, -0.013293937081436013, 0.05380506232075316, 0.001990662304038971, -0.0006413419603483869, -0.0066531198437411255, 0.010486655050838458, -0.01119350104418656, 0.013914606403251725, 0.009744700292686918, -0.004244264911975715, -0.0036849873381104323, -0.004301700572286869, 0.0003719124838852068, 0.002822870374222429, 0.06033656949162393, 0.0043324172179600925, 0.0006731601631496553, 0.002239893165123949, 0.0010614042566782836, 0.007699006901499948, 0.010767456266285466, -0.0050565279782408, -0.009884902475153463, 0.006703708641549578, 0.001111341525276854, 0.00620539394143649, 0.020926527123791457, 0.02689327193936885, -0.0020819895609273564, 0.0002720466870396706, 0.006851043398902461, 0.01321080665390641, 0.002982591456146868, 0.004323686173289027, -0.01586645173225195, 0.0021995147634935167, -0.002951222232681689, 0.0022952225010226188, -0.014603513318402806, 0.008415952839737466, 0.035801916853837434, -0.0013523117313246566, -0.00028349999572089825, 0.0038129221785449716, 0.0030948559545768196, -0.00945772897348607, -0.006472007018006801, -0.019206833728284762, 0.020070786405313134, -0.000141335415851977, 0.005978491748164324, -0.00425241857272284, 0.0082117222470367, 0.04273722151335304, 0.007512205415581441, -0.001145098126236523, -0.01846643448680115, 0.0026029697560660337, -0.004727146811974445, -0.0070482421884410715, 0.006864668690060778, 0.008476806234256663, -0.022240054421562915, 0.023449210726426858, -0.008242303244440991, 0.007256421431586517, 0.020886779904445752, -0.012956651051227659, -0.014203222989641615, 0.0055771266616655695, 0.012140901217316154, 0.012224186950866033, 0.004410961392376394, -0.009283605960037985, 0.01067716027386461, -0.0009530939658535863, -0.0012594699172468588, -0.0013506045169202514, 0.00612096497598724, 0.04898507616546899, 0.010578273375278547, -0.007151676900129478, 0.018169778180210663, -0.009201049126743683, -0.00023508965014410667, 0.004060217433918832, 0.0051599781581352245, 0.0060631557539880115, 0.0029640142522749224, -0.006466998694338847, -0.002544187463515558, 0.011524631098788955, 0.045497589745310776, 0.021137251716794644, 0.00443485244285805, 0.004989428152116375, 0.004469029024288884, 0.008719366566275167, -0.007677694133045334, 4.48519732578485e-05, 0.004525472081695126, 0.006318965193968081, 0.008080537611291532, 0.010099778536549081, -0.005970590030425589, 0.0300671661023709, 0.013566816282122389, -0.001782694493940486, 0.004260318631827763, 0.007137601624147754, -0.0032078949473478132, 0.016648068261645384, 0.012973301004498105, -0.008668762713933265, 0.0008678675888513683, 0.014027117641696963, -0.00739102721380811, -0.002114186489559132, 0.050941470639372335, 0.015883685016175632, -0.011958498361201303, 0.004333678637893431, -0.005649198539430133, -0.0070416514369068, -0.0017487288336006167, -0.004062251512706482, -0.00657150167842836, -0.004738489546145281, -0.00907756699468777, 0.0011341005401923703, 0.0066770158943534825, 0.0475394228358838, 0.01245752451222023, -0.009768358698859527, -0.006305578150623708, -0.003333101372637379, 0.0036891683092570658, -0.009168463791974689, 0.002252450988940689, -0.0014636339288205832, -0.010939137805913842, 0.006404167582818761, -0.007923345525817381, 0.02159550290295987, 0.029136219798204886, 0.005392669761174778, 0.0017888532960880703, -0.0023599312805924174, -0.011401137576112516, 0.006136955165156117, 0.009147108766472074, 0.006214075046407695, 0.005944104138209541, -0.01618232668576239, -0.0032942621510528886, -0.008817867831234444, 0.014113536945467181, 0.04169191562251508, -0.004903025207818075, -0.005330351828722663, -0.008413816049670265, -0.0011552398914655528, 0.002884620722306772, 0.0001712577083551847, 0.0016329413270881508, 1.6104672864335698e-05, 0.009992434741101477, -0.0044827925744878845, 0.013690140600410523, 0.005158229517114048, 0.03326912301345201, 0.023433451422103006, 0.004644302136257342, 0.011223655870483481, -0.00885467392839324, 0.003076128079864617, 0.008730851492340787, -0.0008024770047592596, 0.013050499114333076, -0.0006072962936597869, 0.009348956718392597, 0.018387829358407305, 0.0034514541896207966, 0.03427502842849554, -0.000334566160125902, -0.00592513912988801, -0.001157079338107162, -0.0006771611925704483, 0.015684073834971928, 0.018317453134637618, -0.012393768323662572, 0.005957650450546125, 0.004092226790308859, 0.007089046748763631, -0.006525892088768804, -0.006461992548012281, 0.053173492175832816, 0.014170126461402794, -0.010178203735688769, 7.705486143066543e-05, 0.0002790015789127507, -0.01257857040611548, 0.022092086203751207, -0.007114272732515598, -0.012764017925232499, 0.002653705406871445, 0.0036867562114747733, 0.012813236729261745, -0.004675913127662423, 0.043446901890690004, -0.004592044027812606, -0.0015410890732281027, -0.008609987962491086, -0.018896280764555608, 0.006736449666726027, 0.011128431440216168, -0.009825820114704056, 0.015405768432076004, 0.01152320250040628, 0.0030558163200973066, 0.0120496983902255, -0.0034304933974359736, 0.05635281285831746, 0.019177246521334346, -0.002442965697070314, 0.009848692391582734, -0.016102105355312618, -0.016194606433862387, -0.006647500457856177, -0.01845549000364968, -0.012855827160456483, -0.008190735981900003, 0.008181152046003767, 0.005815757935390188, 0.018450295075878368, 0.034319670766579415, 0.01857342605977792, -0.013764995548072345, -0.008032418710032966, 0.006035102601813945, -0.0018496400961105371, 0.00211049976042711, 0.0071840545746000625, -0.003711987076115109, -0.007552901159709746, -0.008657196431488474, -0.009695495950460105, -0.00015001795791691567, 0.04190106071512133, -0.0020674107272332094, 0.018040543809126282, 0.004588491419944057, 0.0014707799974190846, -0.0010896113564257887, 0.000153809072608331, -0.005360883752657858, -0.00945126800310229, 0.0014979826981218092, -0.0007889534162367272, 0.0018933606187774967, 0.0054402055571236224, 0.03357223049800012, -0.0028667245389648295, -0.00045801954966548435, 0.01530337324721632, 0.010089081085895462, -0.0006635612228707192, -0.011901875523218154, 0.026430473421172735, -0.00838113015792309, 0.006450133957823041, 0.01410839498318879, -0.0025965374582427726, 0.0017251682674903203, 0.029559362375685294, -0.004095749682836555, 0.002142324904630129, 0.01900400546007614, -0.010260923125211983, -0.004762803892861921, -0.017706453320604276, -0.00774321489347388, -0.0187819109289874, 0.009587320831036193, -0.014819813411777856, 0.015151539548349108, 0.010027743572761233, 0.03133902812901605, 0.003974911578203345, -0.0023694801339458763, 0.026376052017230246, -0.01760484787210256, -0.0014091330904050872, -0.0037741832525012104, -0.0031782402204336762, -0.004427377120714369, -0.004564963190075991, -0.006689367066799479, 0.010223352145400351, -0.02275466774458466, 0.041756597167191184, 0.023740266855159717, -0.0013548957168958411, 0.005171021560958915, -0.017353404461368974, 0.006536120991961462, -0.0024272560409164517, 0.0025466232651876206, 0.014734479177991634, -0.003861815009229348, -0.014045158766621043, -0.01390020258341739, -0.015344538090309886, 0.04902468641478328, 0.0015592579621001676, -0.011208885598810574, 0.0099271427103616, -0.01851914950659661, 0.008238337433052079, 0.006711430163184174, -0.005878497888990006, -0.005184999799422178, -0.00904288803438541, 0.005490153879534888, -0.0066683129838244785, 0.0007182842988948816, 0.032779201224765124, 0.008913069897532051, -0.00900872586405749, 0.006459438799604508, -0.004612621385690508, -0.013953170257128843, -0.0048407929577143445, -0.00725027226867281, 0.013015082961154794, -0.0164314118207089, -0.0025223923488111658, -0.006071242827812378, 0.01802696223239979, 0.052340423011253745, 0.009693110144365085, -0.010645681701388481, -0.007127993167753642, 0.002010787352902133, 0.004431834708990087, 0.007361356948729818, 0.00453022799204313, -0.012661245008510421, 0.01508964354477263, -0.00605560621565271, -0.0009852216174900932, 0.00693332628251787, 0.05104612970866381, -0.019547681231059374, -0.018774867121101855, -0.008087659827199086, -0.0038534881852226107, -0.004570715078492334, -0.0036577718479220253, 0.007110218284337437, 0.003307133101484621, 0.0007725622315598176, -0.0032639427439738466, 0.001253745450275885, 0.010799635570687229, 0.041937124714603605, -0.003135356781677381, 0.008096465299264726, 0.0054609394413179845, -0.011684774367948915, -0.005278214409394574, -0.011712274529478891, 0.010815171537254158, -0.007664969282893346, 0.004739618262037365, 0.010945547733597258, -0.0021365294522718292, 0.0096112606341676, 0.032128976088130486, 0.0036885343448686907, 0.003819128908341725, 0.004775473568249203, -0.0014522942345623104, 0.0006890460601452125, 0.002738359344674692, -0.0025290716594426293, 0.0035196900439621436, -0.0069519865748291386, -0.016249250076454943, -0.0021156464245589276, -0.006969372046708154, 0.034536449617747, 0.00657384268413929, 0.023232086310949508, 0.007808045378692038, 0.01944559801296865, -0.0006558396419864007, 0.011109638767029783, 0.0020295135628919437, 0.005210239355380677, 0.007124932473360649, -0.011524405071602923, -0.0031876933740618333, -0.015276594659250312, 0.033866664889540564, 0.014624295892946894, 0.013567668619211194, 0.018914467591298775, -0.008180279723959074, -0.007127959735470678, 0.0009249750911389569, 0.007933465331927495, 0.00436058498261545, -0.009468068732697949, 0.003469557175619746, -0.0012295926633149057, -0.0016548578120455385, 0.04590570635758483, 0.011054164967369948, -0.00978363030824343, 0.0041732282630224105, 0.005536532418466986, -0.004165049857072673, -0.0024146404529129207, 0.0022470150558658183, -0.0016471534898879687, 0.007755598115124478, -0.0008967605014337065, 0.014196932550331819, 0.014566266040063976, 0.03587309927006231, 0.018387076185311508, -0.010074812486254633, 0.012314881257520515, -0.007202486861975095, 0.002883089752623017, 0.006528062825934744, 0.005707930729095453, 0.00868680805801975, 0.0006951506825862097, -0.009928262492906624, -0.013087890727277054, 0.011843305142319112, 0.05139697849774904, 0.01683666920085063, -0.020130155331856886, -0.011151295029238825, -0.013587805372503817, 0.009012967349491228, 0.0019929697210397993, 0.007204237132019277, 0.0017197047681654692, 0.01666816316425465, 0.0027590577951927537, -0.002329828133391456, 0.021429204587948458, 0.04822798082851567, -0.005164225829878732, -0.006175994854682487, -0.0031661588072007764, 0.0018713417870231815, -0.0027875159915202283, 0.012543085113412712, -0.007338510118141161, 0.00791091817382009, -0.012435675862443592, -0.010461260897832725, -0.003529975888724426, 0.00820681097639101, 0.03620179238086022, 0.003942369506226618, 0.004261809964123782, -0.0012070813336295411, 0.013211698128385272, 0.009802435084616196, 0.01668279863802213, -0.002224987062287966, -0.006424738275111399, 0.016239978435537705, 0.01005594209865726, 0.015067256595246017, -0.005482772722004172, 0.041815532576736335, 0.0008893208111217583, 0.008246483335680828, -0.009366038822585897, -0.0029933365948248943, -0.014698741769899288, -0.008426667036815995, 0.009410512275809283, 0.019509324223654704, -0.00021598690823482813, 0.00397740436225549, 0.002827666131018668, -0.007290500249892448, 0.01594528395829988, 0.0030285320457471235, 0.002113965940186853, 0.006401197316622489, 0.034077952735189175, -0.017140209377132277, -0.006244093350476964, -0.005722782056046238, -0.0009814406299383264, -0.005652524897592824, 0.008526954797496015, -0.002656009800000691, 0.010007423433584363, 0.04412682338499451, 0.0026221783727254015, 0.003277310372783617, -0.002987107098744428, -0.0013822152445335768, 0.0023532307988713454, 0.00670275891351472, -0.007865404471192976, -0.007307023599366088, -0.0013529995585835372, -0.004175082227207316, -0.007051839148164548, 0.020637085071235666, 0.03443990413879037, -0.007812337102617041, 0.02161150084754367, -0.005042848439801343, 0.023444447629908646, -0.009652673693009968, 0.003665369443639312, -0.0018753364521905394, -0.0014429138351597143, -0.002858051143115572, 0.0017127117626541718, 0.0035715875335254102, -0.011056174225113636, 0.02585670179787255, -0.0019420602754008723, -0.008737043158946944, 0.0016380701266297624, -0.00023010426268342334, 0.0034911623169886115, -0.0026268535265048347, 0.002429109750631751, 0.006491224673302424, -0.013176244759672199, -0.0032608925660367986, 0.0025310247625870835, -0.00799166523936054, 0.04888183459178256, -0.00020997172028843758, 0.00438951320895189, 0.007822619542863632, 0.013411804979615572, 0.015321917800785734, 0.002395330131971765, -0.004978638014993992, 0.0037867478481947996, 0.012880650938992953, 0.018616126979683734, -0.009493433344452695, 0.018125980272088064, 0.03218750680179064, 0.006757003015785098, -0.004691510165665607, 0.010418590393085283, 0.0072030064578490925, 0.012226131604915707, 0.011919868946598721, 0.01802176812122977, 0.011933775278541548, 0.023673475161743503, 0.0052646173969116685, -0.010702799044182172, 0.000939512735713941, 0.025757023768437623, -0.013564083238217658, -0.01580740158689325, -0.0020025004695982847, 0.01766684191661456, -0.003202078908143508, -0.008786689496675782, 0.002741381452041015, -0.006055833397299798, 0.015122185401607521, -0.0019220401351650186, 0.004412769097471738, 0.0032509064140687142, 0.020090649885318803, -0.011172312857916308, 0.015222057600289931, 0.012901714055112628, -0.0020039588404678396, -0.001625207967116258, -0.004041374259032137, 0.05465255156869765, -0.008619361531222709, 0.012959341232453908, 0.023524307648324708, 0.011004818967958732, 0.00826720524632878, -0.0020830225590773486], [0.005006297081753536, 0.008553800143088514, -0.012683044076282849, -0.007121079452941302, 0.010895281720145849, 0.008441299879399605, -0.015529079185818254, 0.0026771597904729104, 0.00012399767288947397, 0.0008390566081757966, -0.028834906283647425, 0.018179985188851513, 0.00505502690974217, 0.010942336323489845, 0.005764542650625934, -0.015668417239732915, -0.0026314040767473137, -0.01137389506586166, -0.015048117640050018, -0.018153164261372978, -0.018988380061070828, -0.004315200704726974, 0.007123645819339849, -0.0008343704823837973, -0.012816132050329032, -0.01454140538834325, 0.010924269648254431, 0.003342716474297546, -0.0004566346366086792, -0.004405950266248938, -0.007898961611127995, -0.004012474446682312, -0.04434747671317865, -0.022208860846911982, 0.002061650117592693, 0.0029736889009199267, 0.0047586997149167715, 0.012747311714171006, 0.01561112182245855, 0.01765837558402099, 0.007268854841192919, 0.008613073421786311, -0.0011509175533406975, -0.007136627757809829, -0.018833619049787396, -0.02734851476766439, -0.02656550964430398, -0.006700903924266826, -0.0078529816120008, 0.001862379009014814, -0.024221654787354323, -0.008307098948267255, 0.0184497993998877, 0.0037986642574691087, -0.012375976126345648, 0.007689545925938472, 0.005519969774908626, -0.013357037388483812, -0.048664943385909654, -0.0033611891590677417, 0.004844095434701646, -0.009997019975611166, -0.0026103949868622757, -0.0032468612203361853, -0.002454774807959927, -0.002879496463466336, 0.003121549427701565, -0.008347693395462066, 0.002313202803391329, -0.00354335487527309, -0.018087972227628903, -0.03195963674705337, 0.007556955049766956, -0.0027158354574887775, 0.003949723095240706, -0.011134358920278305, -0.0006157922001906544, -1.3320271058673899e-05, 0.01403812496017865, 0.0027537879782595274, 0.008505274481271002, 0.005593232865182434, 0.010594917991612924, -0.019813926880051135, -0.030775429645824658, -0.011850511305789362, -0.009401508236828905, 0.004690212095552317, -0.013543278391089958, -0.0028387780878242797, -0.007654685090731281, 0.012428399396731795, -0.0026988022003371663, -0.010507507057089402, 0.02281072783714542, 0.0019629944043854904, -0.0057779096885629275, -0.02395780593177476, -0.00391985073466068, -0.005484289719344616, -0.001856819298169133, 0.0029274586620749847, -0.002223368736290176, 0.0007313325944251493, -0.00486069114169399, -0.015258905797603634, -0.012460625257876508, 0.0023080880817672226, -0.00623628006012584, -0.0032862829186434904, -0.0467610641952125, -0.007560980322132375, -0.0032850645699109586, 0.002958683506096963, -0.006444684258900852, 0.0032625504310848357, -0.014272060175508671, 0.014301599080276155, 0.01596677943580615, 0.002071373800715949, -0.011143368142928456, 0.0012166833258017982, -0.005004844573292089, -0.02977883312922321, -0.039401857037645496, -0.005656664405386568, -0.02086181873032326, -0.010712368531298073, 0.007715730961118654, -0.0004618989411875579, 0.006074779449694255, -0.009496777115652435, 0.009283857058090315, -0.001643925480602362, -0.010538763031015346, 0.01097284260048229, -0.039750510979817834, -0.009747037097751455, 0.006350808847229724, 0.008540750261411427, 0.006524244409220285, -0.005066887059949072, -0.01500175333501867, -0.0054159978069064285, -0.01483110331046589, -0.005409281762295207, 0.0027429462004183594, 0.008294708520284506, -0.013064005969485868, -0.04745747219932324, 0.0014436889769396102, -0.007726231998525854, 0.008143090946163471, -0.013767213541752641, -0.008379346374839766, 0.0064262933630526015, 0.0002495886485220813, 0.00385711394038799, -0.003268903407468961, -0.0006222164074056469, -0.008898905482467164, 0.009347589650961809, -0.05251042485346691, -0.007750748455138056, -0.004407730145580411, -0.012234858140525749, -0.008432869002334364, -0.0012845405000663436, -0.010252746684301614, -0.011103240794085891, -0.005587626899135, 0.0026819888971908704, -0.004372160926733141, 0.008087916920377554, -0.0015571190505373484, -0.046986340366066526, 0.0035387271770307063, -0.0012549440040409967, -0.008181368906194737, -0.010182815908240904, 0.00416555773486719, 0.0014405189216975618, 0.014616682076614245, -0.0009214047510861102, -0.007438417150750322, -0.0041583146148418335, -0.008494876248159951, -0.02667219343826892, -0.02056550427544661, -0.0015347505569743383, 0.005704906485924345, 0.0004576909364345458, 0.004546634723444108, 0.019436352187990655, -0.004530577432119768, 0.0244970956045665, -2.2978292755596756e-06, 0.0015372749784033914, 0.0028043085422331244, -0.00807431904372221, -0.00128770003786737, -0.03484108662512068, 0.0026001544935009137, 0.008863074065111056, -0.01328302707592175, 0.011837857730306494, -0.003344037007717065, 0.01393555353468168, 0.01628343914420104, -0.013529757823054319, 0.002446263708104946, 0.01005459567963839, 0.004726948795195284, 0.01102672923669039, -0.011699238740057029, 0.012180737366794798, 0.0013885013481113367, -0.0254718061986882, -0.0016213892667141503, -0.003291474789621546, 0.006654139277138565, -0.008408079905427296, -0.007004718244340865, 0.01748893820883862, -0.00603865223439114, -0.008276122020218121, 0.007517219912875706, -0.042949142089914065, -0.01312966520892472, -0.01630678776595465, -3.4106235706538545e-05, -0.00011105554753882186, -0.0033350098839764995, 0.003738294866496714, -0.00903399980002873, -0.0017536512704500818, 0.0044819383038523855, 0.0009455236544910571, 0.0012694614340991305, -0.015796732682123768, -0.04337085510739519, -0.002247571259399431, -0.008889146929715187, 0.015399041623892941, 0.006263018760734362, -0.014149137805888022, -0.00863739874126736, 0.005050378493421619, -0.010753948826956234, 0.0030786410548916112, 0.005661349275724177, -0.005885024920925722, -0.00042743613072578844, -0.018208823266865844, -0.007398254873891576, -0.00959857823992801, 0.009433185136198568, -0.005842940066999273, 0.007676996793088682, -0.004109027050711524, 0.01850009640080068, -0.0008347324298209008, -0.007777177979387619, 0.006458398951305371, 0.011792631894110369, -0.014753027948160226, -0.023034680030759504, -0.0073042620087008505, -0.0010262413305486926, -0.007127238607902972, 0.004304943286613748, 0.006465297112738618, 0.012847468509288628, 0.010775180005605832, -0.010294971005262044, -0.0014178786736099814, -0.009259228953765426, -0.0008652190964907034, -0.01310745902671618, -0.043931202359246496, 0.00969840669519069, 0.006200905256562217, 0.007572972074151456, 0.007826844254536886, 0.00750422284661644, 0.0061420401384791115, 0.003318792652784383, -0.005076797018533529, 0.003537785091399129, 0.002516826873503645, -0.0044238685684216935, -0.008251228062347588, -0.03730706189190902, -0.00882156254244708, 0.010403439506623327, 0.0041665671005842, 0.002024637766280268, -0.0016027855273193779, 0.0143491384311163, 0.01747173280036493, 0.002928584097135, 0.0025421128595783005, -0.033228263718031, 0.0010960133001506052, 0.01188012788490829, -0.028459918700036446, 0.011494955388062307, 0.0023496608420198913, 0.0015183158084741096, -0.008643990386447567, -0.013949739105965262, -0.01157004195496667, 0.004745616117499093, -0.0035346681198300876, -0.018628529460584096, 0.01117384061495196, -0.012543340680911313, -0.0024272587694656213, -0.023236119469097767, 0.00747974074026658, -0.002403352331271419, -0.00921463589955293, 0.00817996899633326, -0.011466929847501873, -0.0054095723065278375, 0.0134951416437583, -0.000782650503099263, 0.006339253604400762, 0.00020178708092142986, 0.002568994820870845, -0.005895510032535039, -0.04571808025236311, -0.0009904954385145913, 0.01630734729437314, -0.0006210117097462766, 0.007196478930665604, 0.0017614248524933519, -0.0022438632620416675, 0.0070127024656425245, -0.009162746356793322, 0.004795550821672232, 0.0007872317564884099, 0.004556339679893466, 0.006339173167628155, -0.03002064542548579, -0.0007479488907423882, -0.009219538806423231, -0.018870987652895663, -0.020929495389629706, 0.0019730730265925343, 0.00827350924202714, 0.0037005192276427725, -0.006511080137370422, -0.0020635155310377495, -0.0002352575647660921, -0.004953942393302234, -0.003378141495167742, -0.04447755732144727, 0.008883613707865546, 0.003818907732206378, 0.0051934622152098224, -0.014739152377028015, 0.0017347069126916032, -0.0009769406951696707, 0.0005655903894596632, -0.009491707313013504, 0.00960464719211823, 0.007326594765676963, 0.0008524347871407976, -0.014019931092195476, -0.047478364800336924, 0.009373804745218447, -0.007454309569012935, -0.0029783299835838737, -0.010131470887145125, 0.008134932742218538, 0.007488265406967184, 0.010019120283120476, -0.0006267235412407184, 0.0021621325301489766, -0.00012121709167818286, 0.0037463709179840383, -0.0020478666139223146, -0.032335209678815056, -0.0015744795115433161, 0.005253570276334356, -0.005105225846951159, 0.0010877440255607697, -0.010097524719550112, -0.006620637703450278, 0.004680701417979227, 0.014257025007341925, 0.007231921086764892, 0.0014841858006561777, -0.010227633631788417, -0.018219155379641593, -0.03728034163094641, 0.009701445214532315, 0.004640339559607689, -0.011964783971683978, -0.0018768206910358808, -0.004517746751611788, -0.0003085141474894936, -0.00396311166059864, -0.013885554906532278, 0.0036083492420775545, 0.009279225007582544, -0.0008308693116718267, -0.010409315107341943, -0.04068813955906052, -0.003784202399450199, 0.00365974784624744, -0.00866712189144348, -0.0018942493548586507, 0.012057335172411494, 0.010384256037403337, 0.013331790599311362, -0.0038341227472033, 0.007809034719753736, -0.0030250047645648233, -0.020845158284086753, 0.00933434030127668, -0.022172432847792925, -0.009430218812768735, 0.010898009467619605, 0.004718402409831544, -0.012913667774186968, 0.007400585773216181, -0.017419487083520962, 0.013967614520176013, 0.01132579035984403, 0.006046793658895732, 0.008420477745392821, -0.002472648819586324, 0.00540498481161048, -0.037351230119364406, -0.028900389184458145, 0.005328946579518628, 0.005726081653679111, -0.014557454778553133, -0.0056142446961530874, -0.008086922557081672, 0.0026702459454777663, -0.0016753926818185768, 0.0063778853536575406, -0.0235017006545302, 0.005426544583752501, -0.0018347964211186385, -0.03516995478678802, -0.008891244573436602, 0.005087793070727563, -0.0011272088219344072, 0.00707741866146432, 0.0071945474858508985, 0.010270763578369493, 0.021023064223166733, -0.004512236626688279, -0.00012720363158665385, -0.012433394144789563, 0.0063453058762247645, -0.012319265759376679, -0.03488480738557566, -0.0050442958304897255, 0.0048674251536292385, 0.004441085192598193, -0.00312731966752073, -0.003992008139515868, 0.002254772669416747, 0.00350240197141024, -0.00862543367763436, 0.0019004495124644533, -0.0037558380311529067, 0.001965927152597111, -0.010074745992059037, -0.03159666240962171, -0.022459363173514376, -0.012340905262926648, 0.0009953317482563507, -0.0035003937698055944, 0.006863736271869543, 0.01235434920019329, -0.0022356616165688384, -0.0022595590439939968, 0.0031549530708849228, -0.002130469088546948, -0.0021687163792025827, -0.017994355680919456, -0.02879878875327012, -0.002347677393456225, -0.0018652275897851065, 0.010816269969681441, -0.003803569221213529, -0.00463852540549023, 0.006028071283633313, 0.001570455787849588, 0.004476635024701711, 0.003755504915844539, 0.009541578466613748, -0.005648740358538098, -0.01294862709447873, -0.0474129380522588, 0.004608470639837268, 0.009118753866752052, 0.011161176009361964, 0.0051149068325485264, 0.007633311550870425, -0.01980987442999313, -0.018781283176875753, 0.0013633319806382494, 0.015520390528605077, 0.016835816917330708, -0.009672102643079045, -4.6793758750565555e-05, -0.01403815393693488, -0.012758036417140928, -0.005244634601215281, 0.0020995182244158872, -0.006924112967961011, 0.00426749043750896, 0.005359458400541263, 0.0004464210208784949, -0.0015715931699340616, 0.00887916798451245, 0.010679880317282156, 0.013681692531529092, 0.004642597257324696, -0.020883057156759265, 0.0063701761407751935, -0.0020241146132202064, -0.02185186873249783, 0.004364201335761292, -0.0024452532622462153, -0.015864947293679276, -0.002525542260647715, 0.028824755426238708, 0.0007585642902848776, -0.009813534844290647, 0.005690393374712216, -0.012633209453978524, -0.03301576275972548, -0.011554819421256335, -0.0009310456067458101, 0.00816699791915363, 0.0025440062830040487, 0.002857551622176794, 0.007476131577581782, -0.000903891328767188, 0.011772636345844927, 0.00016706733754866032, -0.00464264842115063, 0.018681422765959885, -0.003797787373280375, -0.036151655252327025, 0.0026418567585722087, 0.0004932463682109866, -0.007006188089172205, 0.010699141501399384, 0.01289292243670722, -0.006445307606815262, 0.001168569847731416, -0.010421752166926162, 0.005954270356548138, 0.01534781998668522, 0.015369810223611289, -0.0032777029969670683, -0.027820943082337717, -0.017692178581513, 0.014169703624325786, -0.0025141476510441895, -0.002970179989371054, 0.0021835778062390338, -0.008193480679347194, 0.026424362853068633, -0.013157781574107668, 0.003428729345224632, 0.012197034944926256, -0.015764875875289075, -0.0026176425486500424, -0.03347557503891104, 0.005410182564823823, 0.0007592325635849908, 0.007055454985819435, -0.014656080863780329, -0.0020592118365458456, -0.005960967157294395, 0.01918752810273032, 0.0012499450789433273, -0.008871399418417743, 0.005989881764925692, 0.010468355364525105, 0.0023527097830625824, -0.041074415047511185, -0.005783781571958526, -0.003907342943670453, -0.007785446625488725, -0.005039880436295288, -0.0057570968541363725, 0.005265068861163193, 0.004832078816138125, -0.012679614306511657, 0.0036486145476363305, -0.0028913624942169384, -0.0008927847242910393, -0.00792251249176176, -0.032015537043622526, 0.0010722431160699113, -0.00293490360749197, -0.005795901986982352, 0.0057147968110005, -0.0012735642227226836, -0.007567888740305651, 0.0028450898836158865, -0.00028594326261504455, -0.016556463908760997, -0.008669125833073664, -0.0026084515357607686, -0.0008091255946562081, -0.040412813477328245, -0.01036747160986448, 0.012550077414644492, 0.0013548817946380822, -0.00026147319636453663, 0.011927133549266807, 0.018935672623684424, -0.002438031662089702, 0.0055899552907438775, 0.004841123028944439, -0.007457503110838737, -0.0029069882144439753, -0.009830655014798375, -0.02477618937556966, 0.004101508822855742, -0.033842240828724154, -0.004140807773347001, -0.014948782856298243, -0.006602452954276672, 0.006117353719733557, 0.014681435720867036, 0.003959868098438653, -0.021944928257124435, -0.0002492565442030053, -0.005337977865784764, -0.022216749868761387, -0.042043595303365704, -0.009262262681521739, 0.0003450493810798426, -0.0058249866837966745, 0.005222812228350705, 0.015034821011081249, 0.00024721410399234956, -0.014045316249798625, 0.005343621894307493, -0.0021422295095994744, -0.006252561667706395, 0.00015723597558345935, 0.01203564711559952, -0.024279434307575988, -0.01777060525864016, -0.004490508771534749, -0.000870821638000998, -0.00801384823210783, 0.008683582885919664, -0.007640324361098735, -0.001494859720602939, -0.009777799295448666, 0.0008554991552519879, -0.00024516925684015266, 0.01563486025904567, 0.0034905338972401083, -0.03491370053303795, -0.007312371161512317, -0.013255108501007732, 0.012665918400110459, -0.002201682579543672, -0.00914562285032053, -0.004534211319272917, 0.003753585990431327, -0.0012723115039705022, 0.0055477325428786115, 0.009637585745927955, -0.0063145683809622795, 1.7769728859330365e-05, -0.03155733928477362, -0.006050687007195086, -0.010674171354687075, -0.005991362422871952, 0.005967182516616608, 0.00384584341763415, -0.0010596198978285898, -0.014461354767175002, -0.0077652608426593975, -0.006013350753396125, -0.010202323277101875, 0.007673178848280595, -0.023808144401737164, -0.03634277484813846, 0.0033502174052293856, 0.004953394690749159, -0.02201877359968066, 0.00184478967270493, -0.005038784006226445, -0.01579566707630976, 0.0007753231240977801, -0.006189065996408653, -0.008389604981462295, 0.006087591609988312, -0.0011756983356894857, -0.023722732490983528, -0.0543342422009047, -0.01372386560735684, -0.017847770834008046, -0.0076839804231576755, -0.0037752379029649006, 0.009396132721717307, -0.014038756383794192, -0.0025189406379906485, -0.0034949527341593665, -0.009301236341282387, 0.010449669685304148, -0.030289735669616166, -0.012445814238631336, -0.028915664985051867, -0.007706999209776474, 0.00842541393562948, 0.0042273526548614665, 0.015053656705740529, 0.006311946647626554, 0.00995566428879996, 0.005750250987495228, 0.0015358000233139481, -0.006042992753874771, -0.0029086838858905597, -0.01457065358215988, -0.0019279062590415216, -0.01568994592665077, 0.005007270004056172, 0.007725190067233488, 0.003670007580591219, -0.028829666681116736, -0.0006701658689940153, -0.009079051219456387, 0.021904936984176546, -0.01121489459558662, 0.0007398774113142261, 0.0004315011135692372, -0.006331954353217761, -0.001111388938176934, -0.05076036438137461, 0.0033781913539897685, -0.008207066316710171, 0.00788138004319822, -0.002124628100381806, 0.0007171073084774734, 0.006866304383546558, -0.011037661878826644, 0.009902474851681026, 0.005382839828963793, 0.003609922398613994, -0.012143377164677454, -0.0016287536930917393, -0.04306489447292203, -0.00516766333178356, -0.00747560934290241, -0.01000826177251109, 0.0012300960028368245, -0.007446965056323418, -0.005478850087836031, 0.021445950820461804, 0.004784470290836469, 0.0027476892786371765, -0.0011535028405471415, 0.0029851264110038593, -0.009492547918565079, -0.022443312581785096, -0.007144469997588883, -0.002575318799669236, -0.004266241814390561, -0.009084961307784389, 0.006746563991954846, 0.010553367379499176, 0.0023144728387968286, 0.009361865136655316, 0.004379849539431648, 0.016538068094973622, 0.004087396657219879, -0.017525531982758424, -0.0418663503837783, -0.005240973781677143, -0.0012749691731800503, -0.0016359383453548578, -0.007574206641450767, -0.010665354862285618, -0.002372715624768067, 0.003839300695075803, 0.003251933146668306, -0.012743341752145323, 0.006940811591264044, -0.003139744415218997, -0.023222933692488214, -0.0428764060142764, -0.0015243597868055832, 0.0006658444853533211, 0.0009375319680365276, 0.0025376925632349307, -0.011856019081739316, -0.00657617277664641, -0.002600166263685629, -0.00583825847374298, -0.004203018819922014, -0.010973390951280481, 0.0004755503739823086, -0.018162014406310486, -0.056368041049598396, -0.0026627573583242713, 0.012862701114670848, 0.010172708099802228, 0.008125880558018125, 0.0172622466714984, 0.001731289504787702, 0.0014526641604885656, 0.00035938246235584615, -0.015468971727687658, -0.005147281627241097, 0.002959561789290645, 0.0024587667744158746, -0.023031171769770847, 0.0011255203927520677, 0.015954680066811566, 0.007656692280976511, -0.004630250963554697, -0.008283484379994844, -0.0028685370349523552, -0.10202587041041489, -0.0012671128702710997, -0.02121985048724257, -0.015479716262430068, -0.021563948918351773, -0.017954022762438657, 0.007389201901634271], [-0.001328976174420503, 0.003535513655054557, 0.012409148487905508, -0.006704658690778324, 0.0038273538703252497, 0.01750828610510876, 0.0029133317807014548, 0.005810993195147219, 0.008398639252333135, 0.00904573737658863, 0.003789310760874266, 0.02675376973329925, 0.0022166459695822293, 0.012259365943506921, -0.018428904946032314, 0.008068635792821263, 0.014493771585766863, -0.001221275930357623, 0.0071628947338724935, -0.0021167748940955694, 0.029045298612852828, 0.0013807677938428994, 0.00506111678884964, 0.013945411030666297, 0.001039113810165324, -0.008188995525377541, 0.015989590271372128, 0.015719575541353142, -0.008839529752410213, 0.0043554284075520994, 0.005239933254388306, 0.0006543995921812999, 0.018149707922869417, 0.008570436260885292, 0.02405885810101506, 0.0032101907181383764, 0.005535651556763192, -0.005046340130766322, 0.017030088691179283, -0.009507277070616252, -0.005841969236751332, 0.010597419688840001, 0.00219577619900111, -0.002251894514657863, -0.006609820402680965, 0.022204140147747728, 0.012192290531933875, 0.0011130643432816665, 0.02980905382669591, -0.000730989629463634, 0.003208812735835024, -0.013750062782576162, 0.006288507632016957, 0.004630684774356121, 0.004541019873351194, 0.011910818588383314, -0.0010658973174291955, 0.0016980752738380513, 0.02352108006651397, 0.003104876902931263, 0.005838871050989446, -0.0021174539442815974, 0.015857904556070807, -0.002873601475569678, 0.0011312632530688638, 0.007237506196301192, -0.008601501951298097, 0.004738703329964734, -0.0015838520480188733, -0.004332426586880458, 0.01043854515540083, 0.009033995512135276, -0.00030527840421501603, 0.011514103073521896, -0.0058948220458043005, 0.01864631657910022, -0.010043913650793606, -0.006938661415369257, -0.01211862497462737, 0.005048264746877573, 0.0018672972090492943, -0.01757622024278216, 0.004716728159840022, 0.014147413314750446, 0.008667316249058362, -0.006991198513069589, -0.004424068570105266, 0.008889055755742413, 0.0021635609276846623, 0.0037507118008834658, 0.0001589608985746382, -0.0027894244902790678, -0.006721672728427791, 0.024445493797990405, 0.006614236209758243, 0.008557962981114005, 0.01374134682072325, -0.0011332807510763276, -0.009625511903725736, -0.002756180311971508, 0.009872886342688184, 0.005286800901776504, -0.005511449209994149, -0.0038465935489641057, 0.005878699652190196, -0.0017655304178555997, -0.008959577069458402, 0.003665085780719328, -0.0005257219963647097, -0.003221805560322555, 0.00510579504010603, 0.0016168843397880123, 0.01738188348985214, -0.003985164095206975, 0.003612452185008201, -0.0077923837807820605, -0.009637665036498884, 0.002898663606973902, -0.0008616779738782537, 0.006435818699616605, -0.007560654025253319, 0.007347289739695473, -0.006530024571183018, 0.009661274176845678, 0.022386246110955986, 0.012886869012012669, -0.0016626503965499818, -0.005171601076604819, 0.005726133065601486, -0.00393683797631237, 0.0021592190129862275, -0.0008325197765510932, 0.00567959995842565, -0.002266085363689365, -0.006105128992965262, -0.002036288203339472, 0.012016661778482932, 0.013200338424179543, 0.01583306470198885, 0.0022528339602227265, -0.0017776400480050472, 0.012654539344892605, 0.007052574157986581, -0.003486288703093301, 0.002174512777367276, 0.0004370754498751188, -0.003844696824033626, -0.010155089269206741, -0.01238917559973181, 0.0273438592089244, 0.008020345955961853, -0.018716743694963872, 0.012132948449127412, -0.020452448679985878, -0.010258221747680239, -0.002311478597591651, -0.012086068353680398, -0.0027833390199325575, -0.011476955102075465, 0.001949424554063804, -0.002386658078727371, 0.00838045386644738, 0.025612510416262706, 0.0022308911969076547, -0.014866361104218623, -0.006647438533467451, -0.010200453151711097, 0.002766104451274301, 0.016319165698095876, -0.0013522604468406158, -0.002524001441709658, 0.008843865310764185, 0.004161774131943841, -0.0021532308806844615, 0.002532665078619953, 0.007899735814730809, 0.012711887807529233, 0.0036774558708934507, 0.007602954243897584, 0.011920660030162056, 0.011546369331182148, 0.011404448992549365, -0.0009456864935828592, 0.005612059228139703, 0.007871091167282072, 0.009036423836492773, 0.017604756303234142, 0.03629762118366099, 0.012775020994152743, -0.0022388551435593104, -0.002495250484620837, -0.007967950146486867, 0.016448955088906793, -0.0034728771081938845, 0.0014587073076522449, -0.006862476613354478, -0.004307742222737443, -0.0035189715927196026, 0.011588686120040635, 0.0017325559343647082, -0.0054122664076720105, 0.013431224791262268, -0.009288841522688497, 0.011723674771507786, 0.0011110353303290038, -8.019365495531482e-05, -0.013364585672985678, -0.02070991249547282, -0.0031735542924093384, -0.0050702464338254144, 0.02152372662224279, 0.0018112973768768385, 0.009640708100061254, -0.009734847900376698, -0.0135323618485492, 0.014415849299300685, -0.008132521497385858, 0.017546949128761768, -0.006678428176506709, 0.01303858721608505, 0.008783572726377338, -0.0023383400245731325, -0.002883967319075023, 0.00012207526112245726, -0.0012521533875077344, -0.010195024582520574, -0.015076078557765611, 0.03070836038727599, 0.014144710895929918, 0.010371058892940002, -0.0033236336670874377, 0.0059882492604360045, -0.006848125082023772, -0.004009953146936462, -0.0034681168571472267, 0.0014277762352349229, -0.007650555809770209, -0.0017460190640480383, -0.0007059216198335326, 0.011884999383317288, 0.00391677367626637, 0.0228151756556272, -0.004510773437809562, -0.0014256874032445067, -0.0009466446230605647, -0.007887979048622663, -0.017953664544623823, -0.00013694630913893766, -0.0031352466371923795, -0.009294519924984878, -0.0026715722895319567, 0.006948537472105259, 0.0028561456578179694, 0.029594478647177173, 0.00014936618907349255, -0.01320657127153645, -0.000424074216051108, 0.009904508486188469, -0.00621298934028457, 0.002616627984936635, -0.013192806462960456, 0.016169518330399178, 0.0019165723435515007, 0.00023245967612114325, 0.0020000543150954543, -0.0015391617007062914, 0.021563562224331385, 0.004208100089900533, 0.0009400369349923529, 0.01657712194076132, 0.002348887008979235, -0.0075546174921766645, -7.636988451893275e-05, 0.003974053901074333, -0.009170224024645134, -0.007045911125868697, 0.01626594219096333, 0.0062755359106832324, 0.040493762011129336, 0.008763474415610378, -0.0007754787288350163, -0.014765808339670958, 0.003376790944064169, -0.0009586046469069781, 0.013159772890318248, -0.014501663423365943, -0.009657497841797157, -0.005775387443200924, 0.019781056176152678, -0.018535833624016285, -0.0011804945983055423, 0.008923908649644109, 0.026529198441887437, 0.0006981158669895817, 0.016068439305692836, -0.011637797666016447, -0.015567986554247789, 0.008361616545511166, 0.006426577857658409, 0.0011775783089517553, 0.01368975869492849, -0.01248913265122434, 0.017180183539901757, -0.0089429236090923, 0.0065275979742474175, 0.004254576737903382, 0.012434574377409446, 0.004709150752090961, 0.005511873749809976, 0.004145927241793858, -0.0005521888613067396, 0.013573900074064282, -0.010445977161581837, -0.00010374801119262938, 0.0031502629394254116, 0.003903903091845011, 0.007192989414994647, -0.000626157160515301, 0.02106836130386995, 0.005138448949428488, -0.011778633552565716, -0.013216997358702421, 0.006779014106156567, 0.02437932615712421, -0.0016932723462611378, -0.01405284067551225, -0.005001554788950963, -0.012893994229500305, -0.012698305655940084, 0.0066484734068360364, 0.0024088740989152693, 0.012830621964174022, 0.0034455908897581982, 0.007296202924696444, -0.003924848848275081, 0.006994081111040582, 0.0022286927915445244, 0.0026147722469635495, -5.049458522817569e-05, 0.004611980752277712, -0.0012870869818796154, -0.007653995588964806, -0.0017794583469343047, -0.01043077964361114, 0.008628028294320663, 0.004062200619066197, -0.004111004918830964, 0.011317768626469642, -0.011584843404813352, 0.008687459324814267, 0.021924925996696702, -0.004598043753595947, -0.009663863012791927, 0.0044433488863876505, 0.003284632583366137, 0.005881045458753648, 0.008650816456592098, 0.008858054946787665, 0.00034793831184007655, 0.0034685264159812317, 0.003451331132763916, -0.004141677984744595, -6.101064678981101e-05, 0.004768087012007383, -0.006701044494563304, -0.011418886262367893, 0.008139784008069485, 0.011250255650831613, 0.0056216695822675, 0.006922189861161034, 0.015339310314161792, 0.011523461924439312, -0.0017209635907426725, -0.0063659897610064894, -0.014521159927899948, 0.007241857335972301, -0.0057443905002639035, -0.006554032207609736, 0.013158073406925489, -0.012222796827322188, 0.0030694171176862102, -0.009503627787536629, -0.001134000396444664, 0.032488650595690595, -0.007061217694136381, -0.0036137718824571087, -0.00025067168104380224, -0.002832439616462787, 0.011820561148980413, -0.003085882094118913, 0.004757000041727207, 0.020153933851920155, 0.008714595911278987, 0.0008772361955264578, 0.02145645570661248, 0.0230178082736497, 0.0088265043174633, 0.0006958974674833933, 0.009496658213826649, 0.012919666879303094, 0.004015972879577212, -0.00797905790040695, 0.0039059574385268553, 0.003023334628297645, -0.0018833134312645525, 0.02331910837683967, 0.002803033793217842, 0.0025106508506707813, -0.0005160695104381581, 0.02047417515861587, 0.005564290681891383, -0.0021416263599466803, 0.005044857047219363, 0.0014381326150365939, 0.0022407700566509587, -0.006607843479035467, -0.001390152172757141, -0.011404089685717574, 0.003728174968421803, -0.013948934254511717, 0.018613146853293, 0.0016920061463272177, 0.02629623709726714, -0.002898300236425246, -0.0008134760189141425, -0.007358331369329174, -0.0015482832185742404, -0.015118146619187929, 0.002980485948288742, 0.001497206998274924, -0.012454204240421703, -0.013418717555146701, 0.009189759992097571, 0.006531384903985195, -0.003004257588914767, 0.017282110251352796, -0.0057986135699788785, 0.019394805100128497, 0.0006043522842503556, -0.008383755536196939, 0.007925638886984672, 0.007323727199133546, 0.005110298882095518, -0.011095024082312877, -0.003945884937767867, 0.0017106470595281763, -0.0051889571971233586, 0.0172857603706209, 0.01969156861672853, 0.01813384939177944, -0.0019287472489960098, 0.004995921561246767, -0.0027395443207831236, 0.01389354054796374, 6.128522565141256e-05, -0.005016086815829674, 0.0066740969283222516, 0.0008774211155020234, -0.002111693223066143, -0.0018328062900507174, -0.0017588232729448625, 0.022927238342997258, 0.0009869402086524366, 0.004236452612749782, -0.006972232102315334, -0.003933917064410464, 5.814925253736849e-05, 0.01612371327280641, 0.0021308196538794436, -0.0007676699172525923, -0.00021741459476666601, 0.00016345707339409125, 0.015039009607131526, 0.004703522486935756, 0.00873263023790625, -0.001113103783801783, -0.0025151191322886094, -0.0004690244469342012, -0.008477394529950435, -0.0003627369483536302, 0.0031787993856467875, -0.0017608034816998124, 0.015084386635297882, -0.0023368376306946376, -0.002059478473030563, -0.006919385233673005, 0.013597632429402932, 0.007154713234840699, -0.00022910542343084693, 0.008036219224710324, 0.002413647499569454, 0.009587335787313689, -0.015149666881921535, -0.0019782478331186837, 0.013532369815989723, 0.008742949304833667, -0.006203849925447938, -0.010785597739176546, 0.015844803329284767, -0.002602403884014667, 0.014702937220205253, -0.007638617872727811, 0.004209116869823043, -0.016215904961218643, -0.012033958062254543, -0.0009464391280309672, -0.007460436376523014, 0.015254157807236064, -0.0037917778994397467, 0.008348291968722296, -0.01473194066117054, -0.016213167722802874, 0.01236350158161746, -0.010330173681343416, 0.0011499914562610814, 0.0024304163217721774, 0.003221776486470058, 0.010163851243031333, -0.010218480159010683, -0.01567566044989283, 0.0016977707944633115, -0.011296645019115523, -0.010087462685682226, 0.005655541109153357, 0.0011708938491075303, 0.016269691398728126, 0.02261650225350638, 0.007761607059810664, -0.002925175593082062, -0.0064260686081283784, -0.01965223658294981, -0.0071761237602182655, 0.004483570954008452, 0.0032581980344478117, 0.005749229880521983, -0.007696791584257015, 0.011287227392580913, 0.010994556506642524, -0.008741704214459748, -0.009220436122695087, 0.0277441955668992, -0.00790238129266959, -0.012165665525795422, 0.01338524227989016, -0.0003678000009420914, -0.00026060597366241514, -0.013379868978388627, -0.002660828088763342, -0.009029315695288562, -0.0037776105891266323, -0.0076712089249716675, -0.007582784412007055, 0.022443516509610698, -0.01003923697024643, 0.0056002513382801605, 0.005445510763818329, 0.0016470482143567523, -0.0022125777353374345, 0.000512149734300399, 0.00021792972562634323, -0.010152509100634569, -0.010382708653786868, 0.010395426923712234, 0.00845719418581293, 0.0036156387406972136, 0.014780790552701031, 0.005373667688589484, 0.02173175519072921, 0.005956416594135478, 0.008199410155726438, 0.016113788066035292, 0.006270546992181184, -0.005431863668907602, 0.014400570206159745, 0.006155243905436755, 0.008726209515212508, -0.002977293870835254, 0.008811317773686746, 0.04096658292776237, -0.0068090045964351, -0.0003717545572708352, 0.008303834459215152, 0.00940694744155769, -0.014689011076410378, 0.008219472083247066, -0.011385288179067476, 0.004925940156783809, 0.0012532629277872734, 0.010541757456729481, 0.002377225632048301, -0.007072520959188218, 0.012049287400311944, 0.011911760311691576, 0.009289780687482894, -0.0013565840950980606, -0.0012559683040651172, 0.0009876332323630953, -0.011433001190105744, -0.004318050925643854, -0.0027561338454019355, 0.0018180074975967164, -0.005075299875049026, 0.0050640900328414624, 0.04634878256926661, 0.005192733835599004, 0.00661156907299674, -0.010834124935953126, -0.0030871016567986555, 0.017882966162605114, 0.0021943839691162333, 0.0012576277390357747, 0.014144869843709041, -0.0008219909436820389, 0.004514568222780175, 0.00168931335224572, 0.006334668621027322, 0.0008955354850372887, 0.02754545160517064, 0.001883118790927785, 0.00536617791999011, 0.004055170527743529, -0.005906084814863061, 0.0032875111038015562, 0.007444948170362977, -0.005019461511778155, -0.00650958184242214, -0.004283174900681712, 0.003592489633093747, 0.005886763242869877, 0.012335644139623788, 0.002288135002193989, 0.012318536671905519, 0.017163781323493853, 0.012249959221879238, 0.0011623697914795554, 0.0024423128089597454, 0.01037503710298488, -0.0015708181672873613, -0.0008822626374149273, -0.009070547354393428, 0.004262813456968273, -0.0007587048699720404, 0.0027006959808451966, 0.010083569586176047, 0.005219590101893836, 0.00679033955419544, -0.002350509719838445, -0.022789942152018038, -0.00494107273669735, -0.013416496048811623, -0.003531336444868201, -0.012645886396850527, 0.002501885006780474, -0.006528865313266499, 0.004020121088246984, -0.007024283217494604, 0.008495993103813035, 0.035508741830356474, 0.016745298347327943, -0.0045381153399809806, 0.013941124272644745, -0.016539391663941153, -0.009804922817351546, -0.010996076188064051, -0.00928510986264849, -0.009647644132060457, -0.004327328525247516, 0.00978948577395062, 0.016605267943139098, 0.02110307777592747, 0.0023971373214915865, 0.0013116476639688027, 0.01257288029878886, -0.0061008483452075525, 0.00905932465428274, -0.002642698925468122, -0.012567228113669443, 0.009096714090840815, -0.004488970593802162, 0.002945382044654919, 0.0012337879564170756, -0.006695430703624023, 0.018816410349860698, 0.0035949904680055785, 0.005550406941040912, -0.007592892146622534, 0.008389624513295998, 0.017716492005827627, -0.0016841728619679257, -0.0042301681508024064, 0.0032068842159673127, -0.012306797429657266, -0.006071952816692496, -0.015906207253608008, 0.017884701162208028, 0.010237433573775412, -0.006847741993470932, 0.00826032635854892, -0.00785168295405587, -0.006614237493434784, -0.001577097752637254, -0.0015319379026296589, -0.018959163066104467, -0.007551755836375073, 0.0037952689871591956, 0.009697695158362177, 0.014808739977454164, 0.006499389469169068, 0.024230042479026135, -0.007943643094566709, -0.005781316052352362, -0.004915954006131747, -0.0034595660074761654, 0.0012195093889860091, -0.00820447258429804, -0.012509266267460227, -0.01418387840401657, 0.007793082865759067, -0.002576375468110176, -0.006040120896792404, 0.004619928369004554, 0.018219783306459784, -0.013955288776538, -0.00863467548437084, 0.005875140469409939, -0.008625421681774695, -0.015374547204340729, -0.00918857964982614, -0.004846443933438167, -0.0024198873713634056, 0.0010776653677063996, -0.005120603980624735, 0.0022418803723651174, -0.0026949866213248253, -0.0013012574095140983, 0.005316482411862477, -0.01076073583322, -0.003906114056809995, 0.03670057066484778, -0.006857101157087671, 0.006920942905859441, -0.004194609685763492, 0.0031792143792902495, 0.0011388797301968387, -0.003935172526524256, 0.00719413158448835, -0.011435006738232193, 0.006100762301716577, 0.008265035728659201, 0.0128318622921467, -0.006130863836820875, -0.011184563507173045, 0.003814160781384176, -0.012103260059658089, 0.0014597212725692113, -0.006418199755749366, -0.00016873863327842892, -0.0005942888813094344, -0.01435930141403773, -0.013262207783881205, -0.004651766470721395, -0.0001801392723634276, 0.0077183672546474865, -0.01074495888912405, -0.004809889338113607, -0.0014290378379275125, 0.000630128358453965, -0.0031402109939956744, -0.001752945850403441, 0.027371981493869768, 0.019475370032951984, -0.003633530082513478, -0.008736110586296978, 0.024967834693260377, 0.008764981212127923, -0.01924101231505248, 0.002130493190244942, 0.002862355776447931, 0.0040233424902067945, 0.0016705045459109347, -0.0016549552190514858, -0.0009720148288205726, 0.008090979675097223, -0.0017724783729815487, 0.003675962535342553, -0.0063362331074918645, 0.023051641542744084, 0.003120019220862233, 0.002477036136716626, -0.010142869316174119, 0.0024802047128278312, 0.0015562765906225323, -0.00868556735677864, 0.015309283379772547, 0.0035786053410933544, -0.014182264958962722, 0.01075872361043045, 0.000609472390574333, -0.010448679066455897, -0.005629331804133951, -0.009245097781258566, 0.004530227176178524, -0.01296641641316462, 0.009080952152419185, -0.007367689554085632, 0.0034724053612423377, 0.005399071072725915, 0.0016033714281449758, 0.023596500664123325, 0.005106454786440842, 0.008448049162138668, 0.025947120144636546, 0.0074756663423346725, 0.00343276811905676, 0.007283055867686401, 0.012871329954152487, 0.00452411538819697, 0.002377131054047616, 0.011957831231772978, -0.012284068412294357, -0.0037600633316062677, 0.029952811384432915, 0.014803543514962804, -0.0008136322029085716, -0.010388731346780897, -0.005831161798406262, -0.0040729933414559725, 0.008586134955758563, 0.005901682028365364, 0.0037308226030243904, 0.002865716700750713, -0.005880391110181039, 0.03923621626353595, 0.0015049833318048576, 0.004377620003735636, 0.030659233297576305, 0.00408384208671066, 0.006227733409557756, 0.015741919268598765], [0.009022589304228371, -0.0066399014017923825, 0.01118436472221695, 0.006621191193642147, 0.000554635188448216, -0.0007018873472574664, -0.016784287405033974, -0.00420798093812695, -0.004463352036626181, -0.0067845529757177446, -0.017167688430087483, 0.007286696270916752, -0.0015488381250331952, 0.00991714978895745, -0.010201296982156794, 0.009620481010027068, 0.0037586341189114166, 0.00312752774663996, 0.0027044136571665297, -0.029026649021807568, -0.02063563264217412, 0.002230467970864252, 0.0003790276241971294, 0.012099535078797153, 0.0065798084367108545, -0.016348554276391036, 0.013133265248870965, -0.009087214698308201, -0.0016479267819224696, -0.008098475396611958, -0.0029791046523639244, 0.004400619302479402, -0.024160916397230506, -0.011022650064724538, -0.006957021836148944, 0.003527745890047151, 0.022408350332405, 0.0015759618791778578, -0.00022321047910314884, 0.012937839443588114, -0.00845299831771337, -0.004669326742550313, -0.008875034000961719, 0.00579634701789624, -0.005769097627480657, -0.039395387196811425, -0.002757619683398556, 0.0011860617620771034, 0.007375731019892044, -4.232732781356343e-05, -0.005708652877079654, 0.0026113520708890337, -0.002072232936631632, 0.009612275133792852, -0.0020194449583664517, 0.003032375653681854, -0.0013486468533324854, -0.017214477116327745, -0.03738446236055496, -0.009999312161155204, -0.008650656748329627, 0.007889800796736514, 0.008387360205090132, -0.014255759611129504, -0.007181658924296271, 0.019738196710230402, -0.003135657735962483, 0.00013397630840645587, 0.004061878614471066, -0.004688444240028685, -0.0024974293167268173, -0.033544697198676095, 0.0016757553335445122, -0.008916184657156035, -0.006695508543976695, -0.0023053507860008827, -0.008880612658882599, 0.007583693448560395, 0.014064451739452194, 0.0016533270486956612, -0.012921806023697328, -0.004835410961515783, 0.009078105299021295, -0.02662897099367312, -0.021910703090111047, 0.007572861666593891, 0.006704647504392765, -0.005892370738984394, -0.005431063261356228, 0.011523584545337336, -0.00024247229607877617, 0.006142227684733348, 0.00430377554366393, -0.0353781290787972, -0.0019557730501761545, -0.005006181760221579, -0.020251385238740094, -0.0238913373570872, 0.00155697091803079, 0.0028298816794664157, 0.0015563257689805655, -0.006727148647662275, -0.004738871808668943, 0.003360690031311173, 0.008053533645364482, 0.00747065408655652, -0.011867420001242182, -0.0114950296526355, 0.013401736027008357, 0.0008601054716873822, -0.02538967016953271, 0.0030990811581840423, -0.006920996609585677, 0.016411224048899286, 0.002372920215953032, -0.017821873579707322, -0.001921809187267994, 0.01334976705899423, -0.006994869703879654, 0.009433369044478588, 0.017696648813203927, 0.015161316996711806, -0.002644932455221037, -0.024015366485083924, -0.035479483974229044, -0.0046860134849067165, -0.0029589656985603585, 0.011340273135551972, -0.0033152478833183277, 0.008784661312763538, 0.010731705902688371, -0.006046177999405079, -0.012274783393212908, -0.008442472475808302, -0.004042890701490019, 0.009518427004494779, -0.03261166225814411, -0.00012973609957323015, -0.0014609192558642835, 0.011643366855689579, 0.00418739052241963, -0.005342212869689273, -0.005309942384974953, 0.002354032544530914, 0.010411869552046317, 0.012251466090084413, -0.011057488441650555, -0.005808530109382264, 0.004524816856820685, -0.037820570916468475, 0.0007356518610713679, -0.0049443867213297315, -0.006896367466437386, -0.015534565666410066, 0.01232340791946531, -0.002180739061365214, 0.02447147251948836, 0.002166015768650234, 0.006654975942040972, 0.0021640451963519276, -0.01439686615538209, -0.00033669663642054386, -0.0370588233186802, -0.003425238519153538, -0.009574050513617377, 0.005715895252928295, -0.0034073861360111677, 0.00335835500292067, -0.0009712735382971791, 0.0011382692515505754, -0.00014861784729286782, 0.009308786720661549, 0.015844774360560216, 0.003946370612902123, -0.014209698550651708, -0.0325335297491566, 0.0044548201276017095, -0.00834414554530397, -0.007500350218772792, -0.006001474911411282, 0.012330864938053151, 0.005029057426607024, 0.009826435230003507, 0.0007653692032222475, 0.003227920711935046, 0.00924442915117464, -0.007697145678766288, -0.009609683291615722, -0.03156880607100882, 0.006022172701089238, -0.004201341214797872, -0.0005999264635881019, -0.0023462335027823857, 0.007770982137130576, -0.003632317685819054, 0.005378885691463244, -0.006362852560398984, -0.004768673774949074, 0.011817097675007745, -0.030608263517994824, -0.0020239580002715724, -0.028731762330227992, 0.01081849254492407, 0.005961894521193826, 0.008215370857608359, 0.011109291619455822, 0.0013029890932105335, -0.0061755811675617495, 0.022174460727009286, -0.008743554724095616, -0.0010206313924203336, -0.008608623706388737, 0.0013333539299411289, 0.013138623609280592, -0.01945855524503511, -0.00215610055841855, 0.025948881989180935, -0.025388680502254346, -0.006926536306721044, -0.006124840086914789, -0.005806283801689994, 0.012370389049540985, 0.015005468046837566, 0.00077974899275395, 0.0067342008646006975, 0.009127893034320031, -0.005483351421324536, -0.032135134054943525, -0.0054034002928175845, 0.00013012794308991474, -0.0020754290745094725, 0.0030500847904626005, -8.843819056817526e-05, -0.005076497752071588, 0.023935234557790643, 0.01927648646342542, 0.007518746894334293, 0.000697689373935596, 0.004906046080319062, -0.006908638008689067, -0.03269602576899718, -0.006182300200433212, -0.0035019793930125935, -0.002454862766104446, -0.0004200084248355053, -0.007591344847020169, -0.00788928900903935, 0.003082680679167368, 0.003968904009839024, 0.001927691497631409, 0.01340246703919152, 0.01708032300335461, -0.003812912462472161, -0.02950754128846311, -0.014565027502047193, 0.029246696912257782, -0.011455580195251832, -0.01495370927749497, 0.018957013848732097, -0.0030924442458884448, 0.012983328419803401, -0.0066930653405173944, -0.006063285950134444, -0.002600559412379833, -0.004592026611076906, -0.004265972016254672, -0.030405722410241427, -0.0007930072853195363, 0.00639830421926306, 0.008270562883493164, 0.0015612818438807757, 0.0021533922375806726, -0.005835885763804836, 0.016309412427561457, -0.007460957430566784, -0.0031950428529647326, -0.0011629570510740918, -0.014074391516993063, -0.0012520219536872983, -0.035375084267961605, 0.010655879925571033, -0.008885564747270487, 0.008452548894079311, -0.0027981984586987465, -0.009912769483483483, 0.026144478001444, 0.006045824857582034, 0.0026172055899109275, 0.0022793949757841476, 0.01620135712618498, 0.013017212035052649, 0.001642740884888053, -0.018877534153425184, 0.01149896099431872, -0.0007191331622391042, -0.0069146538586928605, 0.003919798761599131, 0.005836733081077265, -0.014312562827544442, 0.018358211132640558, -0.0014182819644705767, -0.005718329316640533, -0.0014561578096743105, 0.006829336534904256, 0.002437559892973808, -0.018476297261294305, 0.005776654733855102, 0.007474337101364971, 0.008743471890107771, -0.001461188497079005, -0.0013137882919354242, 0.0024539179276819793, 0.013162451252124861, 0.006044489725347224, -0.011173559610168117, 0.0054036122728225635, -0.0047145534636171054, -0.0021971346246217756, -0.02482896569422921, 0.0101101103100651, -0.0020259170443737294, -0.0002899070314995411, -0.02235917940487176, -0.003911740790317696, -0.0002508644160526299, -0.012153271742777066, -0.005370511944851849, 0.00634392562052178, 0.0070098127810000145, -0.0004953911650605252, -0.005286124202778819, -0.033689857505717256, -0.028141195453839626, -0.002600619275895106, -0.0017399543153285091, -0.011463797153023158, -0.0037863538849070752, 0.0002793492686810014, 0.0071029331329877975, -0.010744032924664262, 0.012982498345137386, -0.010336479958056501, -0.00635581847840324, -0.009691165669104959, -0.023819400153425235, 0.004135849703835029, -0.007295287476210323, 0.008482880634562455, -0.004207829994380841, -0.0082390940701556, -0.01000387036474068, -0.0033460622802586933, 0.015549423995521136, -0.004226995754263261, -0.017247139535209323, -0.0030485960203303865, 0.007142886056780442, -0.04057903672632601, 0.00860881480152223, -0.012384538846584964, 0.0009276911111965028, -0.01052787421053784, 0.02705202620937694, -0.003845177076858231, -0.0027440895413036546, 0.013118382264624306, -0.0014757894009027966, -0.004323618028281655, -0.00456074852345902, 0.006928716294063532, -0.05173494370632648, 0.009931327668350965, 0.015692006217688962, 0.0015392187246348347, -0.008024749495701158, -0.02325533535295455, -0.006657223903873654, -5.291203829905874e-05, 0.00033698649524590695, -0.00994061728220514, 0.005999410206872929, 0.0012732952521103003, -0.01758566263611358, -0.020647310618417253, 0.012172909046704749, -0.003783436710360358, -0.007983081977507028, 0.0121773281218886, -0.002879068307327684, -0.00016865697392236023, 0.012339543477360462, -0.015363009006577517, 0.005158557665828626, 0.0005537499976375597, 0.0009096210141431325, -0.013020959571779213, -0.031396023189892784, 0.01216998374679095, 0.005756615171189611, -0.00340727830141074, -0.0028052385531670897, -0.0033833852699383014, 0.009971671377806855, 0.009867501332641937, -0.0011719762415288893, -0.0005406216578663868, -0.0030299905496238085, 0.0014973769727568524, -0.0011799634515155394, -0.03792807483892006, -0.008394790598045505, 0.005780990992747988, 0.017420407151299028, 0.006145415598635221, 0.0074444913135151055, 0.0040781087899062814, 0.012444689548839023, 0.0077381249981643575, -0.002042689546128418, 0.0013660938977463886, 0.008222134283987655, 0.01180109508555706, -0.02377524212513206, 0.0034638123148953447, -0.013427164641141598, -0.006681485280694962, -0.0017828261275456582, -0.005483352511357298, -0.013575492299690411, 0.0010262472570143108, 0.008259480907922103, 0.00018186212331590084, 0.00497383287212694, 0.010115685189075706, 0.0024103210138900328, -0.039675130401078895, -0.004402447335078168, -0.017731393203970516, 0.002663523135527689, -0.002297245607889693, 0.004350384803891403, 0.0002497350705684423, -0.0006162436872455534, 0.008188638915285464, 0.010253114447149284, -0.00558592131051638, -0.011874579390118524, -0.012254498439210459, -0.042997228046557444, 0.008574168386359033, -0.02100178651175233, -0.006816332197151997, 0.004227787130115472, -0.012231426881382797, 0.0048458740450104485, 0.002559949221627213, 0.0021111699248657126, -0.005005736910060626, 0.004946830877987801, 0.008442104759699705, -0.00517859691711396, -0.024746238273397243, -0.020791337948376534, 0.00024067649175661104, 0.010384987628184905, 0.006511354753946566, -0.0009088051899278333, 0.005360840097091441, -0.01062654713373916, 0.006909937729973724, -0.006745415723863447, -0.009820611048108621, -0.0010305116411725383, -0.0078002934296191985, -0.033181486599635344, 0.006050907112471475, 0.003327812163380878, -0.006343095389013894, -0.013392629825384524, -2.518675997787663e-05, 0.00024449236526368206, 0.009543140137431546, -0.011927453577345754, 0.002295674484162262, 0.006584178858686714, -0.006412510121297729, -0.009602264491412016, -0.03750696289643887, 0.010745179863219522, -0.016792110547829447, 0.0067007343530659565, -0.013523197868088014, 0.005203718091596132, -0.010182936041424085, -0.015157615422460618, -0.005350363959821056, -0.01628460587053345, 0.0028274390189864922, -0.001596152517479503, -0.010480129947252401, -0.024378255048538754, 0.013446484639940004, 0.0016445346896511082, -0.0035055035895399833, 0.0019748071846220332, -0.0043672436722100106, -0.007279105811999674, -0.0075455934452002835, 0.011738563049495037, 0.018510059224096487, 0.005090193767378261, -0.003911678826036184, -0.01619423144322717, -0.007597611038419729, -0.007315649441374887, 0.00904811611587795, -0.012457405525550786, -0.0015671375478918587, -0.009954028925077702, 0.004118538575474381, -0.007004660000220553, 0.0015504689953495191, -0.004860138348407477, -0.0116147526166719, 0.0009691764827865493, 0.005976190932937251, -0.013561348512064012, 0.001762690514460669, -0.0010284294376220048, -0.015394588075672391, 0.005591595898056732, -0.002320144963251757, -0.006395870647853476, 0.008225174803581098, -0.011526825982718947, -0.0080143513311851, 0.007345178176251471, -0.006278927170874926, 0.004186595282685582, -0.018401315800162042, -0.012921629162779611, 0.006416361787897925, -0.0019790342101632355, 0.004783040258922166, -0.00046232148344080087, 0.007686855862883007, 0.0020559735341783908, 0.009911930087533178, 0.0033106548811136544, 0.007034356322763807, 0.002622643330381963, 0.007928949093348441, -0.03266433902488862, -0.005527815096659081, -0.0031378790874324702, 0.001936955496457688, -0.0024458311737308902, -0.0007681223635676046, -0.005856151907516421, 0.010377744882052153, -0.004627815308681322, -0.0023688769799728106, 0.015773817874880768, 0.011422939892927935, -0.00808105057397033, -0.03956160159697684, -0.008278646373353455, 0.007465064699070613, -0.010544681055275066, -0.004063157973475597, -0.006185656295295889, -0.009694813384386202, 0.002796929853456302, -0.00020163418190341896, -0.00855692423145624, 0.012957314343207803, 0.003499409502553471, 0.001779339612122105, -0.02507497479633273, 0.006741797343851227, 0.0036399053017041293, 0.006725617994909417, 0.012592658047749209, -0.01422004315683227, 0.013194195635393497, 0.004282637464234738, -0.01154803989042319, -0.008225182639022329, 0.013385115663388373, -0.020058874371979372, -0.006171010707476248, -0.024808437356427196, -0.0035604173367002156, 0.0019778730546357857, 0.003257574251730552, 0.007444567629930841, 0.002814051075068338, 0.012431864028427494, 0.014789588114325469, -0.006423131465586582, 0.006654321990711803, 0.011332045107184222, -0.002007079362023085, -0.018608217754774052, -0.03016125717296006, 0.00573823041377196, 0.008023747467627865, 0.004339128835184609, 0.006992953700242607, -0.004839844728615986, -0.0044111150565757555, 0.0004622230633879413, -0.0039903742956089875, -0.007107451897465457, -0.011291840514981057, -0.004040658016172842, 0.0009839509801804235, -0.016221149667834275, 0.002646318018386427, 0.0005537789737769163, 0.00550776755202308, -0.0011278846597557724, -0.008804685484566886, -0.004616836465105652, 0.011520116821545226, 0.007762980727685075, 0.0019105886603960616, -0.008984650726985803, -0.008431355214940027, 0.012194986837138653, -0.019021488002359997, -0.0031647684426700413, -0.02483778182380167, -0.009205043132923528, -0.0022998847438700366, 0.0001654730641318157, -0.010493104852807893, 0.008485191161030472, 0.014027563108884759, -0.006247771526719369, 0.004619077709483996, -0.0025755192739968426, -0.004502662417524167, -0.031218210712132117, -0.01905648674487581, -0.010173549799236922, -0.0024890874633699033, -0.011030967781501073, 0.009594603279509648, 0.0011648779058969255, 0.0013927648591341858, -0.009676730459713255, -0.00604806361337513, 0.007570842023979629, -0.00961967898475729, 0.011008325425326308, -0.03562491660551302, -0.011703954933481494, -0.0009778778431140315, 0.001331466174860085, 0.0008912242282630374, -0.0012178370814302675, 0.0053499136192261786, 0.0033930089840902697, -0.006355024842905271, 0.008982660352192142, 0.0015053573855150727, -0.0027016543660320132, 0.008704916590575347, -0.027468074946433108, 0.012578477645539867, 0.020835614788519162, 0.010052850203396201, -0.01283691403706123, 0.00014637874167431532, 0.005374843638093054, -0.000421236881965914, -0.002018251613166151, -0.015583421755434838, -0.013527922720677743, -0.0010346989445673362, -0.008064782353249417, -0.015273958079389967, -0.0031976421993142492, -0.008689084086151629, 0.00372825083040162, 0.02246523839393486, 0.001919642130441927, -0.0028782280321266486, -0.0005346940514297724, -0.012907992257368326, -0.01271418747503165, -0.00267895902657309, 0.01219665377299841, -0.015861166177831777, -0.03946933268218679, 0.007619769248192567, 0.004826739884458616, 0.005257158461705458, 0.009832452566657152, -0.002191571072005006, -0.001066912480219167, 0.013411225881953013, -0.00042436640729249836, 0.008671814222293274, -0.005628853334887181, 0.006610689393028889, -0.014438183359470108, -0.01604720212442287, -0.0005231006113556152, 0.003173312661325748, -0.012962787774663262, 0.0008580227440876518, -0.018420843174756677, -0.007294930734351432, 0.008348651380638752, -0.010501059040125351, 0.0036440648682033875, -0.003617490003124165, -0.02408311244795401, 0.007381349846635378, -0.033338387794545066, -0.002537702400585688, -0.0053290916196914225, -0.006803593642698803, 0.0075454625241449325, -0.017278265191326393, -0.005911154218536634, -0.0048702612479503546, 0.006447529626277758, -0.001931311930691586, 0.0021508721714031584, -0.009489550773137177, -0.0034947530752244527, -0.025971697990027156, 0.005048141065155145, -0.010000538763622406, -0.0016797815807588158, -0.023335243742548206, -0.005798413021832314, -0.008445786516155886, -0.0005087581240479408, -0.011351687585218246, -0.003423855542507863, 0.0014923938974302998, -0.008182570427703421, 0.0029971069101603653, -0.03403905112802508, -0.01127914243749349, 0.001691245629244772, 0.004535767513701038, 0.0034391306957236648, -0.0029274396969528843, 0.013003966809269631, 0.001237185028682543, 0.0017119379778003127, 0.02217996194586602, 0.0008851058905754644, -0.012032589624857504, -0.001940538908804839, -0.021289797831998657, -0.004847831390604253, -0.013621536092961357, 0.004757187981271962, 0.0007464370356595332, -0.003046316720718196, -0.0065928758778930315, 0.015743043619238103, 0.019038701286561762, 0.0011417710250335444, -0.007156126292976682, 0.008856090436980732, 0.006411132217354934, -0.0247615758103491, -0.019902153326998902, -0.015065309508198219, 0.00327991956937373, 0.014937400043381052, 0.010615204016690721, 7.393614254933714e-05, 0.01810895371943382, 0.006769593401065566, -0.003028056926526533, -0.007404581906358309, -0.008539887690889855, -0.025010118568054417, -0.024188324932197178, -8.429027145535202e-05, 0.009102329664754032, -0.0033216006755830848, -0.007413571852596022, -0.0047742113175314035, -0.004934530965501264, 0.0198629276187581, -0.010067703214236242, 0.009767322342157325, -0.010356791314783328, -0.005587199250486042, 0.010040499966033303, -0.029859043490669493, -0.0011433574528395612, 0.008668008441464734, -0.004083587440437575, -0.013684901614469756, -0.000533624860943538, 0.005542314828684119, -0.0003772023850695169, 0.020087481626334912, -0.011613597717389113, 0.0019394177508511037, -0.010674405284260235, -0.010466476839444766, -0.02976147528046965, -0.00754379582156531, -0.010244034428429014, -0.01070779184300498, -0.0011628849477819199, -0.012583142473205064, 0.0015191029226344422, 0.008733477269549244, 0.00742771483231569, -0.01891077158641249, 0.006663035720288917, -0.0007087452399473855, -0.022313262923456607, -0.011400410684128625, 0.004785792102487072, -0.0015815197382199522, -0.006638054295030179, 0.00301550168125889, -0.006691933266952278, -0.0004211611830824396, -0.05174182004359918, 0.005167906885357654, -0.01398090075029482, -0.01298833713682875, -0.011013946308703176, -0.02337427535907997, 0.011749932985538369], [0.00714114775157184, -0.006096607883921139, 0.01711670573737156, 0.0007388889079808973, -0.0012940879541200562, -0.007240713502784061, 0.02879259256723706, -0.006399780139908216, 0.0029249149915547066, -0.006170539191219851, 0.01314445221939948, -0.0011999310167984788, -0.0020743233395247645, -0.000507243101300467, 0.007710621293604069, 0.007062270755808722, 0.02425908642745498, 0.0033493374284522567, -0.0013029239277232035, 0.041048445925271695, 0.03076797204219348, 0.004495782801289488, -0.01621351440349578, 0.007665636690894539, 0.0034110246581690712, 0.0009102693615137508, 0.016387089452667373, -0.002241991815744579, 0.014130544629606744, 0.0010107722222591352, -0.02046187414128921, -0.0001995206257370713, 0.008864048790716927, 0.0027645041835929114, 0.016227068893230313, -0.01164413745942339, 0.016624116006004087, 0.007849349415452744, 0.0013517498359908054, -0.01576791985378215, 0.026753389019241843, -0.001021910282554568, -0.005368929859089122, 0.012789828454709419, 0.005497417851708856, 0.03194609777025776, 0.011370733029426254, -0.008068596895770887, 0.0076949165018837, 0.0002506623847674498, 0.004411380056709165, -0.010448030526070911, 0.001240829029308851, -0.004666393538459617, 0.019103478395507394, -0.01598501314764917, -0.01548020450440125, 0.0008880296850340397, 0.04875340926022474, 0.0052828227475572725, -0.016216271261467626, 0.002629881721925229, 0.005452496747952152, 0.003548767096186017, -0.0006021762966952295, -0.012135692115431541, 0.003940604648737572, 0.002035487380234948, 0.0021401225276806136, 0.0007509648626369574, 0.019514394267902586, 0.02423599554602907, 0.005996374116458525, 0.013194672348726573, -0.009662644787482768, -0.006345420551810029, 0.009305570948086673, 0.0012267524146888171, -0.002187579292717712, 0.0002934261314563896, 0.010494253918820669, 0.018830355309032088, -0.0005520683444730554, 0.012789232711169817, 0.03573242361434339, 0.011742693415907349, -0.009668204704472681, 0.007230280165601401, -0.009708406256968066, 0.0017096407912871115, 0.012348846023091, 0.0034491468833327443, -0.010676113901789321, 0.01741919321856693, 0.012148195591127196, 0.00044204624582375114, -0.017031236847559, 0.022684750177585592, -0.0046108086807116365, -0.005524011307440221, 0.015476423831390843, -0.00013552869289194325, 0.009375594261398465, -0.016872695196182563, 0.0005690348577161917, 0.00687406853027978, 0.0011833256325814536, -0.006249535469059537, 0.0034109900086513913, 0.007314827261326165, 0.021796482870806582, 0.005752611669241566, 0.006993414943919381, -0.0012588028135644975, 0.012710960530757274, -0.011623778325832928, -0.0009462100405653996, 0.003978689153865325, -0.000564825548102542, -0.00655478521566653, -0.0007160183630914216, 0.006468266319371105, 0.0056114363446578865, 0.03800068421305006, 0.022782445950587406, 0.019520124358122268, 0.006901948243436154, -0.0025332401225262344, -0.002885905588988458, 0.0039300730866802126, -0.010903905568446871, -0.0055242315107707695, -0.0016435478747827688, -0.006017319722968993, -0.002276990467693326, 0.004076695978503366, 0.03765081001028914, 0.014745412998750682, -0.004798695967959774, -0.0006897285982693622, -0.004814667304054497, -0.004133785101104361, -0.0004845179551610629, -0.001757778792868388, 0.008890897714828988, 0.0049858220892953845, -0.009707759719557134, -0.008654567555716204, -0.008296334781967053, 0.04108185442830303, -0.0022700089131255166, -0.012902709267956012, 0.005027505820762197, -0.0002786189158412489, 0.0003111211971059834, 0.006123084616043913, -0.003100047044633117, 0.005834568925823915, 0.008592243024294234, -0.010076472830932647, -0.0044839510111741665, 0.013890813667307992, 0.029181041731016773, 0.004309505897023679, -0.004663710604296782, 0.008051605886705438, 0.009742335689111058, -0.009492329007756923, 0.003051117457377103, 3.7219160192018115e-05, 0.01341902042347703, -0.0015493365512074047, 0.00503108925230968, 0.014817346081077416, 0.007677236745985995, 0.03274604378410575, 0.005441341575897056, 0.010372824702993394, 0.0042895941285692315, 0.010061956215493507, 0.006086180972068848, 0.014661832024912568, -0.0026084363960368864, -0.0002915636204696719, 0.0024808373032608757, -0.0035386924930302455, 0.00043466743777705497, 0.014257571273060331, 0.025199614085580826, 0.0175750537052113, 0.005288392660313544, -0.002738722451731842, 0.0014657629003466356, 0.01233917749451881, -0.006598560348155727, 0.002631355208621192, -0.00436007079164552, 0.007831806658685825, -0.019375462445782247, 0.006494127691026175, -0.00024206871881446646, 0.04422264923929587, -0.0011808888874023041, 0.005457193346187903, -0.011736710386999999, 0.007618569338701019, 0.002936736983961216, -0.003154789304219304, -0.0055475350382937, 0.0014961058637588398, -0.0058351735991015695, -0.013896311365875566, 0.005642401825663928, -0.0011799997678222113, 0.016496694707859208, -0.009754941938807058, 0.002221909395742358, 0.008752276597727702, 0.002454519576692931, -0.00017110232287241738, 0.002257881024633237, -1.902149171872443e-05, -0.007644171984639286, 0.0018420000319658383, -0.01141423363643124, -0.006832143034229673, 0.0040147782053664635, 0.04224330041668903, 0.015852725086514294, -0.006185077904616966, 0.0022782992631815713, -0.023984692866467042, -0.01185146326457446, 0.007858291219947834, 0.006426504910213177, 0.011133913262714925, -0.007144197218749403, -0.004083824512860131, -0.0064366827983095036, -0.0032196244138962323, 0.03485743312062193, 0.00024437742147008745, 0.013775928315668087, 0.027660802687161593, 0.002580110830104344, -0.013255809528116754, 0.003801869127259844, 0.0030375613796056766, -0.01267976702259041, -0.0003558086893210447, -0.0014466836331810647, -0.0009794643420836374, -0.01963957253298262, 0.03377809905865803, 0.01735790066742632, 0.005530944778389137, -0.002066445015928096, 0.008724899218160297, -0.0033880530624860413, -0.01155779014601759, 0.001457830344903894, -0.006616145983991852, 0.00878792747886023, -0.008608241371308839, 0.00928032716532164, 0.010456535713152259, 0.01886357992274307, -0.00778767290698775, -0.01755772402161069, -0.0008773776934627413, -0.022922293011890898, -0.007926808734074139, -0.006348337547279523, 0.008948183610021586, -0.005528387561891217, -0.005137468455169931, -0.0029637689876542356, 0.0007896032803765136, 0.013868613005412086, 0.041866884190452765, 0.007134227186924025, -0.007583908658165315, 0.013498699170495863, -2.3987116861846486e-05, -0.005758538678786171, 0.0017312919778770574, -0.0034287167694212273, 0.005296922211805158, -0.007625822826787921, 0.008180061863373212, 0.014146522593971552, 0.00838725157631689, 0.03320470137557763, -0.00976306149415901, 0.002181333752313536, 0.0033093662910154277, 0.004200127666240454, 0.009818826550788659, -0.0023669240897038362, -0.006770119466680512, -0.00045156382202818585, -0.006466288364670881, 0.03256298468904579, 0.007698946820500083, 0.013148770018576717, 0.017939145991115374, 0.006126098806148853, 0.004057750605309046, -0.001420696830766383, -0.01664826998677064, 0.01049055155530718, 0.0029100823826942253, -0.007627256976930975, -0.005395543934441006, -0.0023380522338995197, -0.017594445429705393, 0.015619594107408865, -0.004788492282691154, 0.027294782982534505, 0.011271908257885472, -0.006687159467164516, -0.0030465565291565204, 0.012231301889658293, -0.004395169701154516, 0.013020001915132213, -0.009079088235713554, -0.0052073926875742735, -0.00466475514833582, 0.0021054726558492904, 0.00895246780163896, -0.00030513645245156397, 0.023849170814570317, 0.014832414652732658, 0.012265823458385151, -0.0015131885604371415, -0.004422206348516787, -0.00021154324762129932, -0.014012176426105251, 0.008622571765740723, -0.0034556622631609826, -0.008049854444742759, -0.012095184095693504, -0.001754453269251424, 0.0015602274349579143, 